2447 100
pizza 0.0122429365 0.13921493 0.029250478 -0.07670246 -0.44567606 0.58838797 -0.25194347 0.5168522 -0.39237246 -0.21352078 -0.87338877 0.124672584 0.5503242 0.3338435 0.46154094 0.1068425 -0.25920308 -0.5273691 0.21016267 -0.064964525 -0.41052014 0.17202374 -0.4324223 0.40777582 0.61862046 0.2932453 -0.20804586 0.054464694 -0.446623 -0.2519985 0.119654365 -0.22820249 -0.8284389 0.16112614 -0.3538656 0.057461035 0.4911865 -0.024911718 0.1973035 0.41013014 0.12306994 -0.1158641 0.4411152 -0.11608902 -0.15686797 0.38745692 -0.40749764 0.58519924 0.6391046 -0.18952106 0.1991157 -0.71622145 -0.19274096 0.04755354 -0.08763125 -0.26924148 -0.03866332 -0.13180755 0.03050672 0.041490313 0.4716903 0.5019088 -0.25201488 0.37566704 -0.30254298 0.26466268 0.26493588 -0.4548067 -0.69936574 -0.09322856 0.28817728 -0.37313777 -0.09015935 -0.38493708 0.61134565 0.10018021 -0.07032712 -0.07941191 0.05443295 -0.013996497 0.47588614 -0.74582404 -0.115869306 -0.17391156 0.052751105 -0.32905045 -0.47968552 -0.10722454 0.46164393 0.3339586 -0.2973211 0.62046695 0.34854156 -0.22846334 0.55057317 0.015319161 -0.22724536 0.14714581 -0.65715384 -0.45745242
subclassof 0.3675062 0.019600995 0.19858646 -0.09971246 -0.2038594 0.036627322 -0.5328077 0.5671821 -0.17124571 -0.25789884 -0.67207515 0.3217283 0.3921727 0.18976422 -0.28907135 -0.021522297 -0.3412313 -0.8114888 0.13569796 -0.32264024 -0.8141564 0.5575744 0.26901725 -0.121764906 0.78814065 0.15049751 -0.68160254 0.031086283 -0.55602473 -0.17314677 -0.36011928 0.13703324 -0.8851468 -0.34839717 -0.02569173 -0.7010493 -0.05492126 -0.30087805 -0.09188578 0.44263807 0.5129853 -0.74246126 0.4983872 0.28359893 0.20704599 -0.43887615 -0.10639011 0.7076535 0.41901717 -0.5290859 -0.055011436 -0.33595008 -0.743112 -0.2611868 0.54585236 -0.16164908 -0.17071131 0.17221688 0.004979333 0.2889647 0.5347333 0.326796 -0.12042707 -0.15936741 -0.15098901 -0.31407437 -0.29080856 -0.44126606 0.27469662 -0.47877723 0.12511677 -0.33790404 0.40354878 -0.27863052 0.17104135 -0.3988017 0.50233686 -0.4944062 0.2755203 -0.2604781 0.33612892 -0.32952532 0.4405408 0.42538884 -0.14493628 0.35242543 -0.5817293 -0.14363036 0.10464416 -0.40145695 0.7952142 -0.07537589 0.57988936 -0.37421286 0.10096653 -0.7298662 0.5812316 0.22853895 0.18497391 -0.6851332
of 0.20455839 0.007145001 0.082997665 -0.016585795 -0.22428973 -0.07683385 -0.6699155 0.4959477 -0.26439467 -0.057702906 -0.7578482 0.17203733 0.46405858 0.35283998 -0.066188246 0.1040745 -0.3382437 -0.88425744 0.22749333 -0.23954807 -0.8669913 0.5832946 0.37119105 -0.047673564 0.7580687 0.055079214 -0.6991795 0.10841788 -0.4859489 -0.19795199 -0.41833246 0.26249495 -0.8577809 -0.15821145 -0.15476084 -0.61014694 0.03301097 -0.045108598 -0.24457681 0.4163902 0.33448628 -0.50944453 0.46222407 0.2262129 0.13063462 -0.5213334 -0.099265784 0.75587976 0.46259227 -0.5206278 -0.17712723 -0.42210025 -0.9718781 -0.27976426 0.6441635 -0.21273586 -0.055456545 0.17556967 -0.06239515 0.09924373 0.5872003 0.5434569 -0.14470863 0.0020647403 0.19098374 -0.3302578 -0.26683593 -0.5022815 0.23424684 -0.29326147 0.16189505 -0.42846256 0.28696227 -0.17493984 0.4177747 -0.34714147 0.44474313 -0.61338633 0.21796675 -0.3040089 0.26589987 -0.19453172 0.5212256 0.47480586 -0.12606657 0.49538788 -0.655386 -0.19450402 0.072601564 -0.27190706 0.81294936 0.06572556 0.84967464 -0.3378928 0.044163372 -0.7122856 0.78760695 0.39483485 0.068433926 -0.90767604
ingredient 0.23792927 0.09967445 0.018906178 -0.022042187 -0.39416352 -0.25796375 -0.59632486 0.6961304 -0.5161084 -0.35059676 -0.8576074 0.24034125 0.14683233 0.19036794 0.003913352 0.075502895 -0.14255463 -0.8338012 0.600278 -0.28300512 -0.7236944 0.5494226 0.25394273 0.2283135 0.9838235 0.060477998 -0.45715395 -0.39997387 -0.8919804 0.011120639 -0.071058385 -0.05586982 -0.85661787 -0.030313168 -0.20421751 -0.20563015 0.5429485 -0.3643476 -0.38654292 0.69527113 0.037062284 -0.7162557 0.79250634 0.0469702 0.1054617 -0.8543403 0.105726324 0.6530792 0.5801442 -0.66715664 -0.27097127 -0.9400428 -1.0885152 -0.045881685 0.7694129 -0.1525198 0.03812086 0.16129147 -0.4634129 0.60911834 0.79080105 0.80616766 -0.68215173 0.17173839 0.1914479 -0.20902556 -0.26034817 -0.58383703 -0.49747273 -0.54507035 0.2551641 -0.33417532 0.1981751 -0.26864693 1.0118109 -0.6506506 0.28599337 -0.43782637 -0.25183043 -0.43611524 0.14336663 -0.12994227 0.5685438 0.3743228 -0.12215771 0.13944562 -0.6980234 -0.45021728 0.20658267 -0.2925526 0.4331185 -0.024960011 0.71731955 -0.29625332 0.27800217 -0.29979563 0.3524782 0.15976338 -0.20544688 -0.9652393
http://www.w3.org/2000/01/rdf-schema#subClassOf 0.25339478 -0.1471743 0.10902414 0.19864728 -0.38074875 0.11742937 -0.53269774 0.07024684 0.101664826 -0.15274161 -0.64607924 0.017489178 0.21057564 0.4111145 -0.5302818 0.13369232 -0.09128156 -0.86248815 -0.092600815 -0.35822165 -0.21669318 0.733102 0.25529817 0.065245576 0.3040509 0.0912118 -0.7043936 0.41976905 -0.9222107 0.11251893 -0.40505362 0.41101333 0.0466919 -0.33967242 -0.00077204633 -0.44636816 -0.19448455 -0.5219456 -0.40823433 0.019562362 0.3427644 -0.4055794 0.7742578 0.16982345 0.30163607 -0.07006449 0.0698363 0.6776026 0.20200258 -0.7729581 -0.13978696 -0.36422598 -0.71500194 -0.43448845 0.8340082 -0.3017343 -0.4554031 0.50552547 0.025671829 0.20221443 0.42391223 0.34399217 -0.06935518 0.055064604 0.049527735 -0.16948557 -0.6381383 -0.51715565 0.28287238 -0.18839706 -0.03238666 -0.24570987 0.6170433 -0.10897759 0.49063903 -0.47197592 0.46638453 -0.5693501 0.19084232 -0.18653864 0.36606422 0.004658091 0.06350604 0.72234637 0.0616837 0.044251792 -0.066188484 -0.42903808 -0.20231423 -0.11669385 0.36242956 0.21113892 0.7333834 -0.32483378 -0.1457613 -0.38381687 0.19527896 0.4962423 0.55902326 -0.69925654
super 0.42585 -0.08010258 0.33166543 -0.047759287 -0.2024938 0.07172374 -0.54599136 0.561459 -0.11672248 -0.25656384 -0.7775414 0.1674795 0.46944594 0.39121005 -0.1722438 0.08426791 -0.274633 -0.9144985 0.06737613 -0.33762226 -0.88821596 0.62840885 0.21940489 -0.021974687 0.7545315 0.09404483 -0.80183387 0.051074024 -0.53170395 -0.19534566 -0.3422082 0.199617 -0.91223997 -0.3339666 -0.084302895 -0.5927647 -0.055165734 -0.32381818 -0.0625812 0.48456323 0.54104054 -0.57045215 0.5739293 0.2398608 0.17959882 -0.4579899 -0.022616144 0.87489974 0.4339576 -0.57906616 -0.009232662 -0.30451855 -0.7273701 -0.30563357 0.60237795 -0.21564002 -0.1676077 0.35478356 0.04470392 0.32689098 0.6748034 0.36222577 -0.12851834 -0.086145096 0.03659298 -0.33491936 -0.3783346 -0.66172796 0.30433166 -0.35257402 0.13785444 -0.32457486 0.40394136 -0.2090024 0.08115649 -0.45692053 0.5497344 -0.5894135 0.31053463 -0.37963 0.27276108 -0.21171731 0.4312572 0.34248027 -0.15127783 0.41663158 -0.48269764 -0.33335996 -0.06176182 -0.4412715 0.9518932 0.014485761 0.55146277 -0.27067196 0.050631154 -0.6954812 0.7232066 0.27254206 0.21133474 -0.70660734
class 0.32522827 -0.11072224 0.2723588 -0.11560337 -0.10210087 -0.046555 -0.6826487 0.53816205 -0.20245454 -0.08489905 -0.83472675 0.1756271 0.52975684 0.3313408 -0.08152387 0.110800065 -0.22323897 -0.82168585 0.081626676 -0.50786483 -0.79782313 0.65615815 0.31259316 -0.13660254 0.7932102 0.10197254 -0.6576204 -0.007982479 -0.62280303 -0.16763456 -0.27506918 0.34406385 -0.7994253 -0.21119897 -0.20015876 -0.6293899 -0.07370402 -0.18105346 -0.13793859 0.4875412 0.46217072 -0.4005602 0.48762563 0.22727844 0.22463812 -0.4596605 -0.046720095 0.647819 0.5199373 -0.47453186 -0.123867564 -0.20296112 -0.85260445 -0.2966057 0.69290805 -0.22063772 -0.032830108 0.30198792 -0.06466355 0.07017772 0.5850487 0.50142664 -0.05562242 -0.13752583 0.04885801 -0.35330632 -0.4170494 -0.42186058 0.33020693 -0.4056253 0.22987029 -0.40283048 0.34101295 -0.25793025 0.2704216 -0.39406866 0.4076858 -0.6341371 0.29309157 -0.17261939 0.35350013 -0.21134515 0.45826072 0.60644174 0.048645195 0.3221185 -0.6353635 -0.25513723 0.09815873 -0.23179275 0.8412764 0.09962744 0.8803852 -0.2699872 0.08872207 -0.8055134 0.81072444 0.437164 0.086870275 -0.8129426
type 0.043621857 -0.010920539 0.13956356 -0.29925632 -0.26094455 -0.07027887 0.23312518 0.35062736 0.07077478 0.39556777 -0.3411142 -0.055878084 0.34544414 0.4240626 0.12112168 0.078663826 0.008726671 -0.19743498 -0.2432525 0.028890826 -0.53649 0.5982643 0.20699805 0.20686682 0.29828894 0.13868703 -0.4038188 0.1485786 -0.12770715 -0.13603851 -0.27267864 -0.22438212 -0.10184629 0.089861095 -0.053204104 0.01911053 0.1506755 -0.329714 0.17765747 0.43152082 0.09708552 -0.6097443 0.7138103 -0.023925224 0.0128856 -0.029085925 -0.41694298 0.15459302 0.7051826 0.0064432626 0.16334385 -0.6099413 -0.06463657 0.29179475 -0.060302876 0.14514837 -0.031268165 -0.4410132 0.1629767 -0.042379346 -0.0028351895 0.34845752 -0.14770944 0.1817751 0.17777827 0.656163 0.17102407 -0.13754141 -0.53411037 -0.08667787 0.31660628 0.09632245 -0.2667803 -0.041130472 0.2835436 0.40031916 0.08716468 -0.1444408 0.1636902 0.21451846 0.50288826 -0.21151142 -0.03440412 0.010978874 -0.069707684 0.07348154 -0.23684585 -0.0029490306 -0.2581576 -0.28731495 -0.12741478 0.7797914 -0.002593321 -0.28676608 -0.05901181 -0.16247629 0.40030116 0.29943722 -0.42650178 -0.05130208
Type 0.0017331026 -0.3598144 -0.07446342 0.09665166 -0.14435953 -0.12915811 0.36238146 0.029394554 0.27996662 0.5319991 -0.20729594 0.0061714086 0.026510855 0.28379288 -0.11751719 0.1743487 -0.054400854 -0.18004978 -0.26482525 0.022686223 -0.15310988 0.77704805 0.16184115 0.28097296 0.056170676 -0.08348668 -0.5116502 0.42714897 -0.14039251 -0.15511633 -0.34973836 -0.18317501 0.32268426 -0.17242144 -0.027071299 0.21291347 0.14465223 -0.7742638 -0.16941722 0.31583223 0.05786548 -0.4319953 0.96373516 -0.1983627 0.17408352 -0.12614672 -0.28135896 -0.0692568 0.53981835 -0.05453999 0.005031085 -0.76274776 0.06949734 0.20392907 0.11449314 0.19487502 -0.2065739 -0.31543323 0.08888316 0.15550883 0.025400244 0.42048687 -0.3450716 0.12793702 0.48020306 0.4822665 0.13064785 -0.21741104 -0.4377489 -0.096720405 0.10871258 0.1662036 -0.17520532 0.0016274074 0.4406759 0.096462935 0.26492098 0.065484464 0.22874157 0.081859306 0.18263945 0.0013891681 0.06261636 -0.20271024 -0.19100569 0.1845076 0.058837462 -0.12192803 -0.66304326 -0.32541212 -0.2808643 0.645126 0.09252094 -0.14523736 -0.0025998421 -0.055624712 0.37416604 0.21727648 -0.33726767 0.022386478
http://www.semanticweb.org/owl2vec#superClassOf 0.24603043 -0.32922202 0.104275025 0.28231308 -0.51327777 0.12437212 -0.5795247 0.07585818 0.056083657 -0.13579878 -0.6853089 -0.0009775492 0.3067671 0.5587083 -0.52699286 0.29098743 -0.08410679 -0.8442586 -0.07939469 -0.40363452 -0.30003807 0.797294 0.2603088 0.036390983 0.33943465 -0.0034871134 -0.7978467 0.34492314 -0.82154864 0.03402371 -0.33772215 0.4408809 -0.04916372 -0.29901707 -0.065202095 -0.40661955 -0.24652223 -0.5742396 -0.3737258 0.17345163 0.29939502 -0.3796639 0.69368047 0.23392597 0.27475592 -0.16533354 0.14575934 0.6965367 0.13867533 -0.7380266 -0.17808938 -0.33489832 -0.6804602 -0.42712742 0.9437304 -0.2888278 -0.4402766 0.56393015 0.0017987551 0.20723692 0.5563258 0.30031317 -0.12820002 0.019390838 0.13502592 -0.20493665 -0.6650523 -0.63537467 0.32185197 -0.23409799 0.040873367 -0.19488645 0.525606 -0.103562124 0.37890047 -0.62466574 0.46900168 -0.5413112 0.20563346 -0.2495191 0.2842354 0.12032546 0.14905556 0.69177717 -0.005965394 0.24211009 -0.11367153 -0.4356672 -0.21393365 -0.07086466 0.39719298 0.21697818 0.7769602 -0.32315737 -0.15269473 -0.43285 0.37316546 0.4601142 0.54013014 -0.77653754
label 0.3074921 -0.047038976 0.16164902 -0.06315926 -0.057246167 0.0062782834 -0.33864805 0.52700895 0.011362767 -0.04637691 -0.62724537 0.17228824 0.34508952 0.24564794 -0.054603636 0.06677474 -0.24016428 -0.80403596 0.106120974 -0.41432866 -0.8496456 0.5508775 0.17191935 0.07618537 0.64896256 0.013009305 -0.69083536 0.095531754 -0.5103287 -0.1332211 -0.43103868 0.10160957 -0.6908557 -0.11787437 0.012818274 -0.5360105 0.06638976 -0.3450648 -0.14483519 0.3534362 0.38620538 -0.4779661 0.32760972 0.16559088 0.17332403 -0.24783537 -0.032508772 0.80223095 0.3709764 -0.5087877 -0.06570401 -0.3166943 -0.6073749 -0.18924348 0.47461724 -0.11196222 -0.07318588 0.2189559 0.13222124 0.20049764 0.599053 0.39627638 -0.24485046 -0.07927537 0.023965124 -0.23919027 -0.11027469 -0.37020838 0.18873231 -0.31706822 0.19693176 -0.48541483 0.2982199 -0.13508399 0.27443057 -0.3308911 0.4828742 -0.5141913 0.30071816 -0.058727276 0.3527983 -0.11756494 0.39403698 0.29841495 -0.1661695 0.3799361 -0.40122348 -0.111706845 0.01882994 -0.30761543 0.8033077 0.03272777 0.59949356 -0.32346448 -0.024744894 -0.58620584 0.5811054 0.3718892 -0.057176676 -0.5830908
restaurant 0.07318933 -0.3346042 0.2387705 -0.13075098 -0.3624466 0.20772718 -0.45916122 0.86554235 -0.0784516 -0.2843087 -0.56467307 -0.2852419 -0.02430352 0.19441438 -0.17078981 -0.20303208 0.41392753 -0.78928757 0.5393386 -0.8323276 -0.71583015 0.11163038 -0.093666956 0.28768125 0.29098877 0.62230504 -0.42538118 0.05669739 -0.032904077 -0.42847604 -0.16305497 -0.07024857 -0.26425654 0.104893066 0.18129842 0.03937019 0.59331596 0.015849143 0.09964433 0.1006317 0.47140795 -0.31993166 0.6285136 0.24842915 0.010992459 -0.08206381 -0.18720706 -0.048535924 0.6320432 0.51816636 -0.09331393 -0.33808684 -0.08684163 0.6476823 -0.19992854 -0.105924405 -0.46476445 -0.14040695 -0.31239015 0.15399563 -0.19414237 0.4147642 0.12545112 -0.13050953 0.1395825 -0.36909652 -0.351988 0.021551587 -0.13297197 0.2497096 0.44540995 -0.21205114 0.14610626 -0.9740324 0.068186045 -0.1539673 -0.17156482 -0.46693534 0.21492553 -0.38346487 0.56508833 0.10184218 0.40454033 0.2606437 -0.14484307 -0.3646689 -0.36380422 0.290178 0.40978083 -0.58228064 -0.0010262311 -0.0005506445 0.4104782 -0.2522474 -0.06424602 -0.08620695 0.671037 0.48666787 -0.33724117 -0.2224424
http://www.w3.org/2000/01/rdf-schema#label 0.17298183 -0.10561167 0.071097106 0.1326428 -0.34047273 0.103791304 -0.34199294 0.15953898 0.10364933 -0.01550429 -0.49883705 0.042248562 0.16116968 0.39813286 -0.36213157 0.13220789 -0.100763455 -0.7586268 -0.0711636 -0.31577545 -0.20583354 0.6588435 0.1934851 0.11423128 0.22945409 0.021511855 -0.67118996 0.3684446 -0.7510713 0.08673771 -0.42180118 0.27104554 0.058782425 -0.23386613 0.0057118884 -0.38253456 -0.18214647 -0.57945657 -0.35173026 0.028567906 0.24597265 -0.34676108 0.67270285 0.11790521 0.19498853 0.005663012 0.0712566 0.5814305 0.17239049 -0.6291698 -0.16178016 -0.4224316 -0.5585466 -0.34999058 0.6058595 -0.2643969 -0.32082853 0.4490027 0.05090818 0.29434785 0.31772783 0.22632374 -0.21856064 0.023556571 0.14128342 -0.18331243 -0.40869826 -0.3987895 0.17123291 -0.21755154 0.0665912 -0.3021826 0.54259443 -0.011763411 0.39688677 -0.42457643 0.3920082 -0.45568162 0.11341682 -0.006811498 0.3213092 0.06894407 -0.028067706 0.6171915 -0.02965096 0.12405543 -0.02722171 -0.37891614 -0.25678226 -0.073203154 0.33539146 0.18140043 0.5439187 -0.35040936 -0.12051608 -0.3379694 0.22807102 0.49467465 0.39822698 -0.54729617
http://www.semanticweb.org/city/in3067-inm713/2023/restaurants/Pizza 0.11025836 -0.1638239 0.088849045 -0.014738484 -0.11916491 0.10708651 0.14704017 0.34601697 0.01899356 0.055855263 -0.45984006 -0.12059291 0.029875912 0.3810399 0.044992194 -0.13773966 0.049559865 -0.2762695 0.022206116 -0.065856144 -0.25154057 0.09108356 -0.025345266 0.47106197 0.18552132 0.15858437 -0.66463995 0.20245625 -0.4058711 -0.0568789 -0.052191764 0.14615434 -0.08295344 0.039907828 -0.13435546 0.07481378 0.24026452 -0.50025666 -0.014559236 0.10367958 0.07543622 -0.3316535 0.37109873 0.07854524 -0.1464783 0.3027887 -0.11062701 0.34312165 0.5720594 -0.04146243 -0.23306562 -0.7426649 -0.113061614 0.3131503 -0.11888305 -0.14105779 -0.25552475 -0.16124462 -0.21491966 -0.018383285 0.102703124 0.15432699 -0.29272473 -0.19275142 0.16232401 -0.053107977 0.057263255 -0.19760387 -0.40178192 -0.05995855 0.22237808 -0.09245503 0.10478675 0.03020642 0.36738282 0.02624543 0.061580606 0.14386006 -0.14780833 -0.060019325 0.35878834 -0.08167596 -0.07750719 0.24907716 -0.24962847 -0.1163087 0.11347152 -0.19262369 -0.023855573 0.12690149 -0.14314857 0.3876353 0.0041999235 -0.45842138 0.24731636 -0.02565241 -0.09133918 0.18940699 -0.24435805 -0.13094522
has 0.109308995 -0.081322394 -0.07862218 -0.26520434 -0.49986723 -0.08659035 -0.63283646 0.6961852 -0.54407746 -0.37096226 -1.0436788 0.2559221 0.12000932 0.46860254 0.2880958 0.21177275 -0.16910318 -0.96139914 0.4849426 -0.5291738 -0.40885147 0.944226 0.038829934 0.100867756 0.77945614 0.24108858 -0.42982665 -0.03792351 -0.75242037 0.21829687 -0.3772736 -0.041676708 -0.94526917 -0.23312989 -0.28763708 -0.5641608 0.4109128 -0.15253796 -0.472461 0.6280478 0.2724387 -0.7528164 0.7764057 -0.18296456 -0.10314615 -0.7028222 0.09422069 0.72079307 0.6979748 -0.64030635 -0.30405053 -1.079062 -0.99622697 -0.40521112 0.5692418 -0.68207294 0.37550202 -0.14093783 -0.28218323 0.55979794 0.64449054 0.43797514 -0.5248318 -0.16195756 0.69819164 -0.48374778 0.16442801 -0.37967646 -0.20581374 -0.5689102 0.52257156 -0.39905822 0.20627028 -0.09983275 1.093479 -0.52427495 0.23433785 -0.45362708 0.017531132 -0.037426334 0.07632787 -0.5286714 0.17933653 -0.03456062 0.036945283 0.37080717 -0.73439 -0.6513517 0.015937943 -0.10408291 0.14945695 -0.1863364 0.551175 -0.3291106 0.09015 -0.45249948 0.5547975 0.38108966 -0.07900248 -0.72305006
is 0.37364867 -0.043552063 -0.07831445 -0.387154 -0.2144433 -0.08418398 -0.19346842 0.58144337 -0.09814788 -0.28876844 -1.0442289 0.32481068 0.44895324 0.25043803 0.09711796 0.44513965 -0.12462994 -0.99305546 0.46227148 -0.44507003 -0.73479354 0.6580718 0.1047049 0.19296974 0.9330678 -0.1350783 -0.7897412 -0.03532033 -0.8575506 0.0064709396 -0.22402361 0.1763969 -0.78260714 -0.13433726 -0.3370815 -0.59251606 0.28762615 -0.65942574 -0.24473555 0.60624844 0.26251042 -0.6386763 0.5772633 -0.116048835 -0.019660762 -0.5497576 -0.04162315 0.9041989 0.7360748 -0.6947071 -0.07636971 -0.9937825 -0.93591434 -0.04942539 0.7765267 -0.35182393 0.15244529 0.19765773 -0.05247581 0.4033609 0.5337722 0.637272 -0.7087616 0.26777664 0.2801423 -0.50627893 0.18612063 -0.4518794 -0.0075492654 -0.3168491 0.24865694 -0.24682765 0.4407202 0.1004047 0.70811677 -0.6244621 0.63418025 -0.40876076 -0.081260286 0.06171826 0.12500176 -0.2739274 0.5106259 0.051667422 -0.11419923 0.19007427 -0.4111285 -0.612121 0.09735683 -0.32277814 0.41447935 -0.19217771 0.56198883 -0.4081225 0.27879423 -0.5699805 0.31646776 0.44377533 -0.20827115 -0.5436739
s 0.31863463 -0.10364735 0.49397677 -0.2053355 -0.47768673 0.6525161 -0.02855076 0.3102601 -0.3001581 -0.030481357 -0.10190674 -0.19756645 0.4228483 0.62309563 -0.07327435 -0.5318948 0.17171814 -0.13316004 -0.65466064 0.37150213 -0.3525971 -0.17582051 0.47244978 -0.23240024 0.2694575 0.49093944 -0.3771405 0.31368947 -0.5877715 -0.5381278 0.13212208 0.34009495 -0.27419713 0.32956073 -0.17948776 -0.050210495 -0.1748503 -0.41930482 -0.21958587 0.15681419 0.15360281 -0.4711941 0.81402785 0.058191933 -0.5189401 -0.097131565 -0.6047494 0.34028575 1.2721986 0.5303674 -0.32010034 -1.2289555 -0.33067903 0.4568468 -0.32056683 -0.29508197 0.018457647 -0.028970059 0.17634968 -0.19759819 0.35990253 0.42457756 -0.41592646 -0.022614498 0.36621895 0.2635812 0.5116892 -0.14048381 -0.35000187 0.02854546 0.39639643 0.060339406 -0.2974083 0.050595153 0.6814669 0.5145664 -0.22020559 0.052356284 0.4183923 0.08121807 0.9393885 -0.9573061 -0.45867422 0.33199903 -0.19551605 0.037050866 -0.16806655 -0.16073832 0.24285285 -0.06316978 -0.041877 1.051101 -0.013307422 -0.2040767 0.034060314 -0.013682364 -0.053742435 -0.09174635 -0.019326061 0.23547523
food 0.17128414 -0.11984957 -0.0075392737 -0.073607326 -0.56576586 0.2852871 -0.24614051 0.6001454 -0.42061836 -0.13535623 -1.1151025 0.08098298 0.16806498 0.28047544 0.31060702 0.2267736 -0.057770167 -0.65975314 0.5022488 -0.75580853 -0.3000594 0.62546915 0.016932389 0.14577028 0.6125887 0.24302222 -0.23043677 -0.22950552 -0.3128572 -0.09377503 0.095846035 0.03314151 -0.55260617 0.043602806 -0.21742031 0.05427597 0.63042796 -0.19382197 -0.31830546 0.15876897 0.18665686 -0.26978192 0.73277813 -0.2160933 0.0125950705 -0.20490184 -0.17076032 0.2675133 0.5869133 -0.029654307 0.23224534 -0.9215361 -0.23577143 0.15743971 0.44092125 -0.45134735 0.10948342 -0.19373935 0.0053375047 0.3394584 0.23676504 0.51767653 -0.30438435 0.09046297 0.13152514 -0.12457752 0.23909955 -0.30287778 -0.4023492 -0.019004885 0.21241166 -0.36114597 0.25575754 -0.24581431 0.89069664 -0.35198146 0.19650334 -0.37551755 0.27592245 0.25757197 0.35295236 -0.37543485 0.30934253 -0.08268623 0.06435256 -0.40963566 -0.35761204 -0.3166646 0.2869382 0.07554297 0.0009806725 0.0073573636 0.6854565 -0.17151809 0.33762115 -0.2386968 0.20340788 0.19295686 -0.5589499 -0.7400438
http://www.semanticweb.org/city/in3067-inm713/2023/restaurants#hasIngredient -0.015065111 -0.12540875 -0.306994 0.062329475 -0.6774279 -0.17238648 -0.62323546 0.18049711 -0.56851184 -0.19467135 -0.9684788 0.13370045 -0.059290342 0.42863765 -0.018327238 0.24308084 -0.026653852 -0.90089095 0.22183694 -0.53439015 0.046810634 0.7582259 -0.13959011 0.22330433 0.5315571 0.35267353 -0.46192622 0.0816492 -1.1826898 0.5670602 -0.37895685 0.046492063 -0.21726874 -0.23489386 -0.19452555 -0.50205034 0.16099308 -0.53686756 -0.59354806 0.3145222 0.089261174 -0.5422891 0.94244504 -0.16524294 0.060220107 -0.36223772 -0.06828075 0.5512044 0.3895422 -0.94209844 -0.35655895 -0.99857426 -0.8733858 -0.6017184 0.66689825 -0.3485057 0.088830814 0.28474337 -0.28870973 0.72017455 0.54692805 0.46988633 -0.55220133 0.11779247 0.5485203 -0.016183292 -0.2988232 -0.5540279 -0.40629727 -0.36173445 0.22199689 -0.52553 0.364093 -0.037577208 1.2759373 -0.7355718 0.12613855 -0.34356338 -0.16491717 -0.2253189 0.15925781 -0.2608758 -0.06723717 0.30203685 0.28139284 0.04581645 -0.33669332 -0.6349762 -0.20925044 0.27986845 -0.15517047 0.040792603 0.5929704 -0.30930087 0.054824304 0.031504933 -0.08969388 0.50339055 0.24252072 -0.7034732
http://www.semanticweb.org/city/in3067-inm713/2023/restaurants#isIngredientOf 0.24312408 -0.20365742 -0.12634084 -0.11849471 -0.529729 -0.10878234 -0.33182284 -0.0022475207 -0.17462 -0.098907 -0.94034857 0.13814595 0.13914672 0.43720728 -0.23427774 0.44866166 -0.0035863933 -0.85197216 0.29170957 -0.38766223 -0.2414693 0.6062732 0.097101614 0.3195868 0.5546562 -0.012268327 -0.7050776 0.14232989 -1.2378293 0.3259375 -0.20068999 0.36519948 -0.007899312 -0.010969132 -0.26890704 -0.39377135 0.086974844 -0.81091726 -0.46082807 0.15881889 0.014885863 -0.40170807 0.7681634 -0.067451015 0.031556673 -0.3415246 -0.047224354 0.7021162 0.40190816 -0.9777781 -0.1478685 -0.96657085 -0.9484016 -0.2575918 0.97414106 -0.26286873 -0.23807253 0.54374146 -0.12673697 0.35028547 0.5324285 0.6974786 -0.64315313 0.371001 0.34846783 -0.11475164 -0.29538825 -0.52461714 -0.121491954 -0.19120292 0.1548297 -0.2624907 0.5221174 0.0044312524 1.0380387 -0.71027327 0.5882789 -0.38583475 -0.25572914 -0.014310809 0.21528219 0.026823666 0.2084761 0.48230323 0.056328986 0.018474521 -0.042799827 -0.62663704 -0.23246238 0.10663815 0.03048431 -0.01189263 0.5971297 -0.42879 0.14470313 -0.19777536 -0.11256167 0.67370427 0.18303452 -0.53777814
vegetable 1.075866 -0.1873965 0.039339367 -0.15015739 0.13548554 -0.17494054 -0.36201328 0.42676765 -0.030726176 0.45741504 -0.972558 0.0068563335 0.12643068 0.3223802 -0.05304124 0.0511154 -0.5682867 -0.6550823 0.43898648 -0.43809375 -0.72436243 0.2995592 -0.013200325 0.21416111 0.5384597 0.26867884 -0.45447743 -0.02038611 -0.51659524 -0.23924677 0.05217611 -0.19858111 -0.8487821 -0.0646881 0.056045763 0.1010586 0.07130397 -0.695498 0.3876003 0.4637076 0.15908916 -0.05040874 0.8495796 0.18261078 0.22253267 0.14043929 0.00044397954 0.6164773 0.45543617 -0.45753223 -0.3462075 -0.26204315 -0.8806846 0.0842058 0.5859951 -0.1655988 0.18460615 0.38572833 -0.41377893 0.002010224 0.5947752 0.6931522 -0.63385355 0.09454107 -0.009301117 0.25544515 -0.17879423 -0.051861744 0.06036306 -0.31628704 -0.31418002 -0.14961633 0.10737574 -0.2931094 0.32890487 -0.3063291 0.3752572 -0.5879441 -0.25170863 -0.32933727 0.26146093 -0.5884476 0.404886 0.67926955 -0.6472311 0.36840722 -0.40972063 -0.16014907 -0.41843536 -0.32713825 0.6077967 0.028582899 0.9590193 -0.44309986 -0.14401656 -0.29966202 0.1439608 0.7828063 -0.11264587 -0.9488482
meat 0.3893268 0.21608432 -0.37592438 -0.3102824 -0.3183643 0.2363871 -0.26515898 0.3283523 -0.37305257 0.036252324 -0.84690815 0.31222558 0.4660977 0.099713266 0.2573284 0.078897454 -0.051997703 -0.38615024 0.23470782 -0.21224618 -0.42677763 0.4535041 0.50820124 0.074467316 0.603832 -0.33622652 -0.51974463 -0.035407238 -0.574474 -0.60100853 0.063226335 0.3866354 -0.39339858 -0.12832724 -0.5012753 0.05429358 0.029997092 -0.25120682 0.23515455 0.5489679 0.41260618 -0.02417897 0.4329651 0.33700508 0.009934997 -0.07968952 -0.17921242 0.39241624 0.59785324 0.0019118591 -0.1720833 -0.6522942 -0.5296287 0.13095412 0.4392351 -0.26978114 -0.13827308 -0.008871213 -0.3259367 -0.18441519 0.18447831 0.283854 -0.33300734 0.25699407 0.14317368 -0.10808279 -0.46214518 -0.30518964 -0.14412943 -0.16668665 -0.04126598 -0.03821925 0.13933504 0.039550733 0.24073742 -0.19474663 -0.0536202 -0.17344362 -0.03231843 -0.3674854 0.41512835 -0.17961669 0.25890535 0.2326501 -0.15490893 0.058546532 -0.69439757 -0.044365346 0.011825357 -0.07643243 -0.04657428 0.16378836 0.7122246 -0.22880891 0.4294362 -0.4149622 0.3127729 0.38691497 -0.32323804 -0.5369008
http://www.semanticweb.org/city/in3067-inm713/2023/restaurants#Ingredient 0.2074613 -0.21828605 -0.2538014 0.0012381803 -0.40712324 0.047418065 -0.35965538 0.03545276 -0.37705436 -0.23788683 -0.6338809 0.15940052 0.07971609 0.4058379 -0.14558673 0.23430853 -0.1385055 -0.70480514 0.15092176 -0.27907085 -0.013070592 0.5376169 0.18781482 0.3577824 0.4293501 0.05601702 -0.49708822 0.18491478 -0.9922296 0.034645572 -0.046597015 0.116119094 0.0692133 -0.2586059 -0.39454418 -0.08128595 0.044996966 -0.58559096 -0.2615151 0.3145858 0.13064963 -0.06787988 0.9056792 0.024619881 0.20465177 -0.38857123 0.0048279073 0.4759883 0.52159774 -0.8641492 -0.35397938 -1.0186583 -0.9285648 -0.18279105 0.71652526 -0.34776276 -0.27783322 0.61331034 -0.34149095 0.30209154 0.24561895 0.66893184 -0.662275 0.25263867 0.30551526 -0.35048348 -0.31548458 -0.44938207 -0.28378966 -0.19298288 -0.018358802 -0.19918688 0.39597806 -0.31633845 0.94595957 -0.5096248 0.4058718 -0.4851752 -0.22423884 -0.30611074 0.21115834 -0.20575476 0.30411208 0.4465745 -0.08666219 0.18991244 -0.053288106 -0.405873 -0.22273217 0.07330984 -0.11182118 0.09541456 0.6579406 -0.334003 0.13839234 -0.16584621 -0.02703706 0.70362437 0.02280021 -0.4479823
sauce 0.29117277 -0.58719367 -0.07150787 -0.14285716 -0.05368764 -0.31833053 -0.29670495 0.3741121 -0.62666106 0.10810406 -1.4629079 -0.34656233 0.7036833 0.16167906 -0.070676506 -0.1654598 -0.21172722 -0.6867451 0.38175857 0.026532667 -0.780494 0.49571097 0.08506111 0.21610656 0.7057425 0.65760434 -0.61016953 0.1022438 -1.0814075 -0.44197223 -0.2186614 0.24327706 -0.5601675 0.13959005 -0.30254492 -0.19471301 0.18754043 0.10347958 -0.1747515 0.33442447 -0.15472576 -0.19572951 0.66618174 -0.03783784 -0.10902823 -0.7511761 -0.27391556 0.60968494 0.84828746 -0.64269453 -0.26077434 -0.9328432 -0.7773576 -0.1376295 0.2757753 -0.3096111 0.20115684 -0.047528263 -0.25342494 0.028973425 0.2743859 0.9684992 -0.3871715 -0.18360883 0.3964549 -0.22901219 0.09269051 -0.7910631 -0.5965311 -0.25931865 -0.18563554 0.11152444 -0.3283079 -0.17129757 1.248162 -0.050155148 0.58822316 -0.2536084 -0.03090452 -0.47186893 -0.19653434 -0.7754611 0.6947225 -0.017998794 -0.38848087 0.396313 -0.009657784 -0.5065604 -0.12643087 0.47832367 -0.42716232 0.16279113 0.48909616 -0.6430905 0.22086538 0.011009182 0.15311003 0.22988676 -0.53850526 -0.2648843
and -0.39958432 -0.296863 0.29209548 0.18152487 -0.01634724 0.2575686 -0.17873336 0.20704211 -0.45176208 -0.5975933 -0.90340596 -0.5840293 0.060575005 0.7471337 -0.01740662 0.48379263 0.16241163 -0.38091102 -0.22962436 -0.24274518 -0.9761717 0.65228295 -0.66322005 0.028366651 0.3787768 0.5712071 -1.2689221 -0.23107134 -0.35603592 -0.13420592 -0.69241947 -0.30158237 -0.6795834 -0.20169224 -0.34537107 0.25967413 -0.12056502 0.42690277 0.97639936 0.047283527 -0.19995356 -0.73562914 0.051922683 -0.12184571 -0.36225438 0.08741135 -0.17179285 0.41243374 0.19556479 -0.37163115 0.11656441 -0.047930658 -0.9318224 -0.37195763 0.67517465 0.16778159 0.08393805 0.08977345 -0.013283487 -0.037825562 0.25343665 0.31201646 0.09849845 0.2997683 0.02384796 0.10502957 0.20333226 -0.17227294 -0.8406622 -0.051250547 0.37801668 -0.87309587 0.33563074 -0.15367728 0.09560625 -0.25362277 0.24755064 -0.3954157 -0.23053552 -0.7754294 0.26983327 -0.08719685 0.40936103 -0.20378768 0.5995892 -0.23879704 -0.48566732 -0.49650502 0.41583887 0.03718488 0.19392309 -0.0032465793 0.8136613 -0.27514037 -0.08263687 -0.2521924 0.4290593 0.23980483 -0.46715358 -0.2135899
SubClassOf 0.07446976 -0.21153478 0.028255785 0.14330405 -0.37420598 -0.007011246 -0.4678852 0.19590665 -0.019184692 -0.31621972 -0.49736357 0.05633568 0.15402701 0.42606154 -0.65303653 0.20315109 -0.031427704 -0.9378368 -0.11747609 -0.26622134 -0.42395255 0.72464305 -0.07441825 0.15268253 0.2314236 0.029735865 -0.9523453 0.345653 -0.8979268 0.1802623 -0.6806814 0.11238825 -0.1561287 -0.47137198 0.14697802 -0.5336219 -0.31675294 -0.53371835 -0.20213132 0.13062428 0.051481314 -0.6775238 0.4395269 0.00025928923 0.1295064 0.069258034 0.2906152 0.6617763 -0.09083357 -0.7582856 -0.2208146 -0.1479074 -0.8419727 -0.42761004 0.6446808 -0.22375892 -0.25747985 0.28843585 -0.17170243 0.43461332 0.46421406 0.061958726 -0.3037397 0.08360719 0.062330786 0.030018764 -0.39899153 -0.40429354 0.02548879 -0.4262434 0.25389075 -0.27325517 0.56488526 0.021289084 0.36004093 -0.5764352 0.268371 -0.275473 -0.089501984 -0.3357448 0.15530403 0.08179401 -0.0073839016 0.57615405 0.03058247 0.3459937 -0.097290695 -0.3817188 -0.10955569 -0.19106819 0.30159283 0.07698056 0.44003695 -0.48212406 -0.24794227 -0.3038058 0.32097387 0.4177243 0.5261398 -0.627224
cheese 0.2846835 -0.16431116 0.11691174 -0.358287 -0.0057208072 0.31384885 0.021337627 0.13063334 -0.55866593 -0.07154514 -0.6655091 -0.014444558 0.42132175 0.3379584 0.011359123 0.03036229 0.08174237 -0.22129217 0.17844056 0.28851107 -0.28182006 -0.023929385 0.13716106 0.5495124 0.67411405 0.45811057 -0.627931 -0.036805145 -0.6718279 -0.6004508 0.2615417 0.14399621 -0.14454435 0.058053374 -0.5848219 0.0035560376 0.29146847 0.06699919 0.296768 0.61970615 -0.06153959 -0.26960415 0.5181031 -0.038317706 -0.22696738 -0.40671912 -0.23023172 0.28372782 1.0372592 -0.2321729 -0.19949529 -0.6988385 -0.6845257 0.18167898 0.08178599 0.035900887 -0.26029575 0.17381042 -0.3215776 -0.3434919 0.029779742 0.6872986 -0.54622734 0.36651844 0.027521571 0.1262392 0.13021442 0.10921512 -0.5405473 0.21752392 0.087706506 0.07507347 -0.060042664 -0.37518582 0.5603893 0.021386452 0.24829218 0.3419455 -0.31031337 -0.55634576 -0.27934724 -0.5569992 0.16784509 0.24446358 -0.21984234 -0.28805703 -0.23422378 -0.3579551 0.057164498 0.07732238 -0.25152922 0.38065648 0.16145675 -0.34387287 0.41224417 0.101141915 -0.2303233 0.34703574 -0.4515848 -0.30714855
http://www.semanticweb.org/city/in3067-inm713/2023/restaurants#Food 0.13443048 0.012111073 -0.27555412 0.15410021 -0.96918726 0.16944322 -0.39198285 0.30316257 -0.3129915 -0.1046038 -1.2602664 0.06765473 -0.013328981 0.4035445 0.14464195 0.39507687 0.015973398 -0.7894594 0.4279355 -0.8110068 0.13780646 0.73741394 0.15509613 0.044976827 0.4762091 0.29373154 -0.283942 -0.2753154 -0.7454467 0.09125311 0.020018812 0.2495192 0.08240965 -0.018766485 -0.32234916 0.051145453 0.52780473 -0.59506965 -0.50771564 -0.0126774805 0.12330615 -0.33494622 1.0318203 -0.1937794 -0.079823665 -0.28710705 -0.20175242 0.29817075 0.44838634 -0.3556814 -0.084870666 -1.256713 -0.5130413 -0.10547806 0.750958 -0.50377154 0.10737838 0.33302984 -0.12452104 0.5079583 0.081713706 0.5952875 -0.4549755 0.15455158 0.37564236 -0.12575248 -0.15727313 -0.42568773 -0.36642992 0.023808572 0.2170968 -0.35555115 0.43033734 -0.06372725 1.2612123 -0.7579713 0.28491318 -0.41208786 0.037191223 0.07213492 0.27757618 0.06957925 0.17849796 0.2634659 0.2068135 -0.5202377 -0.15812448 -0.7106214 -0.12078444 0.29874003 -0.3159847 -0.19728136 0.9644029 -0.21575055 0.21886446 -0.0053927414 -0.03681076 0.48452467 -0.22126949 -0.81809855
vegan 0.53915906 -0.3182893 0.43142572 -0.40382713 -0.25156352 0.16283605 -0.30244917 0.5658111 -0.33097145 -0.13990149 -0.9650735 -0.15200256 0.7899524 0.28333262 -0.18381302 -0.010391359 0.10598696 -0.40855494 0.249819 -0.20780769 -0.5498784 0.60681 0.50286293 0.09439095 0.72849804 0.38834673 -0.6412132 0.12329582 -0.6739726 -0.5728034 0.11850448 0.37749344 -0.4463165 -0.1265919 -0.31658897 -0.30342162 0.29694816 0.13462749 -0.0061673652 0.7416522 0.17063284 -0.331383 0.63095635 0.07951306 0.008528034 -0.9538184 0.07228796 0.41459194 0.7593246 -0.5108054 -0.32752126 -0.55258036 -0.6913668 0.007853512 0.48966345 -0.11823491 -0.045711566 0.25347564 -0.20411803 0.029695965 0.2914766 0.7991565 -0.29675296 0.08515816 0.0722561 -0.24884577 -0.16777346 -0.64468104 -0.0048046866 0.08167345 0.019668086 0.12847243 0.16068713 -0.3606221 0.29402998 -0.37524325 0.4775581 -0.2046316 0.21662036 -0.41895357 -0.23005898 -0.53701687 0.406999 0.24129379 -0.17565334 -0.17953137 -0.13007884 -0.6441002 -0.19493769 -0.35406753 -0.086631805 0.1667014 0.31233492 -0.15919429 0.032098267 -0.30712366 0.50631773 0.22338288 -0.17943643 -0.47798344
category 0.15833405 -0.37385008 0.27185312 0.17211808 -0.21431759 0.5088275 -0.1332627 0.7432199 -0.057774924 -0.012261516 -0.575051 -0.27129343 -0.09592897 0.46395433 -0.281146 -0.078299224 0.27433088 -0.31345657 -0.06958979 -0.6450796 -0.2763167 0.37159652 -0.38815418 0.2802977 -0.00020099102 0.2617053 -0.65741485 0.21845925 -0.41603914 -0.018246498 -0.4320312 0.084367834 -0.2420765 -0.18639898 0.14405386 0.034155402 0.14100349 -0.076629795 0.19901697 -0.07861842 0.24245554 -0.26385036 0.48667535 -0.028557116 0.077751026 0.28355536 -0.20814955 0.13102362 0.40833068 0.3250604 -0.35938028 -0.24037313 0.3316435 0.15965675 -0.13537355 -0.063923866 -0.374459 -0.26586372 0.089344606 0.11697334 0.1340837 0.19768713 0.16102651 -0.33954674 0.22912529 0.1366994 -0.18067437 -0.30665335 -0.24826995 0.10379556 0.213158 -0.397159 0.4700679 -0.16111211 -0.16635123 -0.09130364 -0.1321158 -0.23779307 0.19571395 -0.15696506 0.63898396 -0.2855039 -0.012724103 0.4327968 0.20134014 -0.3305546 0.122740954 0.0628131 0.18779969 -0.031666208 -0.038996335 0.42429253 0.044584997 -0.22524008 0.1263592 -0.15541317 0.21635823 0.086725526 -0.23061298 -0.23726602
http://www.semanticweb.org/city/in3067-inm713/2023/restaurants/Restaurant 0.15140738 -0.331377 0.094740205 0.111196615 -0.18476489 0.19933821 0.0627552 0.25831628 -0.041541148 0.004064386 -0.4305717 -0.25902936 0.0025661436 0.44205993 -0.096052535 -0.14278659 0.1432878 -0.26684085 -0.08164248 -0.18754865 -0.17263663 0.11533688 -0.07455051 0.38126037 -0.030704552 0.26076627 -0.6445169 0.28762215 -0.31372643 -0.16134049 -0.035927974 0.06344102 0.063648656 -0.054380834 -0.06922426 0.19394056 0.04844595 -0.42826837 0.08456249 -0.04881222 0.12100002 -0.18724091 0.39921528 0.079528734 -0.06449028 0.32453126 -0.1392928 0.22943807 0.50839394 0.10143649 -0.1934926 -0.60795695 0.0010253286 0.3081491 -0.09101954 -0.14249213 -0.3612541 -0.111877985 -0.06568238 0.013585143 -0.013467487 0.061654948 -0.24133566 -0.19687395 0.22090116 0.017138835 0.023021096 -0.12231295 -0.4292496 -0.03870556 0.14717795 -0.15922879 0.103498824 -0.06571288 0.3030437 -0.041661773 -0.012077362 -0.01791501 -0.14074373 -0.1712329 0.49391234 -0.037540145 -0.05472706 0.33060142 -0.2709947 -0.10803381 0.17069751 -0.05292854 -0.034221176 0.13939832 -0.16782613 0.4212366 0.11189231 -0.40555015 0.10568431 -0.010278822 -0.013984831 0.20903638 -0.19684009 -0.12594813
tomato 0.28430197 -0.08676939 0.049967077 -0.32682714 0.21432932 -0.021876788 0.073005974 0.33725128 -0.51305306 -0.29485592 -0.96596247 0.16405372 0.25670066 0.3242301 -8.4079315e-05 -0.089309566 -0.047290478 -0.46254376 -0.044186745 -0.03314916 -0.3395475 0.53898245 0.32003015 0.23843852 0.6921058 0.96310073 -0.43931347 0.15035981 -0.9242921 -0.22354321 -0.42227158 -0.08412834 -0.22412133 -0.33063194 -0.040273752 -0.6060287 0.31325272 0.13225602 0.40709826 0.54134154 0.045523908 -0.1293588 0.6350599 -0.006085434 0.32395637 -0.6430978 -0.2150116 0.4188841 1.2513942 -0.5888435 0.07619252 -0.66972125 -0.85910416 0.104179725 0.085672796 -0.06515961 0.0950495 0.5539722 -0.12768829 0.06780212 -0.23540972 0.94042677 -0.5647513 0.046431653 -0.0638006 0.04453506 -0.06597381 -0.47391522 -0.068256 -0.13918126 -0.06721485 -0.091046885 0.028772222 -0.7560575 0.88357264 0.102241464 0.54277265 -0.23578334 -0.15266745 -0.9032365 0.011356844 -0.71372014 0.7235779 -0.09610992 -0.18311204 0.595386 -0.18467765 -0.5005044 -0.444308 0.008522272 -0.17003417 0.34634566 0.5249146 -0.58094126 0.701734 -0.27104536 -0.5134618 0.54702795 -0.46252966 -0.46753994
http://www.semanticweb.org/city/in3067-inm713/2023/restaurants#Vegetable 1.0049219 -0.22482362 -0.11980546 -0.049659595 -0.17599376 -0.032605506 -0.20304108 0.17905387 0.05098778 0.21100786 -0.706655 -0.046433583 0.12689513 0.4392081 -0.43448773 0.12716247 -0.36578557 -0.5765292 0.12372333 -0.42233333 -0.13445461 0.19501391 -0.09819877 0.2792992 0.2210039 0.2806611 -0.4876169 0.09199575 -0.7302606 -0.011729134 0.19852147 0.047711905 -0.010692072 -0.2773198 -0.005728053 0.041188885 -0.3502483 -0.9645029 0.21268904 0.19601755 0.18235129 -0.022358049 1.0619045 0.06860724 0.23229158 0.13368903 0.12534763 0.46614873 0.27810693 -0.5976445 -0.48014146 -0.3752427 -0.7355132 0.0047909874 0.5289232 -0.18635976 -0.21240531 0.54541606 -0.43538445 0.18628247 0.27361274 0.54579884 -0.5656841 0.21885753 0.07519433 0.31627622 -0.262717 -0.25164726 0.008006352 -0.17205021 -0.41281232 -0.101876155 0.31975755 -0.19885355 0.43561828 -0.47537014 0.21572147 -0.47487596 -0.28367722 -0.25360656 0.31608865 -0.42126575 0.24445145 0.79258347 -0.40080866 0.18486667 -0.17518866 -0.11735235 -0.5166354 0.050814282 0.109032035 0.17864792 0.6624529 -0.35424337 -0.271901 -0.10138901 -0.23456997 0.89364415 0.26568493 -0.70794386
http://www.semanticweb.org/city/in3067-inm713/2023/restaurants#Pizza 0.19739823 -0.068906836 -0.17332019 0.183523 -0.9189705 0.08683952 -0.72853017 0.39472234 -0.418278 -0.10185431 -1.2297554 0.049275998 0.009871934 0.35287812 -0.041666597 0.36239365 0.15387174 -0.61233187 0.12806647 -0.89882845 0.09549426 0.68340576 -0.0894259 -0.13449234 0.3209984 0.6380875 -0.36562955 -0.30605233 -0.79811865 0.2926736 -0.052053977 0.16445303 -0.05219324 -0.07920753 -0.18093723 -0.05805266 0.10035254 -0.4295239 -0.07442675 0.24304412 0.21318386 -0.4715721 0.8195237 -0.20542644 -0.03229085 -0.08631612 -0.085873686 0.30237135 0.21766041 -0.341037 -0.25184742 -0.5281115 -0.5369516 -0.37288547 0.78340936 -0.20448177 0.2047722 0.30248833 -0.28880975 0.5534283 0.24761489 0.45922825 -0.2747312 0.1391571 0.273746 0.35946447 -0.38376755 -0.52888143 -0.30284503 -0.12119303 0.29324022 -0.48631492 0.34575617 -0.07442889 0.92168826 -0.8271596 -0.1506598 -0.43657294 -0.013209454 -0.17403609 0.40217474 -0.07306024 -0.017407365 0.5118 0.57222563 -0.5819219 -0.40314612 -0.5791473 -0.08908755 0.36362073 -0.3663635 0.023909304 0.83195716 -0.124015786 0.01838133 0.09833425 -0.03941692 0.4136029 -0.04451144 -0.8045255
by 0.77827233 0.14176968 -0.106527574 -0.35299754 -0.7758215 0.38228673 -0.62728995 0.8256636 -0.16327724 0.01070525 -1.7039233 0.3621871 0.4836299 0.31665543 0.39716592 0.45901647 -0.16814272 -0.29186743 0.07181342 -0.6538953 -0.24107663 0.44847304 -0.083976604 -0.14389782 0.6212874 0.45374778 -0.19336528 -0.067902364 0.054638047 -0.4118522 0.2833829 0.48832372 -0.6737257 -0.06037312 -0.5394046 -0.008933765 0.15506096 -0.35335517 0.50807685 0.6327498 0.8487222 -0.5131282 0.8320266 -0.3189918 -0.00083757896 0.0011897096 -0.3562268 0.58979297 0.75206536 -0.032008942 0.07690457 -0.77154577 -0.42078176 -0.11548777 0.6590849 -0.06289837 0.39749297 -0.0912389 -0.056834046 -0.1698376 0.19426191 0.54711217 -0.10350461 0.03948812 0.115579955 0.37508813 0.008465391 -0.47903922 -0.118263096 0.08830679 0.041857366 -0.06891332 0.1802875 0.15189727 0.41594306 -0.5132323 -0.08955626 -0.50456 -0.008417432 0.05509599 0.31244513 -0.65179265 0.08111374 0.16046584 -0.024141187 -0.51043546 -0.80751014 -0.2604905 -0.109670244 0.3092835 -0.44168824 0.24401845 0.7671182 0.08691392 0.46644512 -0.2996919 0.057008892 0.61214453 -0.56887233 -0.95133585
seafood 0.03156474 0.46390772 -0.35419893 -0.1620097 -0.60122764 0.5040078 -0.43665707 0.9680379 -0.3148465 -0.04272631 -0.8932552 0.21199347 0.30046538 0.02499438 0.045020312 0.04501228 -0.11406721 -0.7715562 0.33706394 -0.2882087 -0.5336857 0.8425383 0.5242564 -0.09911362 0.65653807 -0.26980823 -0.50293374 -0.16976193 -0.6130693 -0.49147943 -0.48966587 -0.08836284 -0.52472913 -0.16113512 -0.25308895 -0.040586177 0.2131667 -0.009977289 0.14398395 0.5922488 0.24005817 -0.41025016 0.4441943 0.26456308 -0.09079446 -0.16827573 -0.15757951 0.6286679 0.31916857 -0.09672719 -0.24127063 -0.45605713 -0.49212193 -0.027212977 0.3810664 -0.23580436 0.23819163 -0.24548696 -0.45225888 0.37215906 0.062068455 0.43168277 -0.20228554 0.38490298 0.32809374 -0.17507485 -0.544864 -0.66110283 0.09249705 -0.21480043 0.13316433 -0.13448727 0.19178297 -0.008180371 0.27007192 -0.31122315 0.022777662 -0.48500562 0.30431557 -0.3207888 0.48491168 -0.21415922 0.23623279 0.26037553 -0.048214585 -0.041078232 -0.7750322 -0.3435506 0.07512745 -0.29609212 -0.008736523 0.00880343 0.9004921 -0.30728632 0.115585074 -0.52221507 0.5911921 0.2716857 -0.42455843 -0.7566279
http://www.semanticweb.org/city/in3067-inm713/2023/restaurants#Restaurant 0.061309632 -0.23504874 -0.08763878 0.32878193 -0.45728695 0.24358265 -0.46739104 0.54189265 -0.26881865 -0.17653203 -0.4764722 -0.03741559 -0.3534577 0.17888913 -0.4184502 -0.23700164 0.13229747 -0.70304084 0.049198296 -1.1654208 0.17500536 0.5382022 0.30248663 0.21906522 -0.15835474 0.7346819 -0.7994789 0.20525327 -0.50282127 -0.07885733 -0.64782226 0.051436953 0.40360573 -0.35229042 0.3752183 0.0938567 -0.04287792 -0.26481843 -0.15303229 -0.1476823 0.5324477 -0.4075775 1.15894 0.20741192 0.25821242 0.1237942 -0.041824616 -0.010036126 0.37094498 0.03952983 -0.4315062 -0.6055112 -0.21475643 -0.052069917 0.24694163 -0.06314633 -0.63621044 0.276817 -0.14408769 0.39939177 -0.47570866 0.32573342 0.12235973 -0.11286352 0.21687718 -0.29341322 -0.5253546 -0.26464945 -0.084632285 0.0587719 -0.017675532 -0.49904874 0.6865306 -0.96648103 0.32924798 -0.40099612 0.0295688 -0.49723893 0.4437596 -0.29538912 0.7930436 0.18954042 0.09971118 0.69027627 0.34434947 -0.46001092 0.12660904 0.31308883 0.19295037 -0.37312385 0.019247064 -0.016543517 0.56086814 -0.56850344 -0.5751052 -0.041645605 0.40996876 0.75109565 0.013745885 -0.0023605707
state 0.07055087 0.025854181 -0.2483046 -0.03039779 -0.31749243 0.23260725 -0.16054006 0.68982136 -0.028831674 0.110353366 -0.703352 -0.04426112 0.23045409 0.12882993 -0.22140098 -0.26999494 0.2565813 -0.56559503 0.1250319 -0.1678325 -0.50172746 0.41918498 0.30944452 0.67381465 -0.059569705 0.28776485 -0.91831154 0.48936495 -0.5440551 -0.34916595 -0.43539223 0.13277872 0.0598879 -0.3064526 0.3082748 -0.011588012 0.03188445 -0.17990214 0.27002186 0.1802221 0.11934009 -0.7134943 0.3444169 0.1011591 -0.1511159 0.34081978 0.026448255 0.29259762 0.33669734 0.22159432 -0.31823063 -0.2695363 -0.253789 0.09947502 -0.4111529 -0.0014850142 -0.2729238 -0.24180625 -0.08712218 0.1781453 -0.32486457 -0.016544664 -0.32371503 -0.24862774 0.024957778 0.042857505 -0.2598264 -0.0060846196 -0.22139437 0.018494315 0.16723031 0.17774275 0.14648345 -0.32141322 -0.07428609 -0.23513374 -0.23332047 -0.040911447 -0.083945 -0.22881252 0.102958456 0.10563417 -0.024270128 0.6197933 -0.34578967 0.14705244 0.1447742 -0.04790375 -0.21620424 -0.22297336 -0.19410825 0.26178715 -0.17834081 -0.8037535 -0.0020165343 0.04039091 0.10776775 0.25478205 -0.27641863 -0.0023881055
chicken 0.13839622 -0.09317935 0.2793001 -0.26428923 -0.36029974 0.36247602 -0.12479537 0.20990288 -0.6323216 -0.4493006 -0.83537775 -0.118629 0.48933798 0.41727847 0.35381988 -0.17676692 -0.02106665 -0.1156705 0.094206184 0.061763912 -0.3536671 0.14450446 0.13037711 -0.037369326 0.5474324 0.19031931 -0.46194848 0.10826437 -0.5947115 -0.59555304 0.07657214 0.00903547 -0.52197653 0.14877798 -0.5245452 0.217977 0.08729785 0.20547743 0.45950416 0.30232042 0.13287868 0.043168433 0.41374627 0.090875715 -0.37054282 -0.34493843 -0.4392567 0.27844134 1.0345976 0.027654806 0.130762 -0.9220468 -0.3829187 0.24499847 0.22915761 -0.4392245 -0.092924856 -0.33283684 -0.0018725459 -0.19405477 0.27095604 0.34969103 -0.1949571 0.11922244 0.2651273 -0.14123733 0.17282453 -0.41887686 -0.79308784 -0.07660889 0.08592356 -0.4230378 -0.12688626 -0.11453522 0.5807523 0.08999944 -0.06864376 -0.071119644 -0.12707244 -0.8025768 0.5763971 -0.82454413 -0.012886599 -0.28270674 -0.04450182 -0.11401843 -0.5549158 -0.2971165 0.40736836 0.26707625 -0.14453486 0.5248422 0.17213146 -0.20379421 0.47929066 -0.13856174 0.001973995 -0.2382631 -0.4410921 -0.309349
& -0.1342411 0.2726159 0.43522862 -0.2407076 -0.004848998 0.38343912 0.26910198 0.63959616 -0.631486 0.39160535 -0.35290283 0.41215774 -0.17602466 0.47410867 0.10275234 -0.32101986 -0.47653002 0.08182131 -0.62383837 -0.17683075 0.008688917 0.2406487 0.42494884 0.1989678 0.44007328 0.5178729 -0.7640676 -0.010326317 -0.21162322 -0.07741745 -0.31104913 -0.08370316 0.014145583 0.019092713 -0.6026205 0.20205969 0.051297426 -0.3492247 0.520683 0.07760544 0.36813834 -0.93861943 1.0835129 0.47841975 -0.035772283 0.2636973 -0.7790989 0.049539905 1.0272486 -0.21104443 -0.24617028 -0.89580375 -0.07146857 -0.10899818 0.16930804 0.29204074 -0.4412491 0.11735066 -0.340003 -0.7072489 0.37740594 0.61907715 0.004944806 -0.013954224 -0.005324233 0.38082257 0.28780818 -0.0026458874 -0.16981694 -0.13289312 -0.044647478 -0.171127 -0.19788639 -0.42959028 -0.2617335 0.39950243 0.28542262 0.37574685 0.18814972 -0.43950823 0.63712287 -0.26925775 0.06774831 0.31130278 0.34352064 -0.18641281 -0.21800363 -0.30498967 -0.06699944 -0.28301245 0.20550215 0.5059946 0.03202889 -0.30546916 0.03519327 -0.19941968 -0.26083985 0.84025943 -0.0986351 0.21501288
pepper 0.4918533 -0.035760667 -0.6949027 -0.16395564 0.018219262 0.4025849 -0.3383391 0.44731346 -0.42139164 -0.21650685 -0.47946912 0.23193152 0.58759415 0.30533612 -0.3781062 -0.24182342 -0.4025213 -1.0323368 -0.18357712 -0.26115227 -0.37608874 0.24146003 0.27001438 0.23484491 0.41400224 -0.32322928 -0.77777785 0.115120545 -0.42501965 -0.6956687 -0.12243124 0.07284544 -0.43328854 -0.50071746 -0.53671163 -0.2978124 -0.060631167 -0.65795773 0.09395935 0.25471434 -0.010772552 0.043020844 1.0633079 -0.16372967 -0.12737188 -0.5356141 -0.04798833 0.4629783 0.7416573 -0.20237848 -0.63807726 -1.1690223 -0.6767226 0.69726217 -0.0024969673 -0.52405643 0.0914888 0.15608591 -0.7649671 0.11362728 -0.37501317 0.3509211 -0.7987604 0.18292187 0.5591649 -0.4303714 0.46606413 -0.37835214 0.023226311 -0.44384015 -0.3331587 0.03840964 0.48398668 0.104780905 0.5702665 -0.61899614 0.6337052 -0.3384195 -0.32206511 -0.38637468 0.64582324 -0.77961206 0.63024664 0.6107593 -0.751908 0.5913533 -0.39414236 0.1902949 -0.07714885 0.12737297 0.26538816 -0.24624483 0.6572548 -0.3357351 0.16627678 -0.4579874 0.57690924 0.6684007 0.068451576 -0.84881496
http://www.semanticweb.org/city/in3067-inm713/2023/restaurants/Category 0.14977992 -0.36743468 0.064213455 0.14196356 -0.13780643 0.25613925 0.032106858 0.3955277 0.002314454 0.11505312 -0.41537473 -0.25571677 -0.13786444 0.42500186 -0.24553232 -0.16654779 0.15829107 -0.29707032 -0.06824016 -0.45838967 -0.14447269 0.25107718 -0.17816494 0.4439581 -0.066335425 0.25460672 -0.8130159 0.2855925 -0.44510734 0.026723322 -0.30581036 0.0693683 0.059690677 -0.1415135 0.075270206 0.07898418 0.05225546 -0.39000306 0.036716487 -0.0256463 0.09934559 -0.20880225 0.39253196 0.09349485 -0.022606324 0.40479428 -0.072696775 0.21414444 0.3458131 0.04736309 -0.34251076 -0.4432967 0.18203685 0.23006439 -0.12883675 -0.04337321 -0.3766016 -0.1930433 -0.1311924 0.08817332 0.00398368 0.082399 -0.11449487 -0.2745311 0.1695832 0.07136727 -0.082550995 -0.26833755 -0.2797642 0.08359601 0.115126245 -0.24963203 0.3488125 -0.061345797 0.13322827 -0.09061479 0.0046597603 0.01175976 0.04342622 -0.08290713 0.5382741 -0.07644779 -0.050496355 0.3947241 -0.06212288 -0.20625067 0.27388987 0.008991845 -0.04111527 0.12540653 -0.05937318 0.3781375 0.048444934 -0.44372502 0.032781728 -0.00713312 0.06838313 0.1972393 -0.14818569 -0.09590125
pizzeria 0.23747958 0.40218627 0.4573391 -0.46733537 -0.43311107 0.86800355 0.45979375 0.66784 -0.59416974 0.26364484 -0.64986426 0.1758354 0.37033227 0.5126209 0.26183802 0.06286563 0.058339015 -0.09684952 -0.2165 -0.30402982 -0.5337211 0.12789614 0.8458246 0.017024484 0.46433958 -0.09010116 -0.3917256 0.08177273 -0.53943545 -0.649415 -0.42657086 0.38764474 -0.2501107 -0.27340108 -0.35926732 -0.26164004 0.36412153 -0.46116698 0.23960097 -0.03774224 0.14659886 -0.7248812 1.0131544 -0.013718554 -0.01889073 -0.34328887 -0.43094385 -0.27067843 1.2414062 0.089144796 -0.21748768 -0.81228596 0.030773424 0.095343545 0.030484082 -0.13663605 -0.4794462 -0.41979182 0.13960885 -0.70600384 0.012597961 0.07009334 -0.3822003 0.03903765 0.17469919 0.40761825 -0.20291102 0.16822374 -0.52899706 -0.27796084 0.4749001 -0.18067983 0.1572295 -0.5433231 -0.39670202 0.4157134 -0.35526276 0.2719424 0.31519377 0.041708313 0.75451237 -0.015814018 -0.4541969 0.59936064 -0.17579465 -0.13971597 -0.016099421 -0.021763304 0.15225074 -0.41040263 -0.09864436 0.7584712 0.028811099 -0.5643221 0.41049388 -0.12642328 -0.02610659 0.48532343 -0.4912709 -0.3760483
some -0.031365197 0.24468385 -0.66064084 -0.034169406 -0.14911616 0.13979098 -0.2134713 0.535034 0.1724701 -0.16178483 -1.0437924 0.26268092 -0.070160024 -0.04868196 0.12749723 0.15798058 0.24352868 -1.0694771 0.5703301 -0.7560996 -0.47635546 1.1252258 0.17873494 0.09766399 0.6837317 -0.1446285 -0.7788367 -0.053460877 -1.3514475 0.24834056 -1.0821055 -0.25597242 -0.22673571 -0.24984123 0.21501915 -0.5041466 0.17651851 -0.16728115 0.0606214 0.35397285 -0.13492301 -1.0108405 0.5754461 -0.3023326 -0.36261028 -0.19651674 -0.45179445 0.77588165 0.15676078 -0.6609341 -0.12743434 -0.571165 -0.8332724 -0.45187008 0.7574858 -0.085201286 0.36656812 -0.1738522 0.34839514 0.8879518 -0.09853291 0.55334663 -0.4299125 0.23260675 0.3202001 -0.10423472 -0.20701195 -0.6678188 0.09974711 -0.122505456 0.17206626 -0.48215252 0.5001182 0.2854899 0.5342216 -0.6293791 0.35441068 -0.7870336 0.030697744 0.21275575 0.24654417 -0.095009826 0.37418357 0.09715452 -0.05273253 0.4222228 -0.31409392 -0.57361704 -0.20224537 -0.16374958 0.3384047 -0.2894928 0.29566088 -0.8096341 0.051597565 -0.35215333 0.26586264 0.11712537 -0.37407318 -0.40970823
item -0.24142794 -0.15732689 -0.1604119 0.40959454 -0.6423824 0.84278244 -0.53286177 0.6776349 -0.6242798 -0.47058642 -1.1591039 -0.023544796 -0.103697166 0.49522814 0.08878222 -0.16455871 0.19975398 -1.0862631 0.42635584 -0.9390185 -0.481512 1.4657013 0.7038002 0.118917674 0.39371812 0.43997088 -0.9441838 0.08663102 -0.39641532 -0.41822082 -0.54925764 -0.31296125 -0.12674986 -0.6414127 -0.11930926 0.35344502 0.5618153 0.5160612 -0.15832224 0.0026998771 0.06443388 -0.7516626 0.9710767 -0.09325419 0.07246433 -0.3957896 -0.32568014 0.0709561 0.4875646 0.24831335 0.05903317 -0.8882544 -0.4726793 0.1592095 0.3535717 -0.72257864 -0.06593122 -0.43774498 -0.06844543 0.5438394 -0.4517973 0.5507677 -0.013457921 -0.10576343 0.2369746 -0.82829046 -0.067747355 -0.27161562 -0.031992294 0.16981933 0.21830848 -0.10886731 0.4948367 -0.6821034 0.63197815 -0.27939782 0.4252812 -0.7223875 0.7862453 -0.24476029 0.44822794 -0.11796554 0.59896475 -0.20588121 -0.044487476 -0.0762132 -0.099597834 -0.5268855 0.12478078 -0.5066039 0.022511967 -0.28573304 0.9394026 -0.5996155 -0.059200402 -0.37124863 0.7465397 0.036826648 -0.80704534 -0.63990605
mushroom 0.6868836 -0.17068492 0.12842761 0.13797967 -0.45324636 0.19516842 -0.11146276 0.5374952 -0.3347098 0.16805263 -0.8665032 0.17202905 0.010863544 0.5452539 0.6002825 0.19118421 -0.29289827 -0.22507526 0.51928353 0.057963334 0.09391398 0.67022794 0.19725296 0.13637452 0.7012627 -0.009830648 -0.40063486 -0.21341655 -0.27432352 -0.56630963 -0.026327517 -0.086733565 -0.35680178 -0.110545695 -0.5787192 0.5175898 0.20459254 0.052610956 0.3183416 0.5130924 0.003340092 0.3533039 0.8251925 0.017487237 -0.32469806 0.25035965 -0.009850856 0.45542204 0.68515533 0.100185886 -0.39024478 -1.1329445 -0.5400115 0.44670403 0.3967714 -0.7719758 0.049862444 0.14120701 0.00040446038 0.14475746 -0.040939115 0.32773384 -0.644735 0.17230962 0.40199357 -0.06998692 0.11973707 -0.549557 -0.67576784 -0.20164445 0.08984622 -0.24637724 0.014067285 0.12753035 0.4460981 -0.036972456 -0.09742947 -0.39617532 -0.49142715 -0.45797306 -0.08772909 -0.4378695 0.043382727 0.12324226 -0.16507141 0.13958989 -0.56399983 -0.5438308 -0.22740948 0.063198335 -0.45333508 0.32438543 0.42270243 0.10206718 0.6636293 -0.29224384 0.21655321 -0.0053802067 -0.578786 -0.7619287
fruit 0.79659986 0.12793936 -0.12588206 0.16912395 -0.55323416 0.6056674 -0.585455 0.64048433 -0.20524049 -0.14704502 -1.3159105 0.2047763 0.085712016 0.4198621 0.0026906685 0.0708732 -0.3844735 -0.76616 0.064010076 -0.41833004 -0.18878357 0.71803266 0.08467677 -0.42307612 0.5809662 0.26663557 -0.51026106 -0.36876732 -0.45718038 -0.50088996 -0.17952858 -0.11242686 -0.6442197 -0.46630314 -0.3726251 0.18512875 0.032321922 -0.24567746 0.36368477 0.44295302 0.44014832 -0.26941466 0.9050252 -0.24505724 -0.021868663 -0.05923905 -0.17965165 0.37233865 0.35146955 -0.37531653 -0.15268573 -0.33051354 -0.5602574 -0.009956118 0.22452573 -0.5900237 0.2377999 0.10633676 -0.2815248 0.38297883 0.25865826 0.5628256 -0.39502853 0.2984824 0.11213162 0.2429334 -0.25391525 -0.6530361 -0.023818983 -0.2028536 -0.1538395 -0.19862388 0.15597096 -0.023104103 0.31721306 -0.48666477 0.06802208 -0.5606248 0.0033518816 -0.53523946 0.30608818 -0.62883633 0.28435802 0.14444274 -0.2076511 0.100700065 -0.63459677 -0.4982357 -0.2443977 -0.0012654637 0.07901401 -0.013662681 1.0292581 -0.038330577 0.3366023 -0.3767533 0.16542746 0.21468924 -0.3654925 -1.2486507
barbecue 0.73299575 -0.48217815 0.06357363 0.014774576 -0.25532144 -0.2250894 -0.43131536 0.7403207 -0.16657148 -0.2796492 -1.4782681 7.364208e-05 0.81182164 0.3666007 -0.18083549 0.011291579 0.13789655 -0.2600304 0.28834525 -0.26736525 -0.4402987 1.164692 0.4852438 -0.29703182 0.4955717 0.34413475 -0.6872608 0.33160684 -0.8766379 -0.38179773 0.46905923 0.2714506 -0.37822896 -0.045536187 -0.18983842 0.1962716 0.014163443 0.06061025 0.012689994 0.72324663 -0.017205553 0.024169639 0.532689 0.18336217 0.0009929774 -0.8992025 0.15416113 0.4575948 0.8742506 -0.55454284 -0.4593742 -0.88596386 -0.42954436 0.25229836 0.39200065 -0.53034824 0.2301182 -0.12044162 -0.2359544 0.32685038 0.54746777 0.74685526 -0.47265533 -0.27568334 0.094580166 -0.4770896 -0.26097655 -1.2088315 -0.5569802 -0.2543736 -0.21278553 0.22352502 -0.17018679 0.16282095 0.7290508 -0.8073223 0.18246298 -0.18250085 -0.42841172 -0.91605926 0.31995168 -0.52935386 0.40454575 0.0656684 0.062145196 0.03729479 -0.47839582 -0.9400398 -0.20545013 0.075028494 -0.405469 0.44288027 0.7580189 -0.47179428 0.3230518 -0.33069056 0.36459005 -0.28396824 -0.5017744 -0.70614845
location 0.12610376 0.28154534 -0.42065337 -0.13710219 -0.5867706 0.44398376 -0.4033804 1.1276486 -0.2597737 0.3049359 -1.0340372 0.011124641 0.4628795 0.14350905 -0.21810126 -0.29667893 0.23247378 -1.0499411 0.17141788 -0.5469789 -0.7753548 1.1017387 0.9817125 0.7756795 0.10241098 0.292937 -1.2192944 0.41120124 -0.7502552 -0.51575744 -1.0601718 -0.06266001 0.050888833 -0.7290102 0.43883452 -0.2007314 0.032120466 -0.25354367 0.36206773 0.61118305 0.27807823 -1.2781725 0.75833875 0.16865289 0.14875965 0.0901785 0.14642654 0.36466962 0.30072147 0.121567324 -0.3246203 -0.27764723 -0.7508103 -0.08842867 0.015797488 0.17754638 -0.13039319 -0.21121597 -0.34602338 0.4512869 -0.7377954 0.32736805 -0.54171276 -0.049443465 0.20160902 0.00346792 -0.57469046 -0.33334076 0.07228107 -0.10025393 0.16263966 0.13155964 0.25641316 -0.54393005 -0.020029755 -0.2741179 -0.08695231 -0.5439733 0.2548543 -0.17316854 0.33827475 0.23808107 0.19369297 0.96792924 -0.46874097 0.24040838 0.03914395 -0.09383479 -0.43747312 -0.6284424 0.056380473 0.24054678 0.21245468 -1.1267222 -0.43542176 -0.30381605 0.77104896 0.78530914 -0.36966914 -0.14555702
menu -0.27554154 0.1385412 -0.053786352 0.22275439 -0.4243696 0.56852734 -0.495861 0.8598543 -0.4587303 -0.4039278 -0.6344929 -0.068711825 -0.28625584 0.3281065 0.16191381 -0.3365752 -0.16341418 -0.9850343 0.46349618 -0.7024443 -0.31868842 1.0737305 0.51769745 0.026161425 0.33464774 0.1159503 -0.68224454 -0.028827641 -0.6907343 -0.77150434 -1.0280664 -0.09615112 -0.29715374 -0.26991114 -0.22688822 0.06342141 0.63891286 0.56310743 -0.074067436 0.03886027 0.25598857 -0.39245012 0.9157004 0.12382626 -0.21600424 -0.33707583 -0.30710816 0.21676458 0.42282054 -0.22217798 -0.30484393 -0.9491115 -0.48623472 -0.19007775 0.23389041 -0.632525 -0.15620883 -0.19894825 0.21449718 0.52840304 -0.3540919 0.6357002 0.12391916 -0.25074738 0.4382521 -0.7617374 -0.42515975 -0.6092643 -0.59224933 0.0928828 0.4108174 -0.49635026 0.62552404 -0.5157756 0.51607656 -0.072295174 0.25572425 -0.8008645 0.66716313 -0.38245085 0.63347954 0.071531676 0.4565384 -0.0037878873 -0.09468938 -0.19631507 -0.024551656 -0.11636033 0.3590139 -0.2310286 0.26277158 -0.23667337 1.1574906 -0.5303415 0.20757554 -0.5847239 1.070347 0.34010378 -0.58461034 -0.5968886
vegetarian 0.1464475 -0.08158184 0.4740101 -0.20936763 -0.51232666 0.5819165 -0.53253585 0.5766989 -0.25444347 -0.39304334 -0.97013026 -0.17217016 0.63971525 0.5784692 -0.037583474 0.16715212 0.06183028 -0.51329106 0.006856571 -0.30500567 -0.35342884 0.665043 0.32578608 -0.11733221 0.6273766 0.36023992 -0.32050505 0.01833737 -0.36912203 -0.5078747 0.06030674 0.31546047 -0.33188146 -0.16603206 -0.40194857 -0.13327336 0.31484574 0.30428568 0.32084012 0.34230083 0.3043052 -0.39075387 0.60971034 -0.006425596 -0.016734805 -0.6246765 -0.13007389 0.4029654 0.6413851 -0.17344578 -0.13776587 -0.36697254 -0.5078747 -0.042712457 0.52741 -0.2597848 -0.014640115 0.22998735 -0.048322137 -0.081064604 0.12659508 0.6287092 0.050813902 0.068688914 0.20564072 -0.19347858 -0.28546283 -0.49582064 0.08639579 0.07761381 0.20506552 -0.024794351 0.10681407 -0.3750595 0.24508634 -0.31236288 0.21003632 -0.59055173 0.30844298 -0.42264202 0.11762613 -0.4472895 0.16274787 0.3303652 0.088607974 -0.36819884 -0.4608231 -0.71743065 0.0119636385 -0.17618006 -0.1350133 0.15382738 0.5416118 0.07897585 0.027981183 -0.38467187 0.4232067 0.23161253 -0.12357509 -0.709627
in -0.13798282 0.048371263 -0.1951974 0.05292539 -0.7677609 0.32284302 -0.17458986 1.1299825 -0.23497213 -0.15438804 -0.6851922 0.09536552 0.34338623 0.06113907 -0.1472163 -0.26366585 -0.029585581 -0.9065277 0.40620092 -0.74964976 -0.58060724 0.98406684 0.57792974 0.70336306 -0.10335686 0.3688575 -0.9818229 0.24446815 -0.3585441 -0.17861986 -1.1223469 -0.17648405 -0.2801139 -0.6712562 0.45068216 -0.33810872 0.38955456 0.051603254 -0.13311717 0.486583 0.18096003 -1.4234748 0.7313048 0.034328822 0.18314493 0.042384688 -0.10396145 0.31961176 0.29738727 0.07564024 -0.28271732 -0.40706417 -0.695072 0.008383326 0.29320943 0.22245191 0.123656526 -0.6066681 -0.11382442 0.8383875 -0.38344213 0.114850774 -0.3033391 -0.09834731 0.25450954 -0.34229276 -0.19700366 -0.47455564 -0.3738154 -0.43236965 0.47140828 -0.19426228 0.49022102 -0.41579974 0.056294724 -0.31397897 -0.30706477 -0.57668245 0.07902038 -0.16596791 0.61053395 0.3808937 0.32386863 0.70939505 0.098329626 0.2178995 0.22438025 -0.17911862 0.23335473 -0.7616532 0.24160863 0.4597473 0.41315788 -0.8892388 -0.4590125 -0.4568939 1.1843123 0.71006405 -0.253219 -0.0038777348
bar 0.05670516 -0.61830336 0.363038 0.2569028 0.23517951 0.42949384 -0.06821593 0.18593466 -0.7968527 -0.23124468 -0.5804295 -0.66125226 -0.24881715 0.58204913 -0.084870726 -0.2903214 0.46149367 -0.018886462 -0.5441622 -0.8769832 -0.24939081 0.35195836 0.023927778 0.018355476 0.08597109 0.7951615 -0.9596199 0.010272697 -0.6375519 -0.4991803 -0.8386299 -0.26294744 -0.113827 -0.46466085 -0.24526636 0.21148157 -0.26121995 0.30853066 0.78215015 -0.063182965 -0.045907125 0.04952646 0.7597671 0.19908674 -0.18367645 -0.22838566 -0.4216215 -0.032294314 0.87782943 0.24089687 -0.44029486 0.06415809 -0.18846351 0.10543336 0.33826634 0.104067 -0.31916824 -0.19868816 -0.21889877 -0.38022116 -0.18547313 0.44296414 0.14736968 -0.0905192 0.6454104 0.34209767 -0.032361284 0.014554776 -0.046126653 0.030570108 -0.11881805 -0.77208006 0.114599906 -0.73702914 0.12830064 0.052416697 -0.024883859 -0.28280354 0.28478467 -0.9877394 0.8516378 -0.4016216 0.73227084 0.484649 0.36778304 -0.14010873 -0.2332793 0.11042616 0.0515429 -0.03783506 0.38026366 0.38028723 0.75187004 -0.08078404 -0.05907723 -0.28966594 0.27754283 0.4253501 -0.30465472 -0.08520314
http://www.semanticweb.org/city/in3067-inm713/2023/restaurants#Meat 0.31233817 -0.062397454 -0.48556566 -0.07726534 -0.5163084 0.17898051 -0.16061027 -0.1199958 -0.27799353 0.07605381 -0.5745944 0.12854768 0.19644642 0.2747307 -0.10010134 0.19979039 0.07372705 -0.36606118 -0.032070212 -0.3031225 0.028617365 0.40797377 0.3272117 0.2749265 0.29527354 -0.24297827 -0.5630748 0.13917789 -0.9751307 -0.2506682 0.0013899163 0.4257321 0.2861826 -0.12062844 -0.4285681 0.051309273 -0.19364284 -0.66375184 0.01520255 0.23805973 0.21119194 0.092844024 0.76642686 0.22099303 -0.04447533 -0.087652184 -0.04291548 0.2792266 0.46507573 -0.36312714 -0.4310859 -0.8380742 -0.6295295 -0.0027662173 0.58646584 -0.13213311 -0.39307266 0.43524712 -0.41705716 -0.11762753 0.0911663 0.3777808 -0.4719719 0.28533733 0.25570112 0.012127814 -0.49284706 -0.4043432 -0.24474476 -0.16022593 -0.120981194 -0.0142607335 0.29397684 -0.031024585 0.6249598 -0.3237292 0.08523073 -0.17719336 -0.22145887 -0.36517492 0.22803386 -0.05026587 0.07922849 0.47546056 -0.124808684 0.106822476 -0.18619001 -0.016527943 -0.3057407 0.28354996 -0.3737484 0.24318379 0.55577224 -0.18948516 0.1372333 -0.17345475 0.035062242 0.58449405 0.1653831 -0.25012717
style 0.67438006 0.27150974 0.3463576 -0.24271515 -0.7465999 0.44330904 -0.17508288 0.81836474 -0.122727714 0.21439232 -1.1094457 0.13387418 0.32681963 0.454805 0.086163536 0.011519113 -0.13015562 -0.5772627 0.07054956 -0.60532904 -0.1345129 0.58701354 0.0104647335 -0.34313604 0.42208013 0.01774541 -0.006983528 -0.5450512 -0.60373366 -0.14008401 0.51744676 0.020280488 -0.38106427 -0.12476079 -0.19699402 0.50577945 0.20938122 -0.6407885 0.24076459 0.3319697 0.44616583 -0.07582935 1.1001018 0.18405716 0.05002832 -0.08281616 -0.12820031 -0.15956235 0.6737636 0.042188454 -0.17528704 -0.23461075 0.11197257 0.42930648 -0.17911752 -0.55848384 -0.21921287 0.011511834 -0.27467817 0.23282364 0.31539237 0.14861311 -0.024470348 0.12326033 -0.16032839 0.45498872 -0.68681526 -0.25740534 -0.14737739 -0.37856057 0.20273605 -0.16872668 0.23114122 -0.42941993 -0.10638263 -0.19415292 -0.4265859 -0.26902333 -0.02625179 -0.073973596 0.7769706 -0.5578934 -0.27510926 0.6804161 0.20609248 -0.5436451 -0.7522469 -0.22683461 0.19042717 -0.13093017 -0.07151766 0.5531642 0.5333912 -0.09732915 0.45190683 -0.4169042 0.17950411 0.32575402 -0.034012806 -0.9555984
pepperoni 0.2801529 -0.095624074 -0.6941666 -0.32486847 -0.02634546 0.22849464 0.09211006 -0.11557358 -0.49058968 0.06512931 -0.7201911 0.16644593 0.41748986 0.24043275 0.4850454 0.05486289 0.16624124 -0.18886632 0.36251545 -0.22550654 -0.27025223 0.473889 0.20949341 0.59834397 0.73294103 -0.52153933 -0.9005878 0.06309022 -1.0160174 -0.73464584 -0.45836747 0.18438728 -0.34389886 -0.35468036 -0.8573679 0.2215932 0.079634696 0.2536953 0.5506735 0.85121363 -0.14209099 0.025595678 0.4068379 0.2990577 -0.5531862 0.06583232 -0.32220763 0.11807783 0.8290594 0.32302165 -0.4196477 -1.0849881 -0.6583543 0.581002 0.16628812 -0.52683866 -0.211701 -0.3760231 -0.3597468 -0.42608315 -0.1705275 0.23493291 -0.5226401 0.10996814 0.27248815 -0.11781021 0.0270769 -0.21089824 -0.7696391 -0.20392343 0.26587793 -0.115357414 -0.06383188 0.17805405 0.46283206 0.057964228 0.037318774 0.29055053 -0.29515597 -0.6752881 0.05140183 -0.4164232 0.33025035 -0.27516678 -0.22574738 0.41455707 -0.58569384 0.20532957 0.09067441 0.038545832 -0.40942892 0.18441805 0.2002092 -0.2088497 0.773771 -0.34163544 0.12067542 0.2280765 -0.4749854 -0.03148182
http://www.semanticweb.org/city/in3067-inm713/2023/restaurants#PizzaByStyle 0.49628574 0.21946976 -0.090155326 -0.075296625 -0.79337394 0.31320804 -0.45609838 0.48133302 -0.017815081 -0.009605446 -1.2264246 0.050450973 0.20393275 0.4419466 0.011463491 0.36390057 0.09356081 -0.674957 0.05649901 -0.818685 -0.054100048 0.39342448 -0.11609247 -0.20462772 0.3164368 0.24104244 -0.12370507 -0.34880498 -0.59026676 -0.11234497 0.24894275 0.3240149 -0.0053648804 -0.09227467 -0.26521993 0.20622143 0.0525968 -0.71426594 0.09298632 0.22459899 0.51564854 -0.2286863 1.0357347 -0.03225685 0.025965502 -0.05087319 -0.09948521 0.28892952 0.486639 -0.14177138 -0.1801471 -0.4148978 -0.34256074 -0.027153986 0.5391608 -0.2891984 -0.0042680167 0.3760508 -0.31819493 0.2521601 0.15440702 0.394746 -0.07359451 0.1921381 0.18946803 0.3276883 -0.6005495 -0.3458954 0.026086882 -0.03767561 0.09188959 -0.2488769 0.43103182 -0.16165556 0.3933062 -0.6062086 -0.17318211 -0.5127036 -0.008216459 -0.15727077 0.5024848 -0.18429525 -0.10610482 0.6175299 0.23965748 -0.5766928 -0.53329986 -0.42399564 -0.040387627 0.17784044 -0.36467016 0.16541408 0.9225775 0.017540874 0.14426303 -0.19269568 -0.09290885 0.67965186 0.114424095 -0.8832853
http://www.semanticweb.org/city/in3067-inm713/2023/restaurants#Cheese 0.12865606 -0.15129466 -0.3131722 -0.13477477 -0.33916003 0.1484133 -0.20156828 -0.02200329 -0.41262057 -0.06837766 -0.74028087 0.022532552 0.12078465 0.3497941 -0.022279067 0.15420899 0.10220346 -0.45511112 0.04998775 -0.15539297 0.043983325 0.37547976 0.12403393 0.30332205 0.38929904 0.25444636 -0.57900226 -0.0556585 -1.0456655 -0.113052964 -0.18639131 0.026899416 0.23199984 -0.12918013 -0.36650378 -0.07481019 0.009778833 -0.27641863 -0.030669179 0.23612082 0.020640785 -0.24489789 0.7257032 -0.0827261 -0.16497478 -0.48062482 -0.19394048 0.2578366 0.60394466 -0.727259 -0.26839694 -0.8035213 -0.76636046 -0.24870147 0.366646 -0.06031512 -0.20238243 0.42852157 -0.308571 0.018045885 -0.09024443 0.623338 -0.61077803 0.33860457 0.34055445 0.09711341 -0.17721196 -0.2763907 -0.30525514 0.02883477 -0.027418874 -0.21397689 0.24174392 -0.30445993 0.8399537 -0.28139165 0.3408527 -0.2010543 -0.17467527 -0.41532448 -0.090840116 -0.3388364 0.24145767 0.3783059 0.03301271 -0.04663644 -0.042951792 -0.37387684 -0.21664378 0.22930263 -0.32841444 0.018772861 0.33849362 -0.31743723 0.09293234 0.017968623 -0.12026365 0.5764592 -0.07935228 -0.265023
margherita -0.26605225 -0.04726301 0.052482534 -0.045236457 -0.01340168 0.24142258 -0.045517955 0.32571808 -0.6573289 -0.41231284 -0.90686077 0.018401403 0.19035713 0.4616134 0.32607758 -0.045196455 -0.065879636 -0.5292346 0.05786349 0.12461537 -0.25020394 0.30722517 0.15647058 0.16291618 0.5702081 0.49082878 -0.38398027 0.015227879 -0.706213 -0.34000686 -0.20324446 -0.18934686 -0.22252235 -0.12630011 -0.53970605 0.15084304 0.52892154 0.13228862 0.2548604 0.2274332 0.066457264 -0.14064284 0.61670274 -0.18127087 0.17708264 -0.57332045 -0.5889143 0.16250195 1.1077806 -0.36152375 0.06449751 -0.9048795 -0.61332774 0.047372077 -0.034715902 -0.3642484 -0.057324454 0.13049154 -0.12606204 -0.090327285 -0.041741546 0.7035577 -0.3826565 0.14870444 0.31577602 -0.2408021 0.028476149 -0.0645661 -0.49530882 -0.06070435 0.17047097 -0.14851554 -0.10961568 -0.45522532 0.6650073 0.087236606 0.31537518 -0.21326518 -0.20488775 -0.7122166 0.06916884 -0.3482935 0.3823681 -0.24329093 -0.26475623 0.24232666 0.008669952 -0.70597273 0.03659749 0.03509862 -0.28530306 0.23078735 0.4096765 -0.5048667 0.70865077 -0.14731821 -0.37065426 0.3585446 -0.6986691 -0.1589323
the 0.47632414 -0.59082323 0.1124703 0.07862586 -0.38385114 -0.17480913 0.0942757 0.43149725 0.469862 0.2960781 -0.62478554 -0.445532 0.45306313 0.55797887 -0.11682454 -0.22480947 -0.13303742 -0.34170893 -0.17340231 0.50722325 -0.64509827 0.41118178 0.1350642 0.2555073 0.4086683 -0.3229259 -0.25641602 0.17382443 -0.57752573 -0.4442731 0.60674286 0.13596536 -0.28461835 0.12932101 0.2133203 0.12423914 -0.27652556 -0.56533074 0.27834356 -0.23711134 -0.2576844 -0.35243747 0.25471246 0.0018005022 -0.5298513 -0.13060135 -0.42019308 0.38653573 0.84427804 0.36635152 -0.43195236 -0.49207056 -0.21336436 0.8700005 -0.18942037 -0.26096514 -0.31881315 -0.25296804 0.2973376 0.22270627 0.22095723 0.11389327 -0.04497218 -0.42157227 0.43809387 0.27196252 0.16227089 -0.09873091 -0.7680407 -0.52439904 0.5376242 0.017222868 -0.0878539 -0.1320353 0.6493465 0.1985993 -0.03439238 -0.35061783 -0.44322595 -0.050971325 0.6232228 -0.29054162 -0.14631903 0.759768 -0.5323961 0.021417381 -0.04370113 0.025700301 0.07374644 0.2554209 -0.32787263 0.85545325 0.1575775 -0.17967284 -0.17379145 -0.40641728 0.5238658 -0.002525443 0.23677848 -1.0644157
altlabel 0.60856557 -0.4493599 0.16003726 -0.0965538 -0.08403645 -0.42397207 -0.32024223 0.45220286 -0.18291913 0.11589597 -0.6605798 0.08604627 0.39756376 0.09064071 -0.061632406 -0.041374743 -0.19680911 -0.15235695 0.4157995 -0.29969928 -0.77791417 0.63150924 0.1974476 0.27471042 0.57656735 -0.022997176 -0.8717109 0.24865858 -0.412125 -0.15888482 0.12635887 0.37349853 -0.6802218 0.029670892 -0.11844912 -0.2910306 -0.038428403 -0.14194588 -0.19363986 0.6466515 0.13876475 -0.16671966 0.24663475 0.41945902 0.069535874 -0.12862584 0.17841105 0.6073395 0.35844192 -0.24825354 -0.33075184 -0.73182 -0.6314705 0.13174069 0.55815953 -0.0615134 -0.1981401 -0.09114051 -0.035057247 0.1847997 0.7445037 0.38070354 -0.17087105 -0.36756185 -0.22499785 -0.29663414 -0.05910026 -0.6930315 -0.46987742 -0.1935562 0.16459496 -0.23803152 0.34038392 0.213136 0.37818107 -0.37052095 0.23089495 -0.16941962 0.0003263375 -0.17815872 0.22141059 -0.27857503 0.3301925 0.2985205 0.06907698 -0.015791332 -0.34503552 0.068282194 0.06194272 -0.09299826 0.41077793 0.3792605 0.4702448 -0.26537907 0.06252596 -0.5643759 0.83789575 0.14878577 -0.06598084 -0.58147997
located -0.14823468 0.1065958 -0.10710541 -0.1983383 -0.24490683 0.2628234 -0.6005215 0.92545253 -0.24230959 0.2140732 -0.61181843 -0.0842631 0.06996446 0.33312055 -0.28766838 -0.32871696 0.3798085 -0.8976795 0.05394194 -0.64532614 -0.98445183 1.0369248 0.60386467 0.3007135 0.20384978 0.25720587 -1.288627 0.44764525 -0.8916966 -0.39829057 -1.3285547 -0.22539619 -0.066637546 -0.5503219 0.32751176 -0.38414142 -0.13025498 0.06836478 0.27251947 0.36946484 0.13396984 -1.301356 0.6931497 0.23284931 -0.19705497 0.07672465 -0.12430659 0.4287389 0.2803359 0.19087628 -0.4829782 -0.17414035 -0.57726973 -0.10520829 0.010290636 0.10828779 -0.39579904 -0.32064465 0.1023264 0.30135727 -0.47506443 0.27445304 -0.25838482 -0.3820902 0.16569129 0.20747471 -0.45748845 -0.15752347 -0.044017993 -0.06986143 0.47640583 -0.31193474 0.4510568 -0.48913458 0.08225521 -0.07794025 0.14168271 -0.53002226 0.4305408 -0.19342895 0.44082934 0.1277261 0.089606054 0.80860406 -0.20633334 0.31244832 -0.2685156 0.1871854 -0.27061877 -0.46367508 0.37015963 0.0945683 0.28749222 -0.90646845 -0.44866672 -0.4011983 0.87176067 0.2960705 -0.4266921 -0.42407095
pineapple 0.4702869 0.3345587 -0.18253878 -0.0027035465 -0.65807676 0.5563366 -0.51935107 0.77152854 -0.40006697 -0.2750333 -1.4104165 0.22099386 0.1743311 0.39132774 0.2061528 0.1202445 -0.29625738 -0.9346775 0.23841402 -0.383865 -0.2455653 0.8484848 0.15290834 -0.35128954 0.7350324 0.2733915 -0.3107745 -0.44246325 -0.7728289 -0.3528794 -0.1763226 -0.19633521 -0.70367354 -0.35297844 -0.3495137 0.16250768 0.343588 -0.12565152 0.24199061 0.46987692 0.32003844 -0.3852561 1.0605853 -0.22479443 -0.12783462 -0.3527416 -0.19681026 0.4191149 0.56994563 -0.4421306 -0.2063525 -0.6275531 -0.68397284 -0.03398092 0.23104024 -0.72874767 0.30595428 0.07742777 -0.32562447 0.50144166 0.19833066 0.6084213 -0.48103923 0.33907697 0.29393578 0.05939531 -0.26935 -0.67789835 -0.20513469 -0.3364886 0.053394716 -0.26945332 0.10634628 -0.15858917 0.6371283 -0.4967667 -0.01785237 -0.5326107 -0.09628354 -0.48930278 0.2773085 -0.67492294 0.22060096 0.09397688 -0.030734891 0.04528603 -0.8642793 -0.74167675 -0.07025337 -0.044327084 -0.058836415 -0.017885676 0.8779411 -0.14166863 0.39764258 -0.29785365 0.11048158 0.20471187 -0.41927853 -1.1402445
sausage 0.3121623 -0.06073251 -0.69974446 -0.31123036 -0.3161481 0.09574557 -0.05463921 0.019380564 -0.52511317 -0.17410772 -0.6091206 0.11200701 0.12232962 -0.07227411 0.45101237 -0.03634463 0.012318101 -0.31468362 0.35122484 -0.335198 -0.3904667 0.5081248 0.35349783 0.4576438 0.85979027 -0.7250704 -0.8253194 -0.044264458 -0.9389667 -0.65174264 -0.38814467 0.21162757 -0.46769956 -0.3515453 -0.78366137 -0.037974164 0.113673866 -0.34205467 0.28842568 0.6650133 -0.05339594 0.08216957 0.6075728 0.30242652 -0.2730024 -0.13204497 -0.029491503 0.5556684 0.6462697 -0.06807682 -0.45224017 -1.2144465 -1.1983154 0.5019107 0.6560229 -0.53717625 -0.021295503 -0.19377656 -0.75298655 -0.09979644 0.1792257 0.6383033 -0.7351072 0.17045178 0.4575795 -0.24392483 -0.13371314 -0.5191623 -0.7437189 -0.46689942 0.21546789 -0.3237694 0.17056398 0.23597631 0.6392919 -0.12856874 0.09264721 -0.21912527 -0.2435719 -0.5643758 0.20294158 -0.50614226 0.4884447 0.035958886 -0.40352502 0.36344326 -0.7459229 0.10828868 -0.18390177 -0.04303783 -0.026014477 0.015705025 0.6235399 -0.17202444 0.44544733 -0.64373374 0.372775 0.33223325 -0.34567517 -0.38927227
http://www.semanticweb.org/city/in3067-inm713/2023/restaurants/State 0.140327 -0.30854502 -0.08336291 0.13851127 -0.17110041 0.18681386 0.07016116 0.30198395 0.047487557 0.12594366 -0.4019253 -0.21344256 -0.0321291 0.34440058 -0.21031685 -0.16060756 0.14701375 -0.3426122 0.015723914 -0.26284122 -0.16214322 0.19130933 -0.104733534 0.57835126 -0.086748354 0.2061332 -0.78665584 0.36937052 -0.4598378 -0.08672258 -0.18619744 0.09644689 0.15181439 -0.10407498 0.056104716 0.10784048 0.026504897 -0.49643275 -0.0019611367 0.012805538 0.04544677 -0.26385716 0.3624181 0.11659774 -0.1053713 0.46426952 -0.021361012 0.27834976 0.3223686 -0.012496978 -0.31420848 -0.5322199 0.024082249 0.23629217 -0.14159931 -0.064176336 -0.38195413 -0.104815654 -0.1750658 0.11091922 -0.06655182 0.03146183 -0.29316342 -0.22791952 0.1171791 0.021869242 -0.060720634 -0.2162074 -0.37108985 0.02628884 0.089322746 -0.10393649 0.24676795 -0.045588985 0.24970573 -0.14359036 -0.0018059512 0.052601196 -0.10922415 -0.11444862 0.38779515 0.026500437 -0.04321326 0.39920047 -0.20461579 -0.076032825 0.30890802 -0.011112473 -0.112271436 0.1212625 -0.18241705 0.37862155 -0.0023870808 -0.543131 0.03195827 0.081118055 -0.012143721 0.28237852 -0.15513405 -0.04248613
supreme 0.07595358 0.17499222 -0.5170178 0.009429866 -0.09949984 0.329335 0.07725097 0.091638684 -0.25410876 -0.63064075 -0.59114003 0.16930819 0.1926911 0.2514064 0.28712666 0.05430947 -0.09252219 -0.5551244 0.038874343 -0.053456508 -0.4115735 0.2817651 0.10078108 0.36424515 0.54898715 -0.58823013 -0.60348994 -0.09032472 -0.5731803 -0.6569287 -0.13389042 0.06995868 -0.45314437 -0.4694523 -0.6709699 0.24026735 0.20721062 -0.28826505 0.46236232 0.24717768 0.057411015 -0.0055842726 0.5228942 -0.07117857 -0.19380243 -0.18601105 -0.21930559 0.2909651 0.69971055 0.00937985 -0.23587735 -1.0512356 -0.76313233 0.4747169 0.11143585 -0.5786552 -0.15228705 -0.119914144 -0.31477785 -0.024235502 -0.055623993 0.28359324 -0.56244975 0.08210764 0.28990838 -0.43050164 -0.034183137 -0.28804013 -0.76462656 -0.46074903 0.17946167 -0.016179508 0.12613697 0.19615203 0.35402992 -0.21149309 0.063844 -0.18976463 -0.5131699 -0.5880159 0.25089636 -0.16037631 0.37898475 -0.1206453 -0.5160373 0.39041883 -0.32912043 -0.13435687 -0.04009933 -0.06714985 -0.12293204 -0.008998214 0.41468906 -0.23795119 0.6756245 -0.40892544 0.2170007 0.16070633 -0.5381086 -0.47905093
american 0.038970955 0.2239242 0.27677706 -0.07348651 -0.35280213 0.42909357 -0.2054186 0.8124563 -0.2949127 0.097825795 -0.82839245 -0.03063357 0.17589116 0.21837635 -0.019613514 -0.08965324 -0.006110166 -0.3675776 -0.0961077 -0.7130278 -0.3751432 0.627703 0.15880045 -0.05961997 0.47921816 0.3704663 -0.16155806 -0.23202218 -0.38886276 -0.21150918 -0.45704353 -0.24279824 -0.44574103 -0.1380934 -0.081797056 -0.11725077 0.21958044 0.017130114 0.47925937 0.22013767 0.3027088 -0.5564332 0.8222031 0.026521642 0.11317308 0.042165037 -0.4088841 0.15884414 0.45763794 0.08608772 -0.061820272 -0.004804654 0.03155678 -0.030954324 0.10429849 0.08107086 0.14667949 -0.23570108 -0.09950384 -0.04043622 -0.12577605 0.5287745 0.06382468 0.028609212 0.2100464 0.28606263 -0.3947656 -0.37019265 0.0827129 -0.14817101 0.080163985 -0.43029237 -0.06768216 -0.35593215 0.0855498 0.046649028 -0.04911054 -0.46182346 0.44018665 -0.1472479 0.5642131 -0.46831205 0.22735168 0.35778788 0.26881775 -0.3851266 -0.7325756 -0.21040003 0.14791887 -0.16554087 0.100785956 0.21908829 0.57092637 0.044603568 0.08127958 -0.26133862 0.28356308 0.3030006 -0.49437964 -0.5220983
marinara -0.026226697 -0.15398641 -0.0071210884 0.043939076 0.09110522 0.013254226 -0.22377662 0.34782848 -0.4416112 -0.37865767 -1.1137314 -0.0057448577 0.06391326 0.42574883 0.17516606 0.023584148 -0.039422035 -0.5955254 -0.006900168 -0.053272903 -0.40909252 0.69623965 0.098171376 -0.07720669 0.5718032 0.57161766 -0.4692885 -0.10292465 -0.92044324 -0.19541782 -0.46625975 -0.1837537 -0.38053316 -0.23637626 -0.31822148 -0.056636028 0.2738255 0.1774197 0.38580674 0.2954729 -0.0027169595 -0.3458984 0.6508142 -0.24879107 0.0987664 -0.58515584 -0.4799216 0.3140936 0.8230316 -0.5766364 -0.01678633 -0.6180824 -0.8151836 -0.21376932 0.29228938 -0.27674466 0.24839255 0.19687618 -0.10372408 0.17070985 -0.032153822 0.7712345 -0.23401897 -0.0027116875 0.297597 -0.15083012 -0.18570729 -0.4350267 -0.31494012 -0.23415595 0.090875626 -0.08471843 0.007888182 -0.32047236 0.6511222 -0.0031238804 0.39977443 -0.48228732 -0.18872054 -0.74713624 0.032990865 -0.4021345 0.5751995 -0.20047794 -0.08549126 0.48972955 -0.14744484 -0.81061476 -0.24215114 0.002918288 -0.13347779 0.08480016 0.6407595 -0.52091825 0.54055244 -0.2713524 -0.06154395 0.25177884 -0.5590516 -0.31767187
http://www.semanticweb.org/city/in3067-inm713/2023/restaurants#VeganIngredient 0.59073144 -0.44182426 -0.03025641 -0.053955786 -0.37953186 -0.101445064 -0.37944508 0.23446691 -0.29375798 0.024291327 -0.9098743 -0.012856229 0.506077 0.31646928 -0.29613808 0.08433048 0.025232824 -0.4682604 0.12136225 -0.27520332 -0.21000735 0.55152756 0.29903227 0.1678746 0.4074736 0.36815512 -0.6148173 0.18032646 -0.9516267 -0.26960096 0.08226712 0.3135888 0.003773316 -0.037703305 -0.27404317 -0.12513377 -0.07636958 -0.46562973 -0.11330772 0.52812624 0.16874681 -0.07955689 0.6898061 0.06896092 0.07738872 -0.50892603 0.02062723 0.52539474 0.5471246 -0.82779104 -0.377691 -0.7618013 -0.6177954 -0.19483377 0.5907201 -0.028098524 -0.16197602 0.5725116 -0.3054304 0.14796117 0.26912037 0.6636381 -0.57790816 0.062010102 0.15673655 -0.022395767 -0.28520855 -0.7855055 -0.13402003 -0.045430224 -0.18794096 0.011151578 0.24594942 -0.2282358 0.7743964 -0.55278105 0.47919184 -0.35763273 -0.08553467 -0.45033568 -0.052093133 -0.3956842 0.42265838 0.35773262 -0.18868896 0.06394793 0.080421284 -0.4280702 -0.37070787 0.16885935 -0.33866018 0.16129489 0.41379678 -0.32864907 0.034132842 -0.01593864 0.041002512 0.48948163 0.061950903 -0.33866608
place 0.11133794 -0.6830387 -0.034140076 0.3396518 -0.11746368 0.022747139 -0.48443425 0.34424776 -0.31097597 0.2798928 -0.61375403 -0.18775466 -0.2770613 0.51442707 -0.41752526 -0.07678497 0.09792704 -0.24313752 -0.004711818 -0.5674854 -0.42212948 0.79082084 0.05463863 0.14911006 -0.0286599 0.37726277 -1.0289515 -0.06692223 -0.25455487 -0.290016 -0.48638046 -0.22832651 -0.22015573 -0.26880246 0.09316304 0.32249898 -0.17423253 0.29795995 0.4123374 0.45225543 0.07880646 -0.5595228 0.56394523 0.07254605 -0.028040748 0.21157122 -0.28524363 -0.2503328 0.17195444 0.51240534 -0.3252265 -0.19111976 -0.1775544 0.47450915 0.038620483 0.03132895 -0.092359215 -0.40730515 -0.25202224 0.28678074 -0.45395908 0.38615358 0.24002507 -0.31234017 -0.027333146 0.14171524 0.10197823 -0.3245812 -0.37049526 0.25463742 0.10512897 0.029410783 0.19511023 -0.20529947 0.07677223 -0.0018540878 -0.05329934 -0.41058213 0.28578448 -0.4550045 0.32805324 -0.36745653 0.5250128 0.13942976 0.46964327 -0.097682334 -0.088887945 0.20558695 0.250498 -0.17821787 -0.02745078 0.35724017 0.52808124 -0.31398043 -0.1891318 -0.32305762 0.8775904 0.099799655 -0.24479535 -0.20447485
bbq 0.43752387 -0.39681417 0.15192002 -0.19567256 -0.0050167786 -0.14474037 -0.13234198 0.49864253 -0.4238619 -0.29225212 -1.3270342 -0.11607688 0.7020025 0.38795033 0.17820312 -0.061760195 0.0007687748 -0.10657268 0.31099162 0.08847927 -0.67895526 0.6410554 0.30331817 0.24569188 0.58996874 0.53259665 -0.55965245 0.34090996 -0.40280882 -0.54248685 0.44126335 0.2378752 -0.60452664 0.09725809 -0.26663253 0.0010141247 0.34824443 0.32572404 0.3425754 0.7000714 0.016265249 0.10360832 0.360091 0.09591816 0.058400188 -0.5965857 -0.2581967 0.5100311 1.2762898 -0.1682424 0.093286335 -1.0493075 -0.6198233 0.48450643 0.30998087 -0.306618 0.03483919 -0.15308909 0.07534105 0.00021303944 0.35321304 0.59681696 -0.22365206 -0.23980297 -0.15873082 -0.27051362 -0.0077127484 -0.7642171 -0.7125089 0.004733151 0.0546365 0.10809836 -0.1341848 -0.13274646 0.8497972 -0.16250789 0.26983726 -0.16542126 -0.39320093 -0.99346334 0.29611015 -0.6269081 0.6150535 -0.23165429 -0.35370666 0.21770935 -0.40830708 -0.4506814 0.018925058 0.13972576 -0.10850829 0.66852117 0.5583306 -0.45933017 0.7895975 -0.26662257 0.15483895 -0.102412336 -0.6943896 -0.7419224
hawaiian 0.06094949 0.20588884 0.020802584 0.0020727876 -0.20920275 0.21232036 -0.28361252 0.54759395 -0.26865345 -0.3563994 -1.1317167 0.11178169 0.29613802 0.398546 0.2535741 0.21055427 -0.1349376 -0.81551355 0.12500256 -0.03963168 -0.51588964 0.49766335 -0.07350436 0.059042703 0.6075775 0.29655105 -0.33802128 -0.12307921 -0.57534176 -0.28742373 -0.3594835 0.04375123 -0.59806836 -0.16306752 -0.3949135 0.039107583 0.45317763 0.08645705 0.28564507 0.2709703 0.22319269 -0.33480087 0.6646433 -0.23366654 -0.04117945 -0.29314262 -0.2645362 0.5457518 0.6485522 -0.4605704 -0.04173828 -0.5500807 -0.7625399 -0.10215014 0.3326699 -0.40167347 0.056632463 0.22075354 -0.12311626 0.011594028 0.1791642 0.6413757 -0.18273477 0.23876145 0.22119524 -0.084167555 -0.27924258 -0.4412577 -0.2623657 -0.20217487 0.23416916 -0.14934784 0.18530309 -0.27036878 0.41319132 -0.10413469 0.22978988 -0.47894335 -0.23911154 -0.52863747 0.0763846 -0.23628193 0.34722242 -0.010734541 -0.1350502 0.27082172 -0.4291017 -0.6520525 -0.06565878 -0.14834777 -0.1143669 0.13081133 0.5826524 -0.23479056 0.59518605 -0.19268589 0.038303573 0.36511412 -0.4995672 -0.5664858
beans 0.23414065 0.0028640227 -0.12811278 0.10311944 -0.45415708 0.38212925 -0.54499197 0.65393406 -0.4757353 -0.35716572 -1.1513268 0.00035456178 -0.016010059 0.43151948 0.037931196 0.0044485917 -0.16226992 -0.8517733 0.123058975 -0.5210281 -0.2937948 0.9534083 -0.03492454 -0.3816515 0.6060007 0.32531777 -0.5231927 -0.315854 -0.6411222 -0.22285278 -0.26998514 -0.26861823 -0.7049767 -0.35894662 -0.28317627 0.09498655 0.18682353 0.07178044 0.25299776 0.38363096 0.1420955 -0.347936 0.634311 -0.13810837 -0.09315196 -0.36367938 -0.1804422 0.40455619 0.35622045 -0.3768383 -0.22862226 -0.3252821 -0.6553224 -0.10602706 0.2963719 -0.5296559 0.44624946 0.03147882 -0.38304275 0.4696853 0.23108399 0.45935762 -0.20765331 0.1964523 0.22893265 0.022275832 -0.2869682 -0.6034595 -0.2869057 -0.37255102 0.082949206 -0.48566937 0.12833282 -0.14517397 0.41551757 -0.4867739 0.009720135 -0.49347326 -0.023565883 -0.58560437 0.35497797 -0.48483682 0.2554499 0.05162552 0.083059356 0.09601549 -0.72736585 -0.67235625 -0.0031881956 -0.10863179 0.071458705 -0.0148103405 0.87520355 -0.260865 0.23891123 -0.4108646 0.4339693 -0.0031965883 -0.31436375 -0.9309876
grill -0.010702533 -0.022044143 0.4507665 -0.3520535 -0.0026686897 0.31694213 0.11617294 0.324904 -0.608109 -0.020827547 -0.24879566 -0.021029666 -0.05302405 0.17170656 0.3935556 -0.32392338 0.23571084 0.08017931 -0.1927407 -0.5793351 -0.3633667 0.09756338 0.5563502 0.34146655 0.40644893 0.39338443 -0.7689372 0.19396299 -0.8301163 -0.20663239 -0.81687355 -0.15728684 -0.22998142 -0.18361737 -0.28913024 -0.46785447 0.23833163 -0.08252519 0.35310265 0.20139205 0.29726002 -0.84270394 0.91993177 0.038608897 -0.10777988 -0.124027684 -0.7969307 -0.12317161 1.1253376 0.31688753 -0.07597211 -0.5136981 -0.3070233 -0.098863885 0.4416806 0.24085632 -0.28332847 -0.5215907 0.18041775 -0.4572324 -0.16811296 0.5143004 -0.27917758 -0.055204663 0.58089226 0.3229409 0.11695698 0.021812882 -0.39637446 -0.2140345 0.37224695 -0.66378987 0.077656716 -0.36388326 0.102125324 0.55785054 -0.16872682 0.016461981 0.18400617 -0.32967252 0.71893257 -0.4161023 -0.097033605 0.2890314 0.17191836 -0.20160018 -0.089709006 -0.004488182 0.11205238 -0.13648303 0.3817563 0.499112 -0.107874736 -0.42821097 0.10973133 -0.37242442 0.081220604 0.040136855 -0.4032436 0.01619628
feta 0.22242133 0.17400053 -0.06840617 -0.012785498 -0.47232768 0.42944002 -0.4999713 0.5757319 -0.50870615 -0.45182544 -1.2120309 0.1025764 0.16666009 0.42840892 0.118196785 0.13936561 -0.06632296 -0.7509323 0.17387927 -0.30271146 -0.21840027 0.7974929 0.04054989 -0.28557214 0.8117005 0.28296876 -0.42163774 -0.4279023 -0.835338 -0.19409832 -0.16817504 -0.14103508 -0.64743394 -0.2779264 -0.43447092 0.0645817 0.20043457 0.10747553 0.33532798 0.44101223 0.15935619 -0.44859916 0.763339 -0.14279169 -0.16777164 -0.48957404 -0.24555534 0.383072 0.573728 -0.44999534 -0.20384504 -0.43346107 -0.75782335 -0.15110019 0.47078744 -0.48334402 0.23929405 0.04408655 -0.32268232 0.39070255 0.30225483 0.60075814 -0.31982973 0.36643606 0.25075433 0.11021057 -0.30030638 -0.5699449 -0.25656882 -0.38470328 0.18275735 -0.36320606 0.1339427 -0.178257 0.45610926 -0.43512896 0.03603111 -0.41915438 -0.15264633 -0.5734576 0.2907882 -0.57414675 0.11091413 0.17632692 0.1355519 -0.0057717822 -0.78790444 -0.6953689 0.006465105 -0.09240689 -0.051378984 0.06692931 0.7089465 -0.17585996 0.39182782 -0.37151137 0.31408522 0.049004544 -0.26043868 -1.0025107
comment 0.928288 -0.09466083 0.3148749 -0.10214034 -0.52208835 0.36318594 -0.47834793 0.73949 0.024657527 0.09898138 -1.1176108 0.28504577 0.5469876 0.43955287 -0.097649835 0.19074771 -0.47979158 -0.69223475 -0.10454925 -0.38463107 -0.44594485 0.47057074 -0.048169933 -0.18155052 0.6891139 0.113246575 -0.39107445 -0.20281348 -0.25263533 -0.38331825 0.17399505 0.22590373 -0.7429013 -0.15265705 -0.23355167 -0.22939715 -0.11164744 -0.783307 0.22820635 0.503792 0.5955623 -0.31445011 0.66576886 -0.020866612 0.20201425 0.014113029 -0.116550855 0.71073294 0.5078888 -0.39955518 -0.027557528 -0.3702197 -0.37387866 0.03683223 0.35254136 -0.30795065 0.040710542 0.26666874 -0.116912775 0.2278242 0.7098539 0.31143817 -0.38817367 0.14365698 -0.05908305 0.30927652 -0.14053212 -0.5298125 0.13090917 -0.37854698 0.010709404 -0.23757431 0.0864458 0.024046548 0.12504289 -0.4553959 0.23678912 -0.51299226 0.039525878 -0.1390755 0.38991782 -0.63134855 0.076952346 0.4567234 -0.44010705 0.14156708 -0.5951793 -0.2856824 -0.2191761 -0.004326536 0.29937497 0.3212832 0.6966057 0.025657319 0.24370666 -0.5518735 0.2682946 0.43334243 -0.1009951 -1.1408443
http://www.semanticweb.org/city/in3067-inm713/2023/restaurants#TomatoSauce 0.07579153 -0.28058892 -0.34724545 -0.1176483 -0.37693545 -0.04782125 -0.26974788 -0.00970964 -0.5245496 -0.23212045 -1.0456321 -0.10849209 0.19315092 0.39619923 -0.117662944 0.1487489 0.11560235 -0.5034122 0.07712002 -0.20763694 0.00604048 0.6753965 0.22862233 0.26307967 0.47216177 0.48574084 -0.69318587 0.16338348 -1.2103068 -0.031944286 -0.32853475 0.072583534 0.2529112 -0.2232274 -0.2825888 -0.17681591 0.026560554 -0.18927021 -0.014734271 0.33953533 -0.10275292 -0.12964788 0.75538313 -0.01063538 -0.08261581 -0.56360567 -0.108722486 0.34801278 0.624042 -0.8438511 -0.31285775 -0.933158 -0.8928266 -0.27799612 0.5129893 -0.15871961 -0.046200737 0.5539136 -0.31192327 0.18002352 0.0047992435 0.77962106 -0.56430864 0.25768322 0.35361522 0.0074553406 -0.24996646 -0.59576946 -0.35135475 -0.045093548 -0.12812915 -0.11935928 0.25179797 -0.2474072 1.1949434 -0.45303598 0.47432727 -0.19594358 -0.2657894 -0.62375116 -0.07128581 -0.3277397 0.41142085 0.2755407 0.054335017 0.16025072 -0.08765136 -0.6031548 -0.4042436 0.33022234 -0.44852802 0.11895175 0.5130781 -0.5391939 0.18481357 0.044692475 -0.22038145 0.54698634 -0.12517871 -0.35893047
bars 0.382854 -0.9045576 -0.10290075 0.10086174 0.2674928 0.035655245 -0.40910587 0.31719685 -0.45770177 0.026463427 -0.8180135 -0.5745901 -0.1272328 0.68336767 -0.44229412 -0.21549523 0.22928794 -0.47906545 -0.10773247 -0.9431318 -0.76989126 0.62214935 -0.20919853 -0.17340319 0.31101468 0.6296885 -1.4996213 -0.2317524 -0.91574407 -0.1948162 -0.844267 -0.37229025 -0.6568878 -0.3659625 -0.18081549 -0.35056052 -0.51095057 0.18651275 0.5457339 0.30257216 -0.1433718 -0.50966436 0.5739228 -0.21805413 -0.24080242 -0.20645708 -0.29841682 0.13126068 0.59617305 0.08906186 -0.5292461 0.014407183 -0.77799726 -0.027469704 0.42320183 0.11479647 0.0055589015 -0.22710924 -0.11548845 0.23867553 -0.10105702 0.7872212 -0.029516708 -0.029148629 0.4272678 0.33123893 0.095567524 -0.3806514 -0.24240625 -0.018691769 0.14002855 -0.8812058 0.4708617 -0.18389979 0.22006223 -0.05752124 0.24879736 -0.52537274 0.15353249 -0.8429482 0.6781526 -0.6286918 0.72370815 0.679649 0.18840152 0.18577321 -0.26852316 0.11822149 0.27450034 0.24634959 0.5633074 0.29411322 0.9693188 -0.46313405 -0.5427963 -0.6809247 1.0425103 0.1478059 -0.006654972 -0.6906962
, 0.37925985 -0.91634953 -0.0029953301 0.34253803 0.18030025 0.08988013 -0.6476829 0.22417678 -0.5163097 -0.009404797 -0.6760556 -0.314869 -0.26043987 0.6981933 -0.35335314 0.09097731 0.17761935 -0.49875662 0.025973238 -0.5886123 -0.7311372 0.52495223 -0.43313852 -0.055862688 0.27364448 0.5723695 -1.1976569 -0.18691552 -0.72986954 -0.34194362 -0.80907243 -0.3498449 -0.5584346 -0.35941008 0.1953311 -0.29766962 -0.50912184 0.061983958 0.4665412 0.27296278 -0.10694638 -0.66050667 0.6257902 -0.019584762 -0.29942155 -0.12919484 -0.43337032 0.41847435 0.24556021 -0.09407905 -0.5941787 0.06845445 -0.77826357 0.12880775 0.53044903 0.12992321 -0.039771046 -0.2906585 -0.3148957 0.43167466 0.06771492 0.6412606 0.022458747 -0.16303465 0.31915146 0.2974214 0.019721512 -0.5187008 -0.03878331 -0.14089076 0.01705278 -0.63590544 0.333315 -0.3563916 0.26950055 -0.15099166 0.0022340175 -0.5945139 0.22984247 -0.8331888 0.487699 -0.65584695 0.75238246 0.5010163 0.3384944 0.10529016 -0.43943456 0.15614177 0.29424757 -0.016368678 0.27809504 0.4042114 0.6507273 -0.37806326 -0.22060409 -0.673613 0.9793449 0.39016315 0.23198721 -0.7492555
value -0.22776987 0.14477193 -0.017961567 0.27888596 -0.66869503 0.43290693 -0.34256342 0.82381856 -0.40069002 -0.561386 -1.0954562 0.18414922 -0.11223269 0.45735076 0.29218778 0.10901239 -0.15405217 -1.0336643 0.4913335 -0.4624957 -0.33723447 1.0088058 0.27735314 0.11212709 0.5660159 0.11645426 -0.32524565 -0.10811721 -0.5088941 -0.25197574 -0.305515 -0.120371215 -0.5150172 -0.13135166 -0.22755703 0.14668053 0.85252017 -0.06155175 -0.4637603 0.09240842 0.2207992 -0.5076099 0.91710764 -0.24104309 0.09088813 -0.40500957 -0.20078431 0.3717835 0.5825945 -0.4020144 0.10024066 -1.2969131 -0.45273405 -0.10877197 0.38471252 -0.7117236 0.05506743 -0.1777781 0.17263238 0.7414668 0.2702049 0.5461137 -0.28343293 -0.05966045 0.305877 -0.56338644 -0.18308145 -0.64615417 -0.77597284 -0.22809204 0.40105367 -0.32376397 0.33839437 -0.26945984 0.91024566 -0.39236328 0.18079479 -0.55435437 0.19854829 -0.03560508 0.44814494 0.097011596 0.26310635 -0.23549797 -0.10629741 -0.17601869 -0.14570096 -0.66557777 0.15053385 -0.17108414 -0.002317063 -0.06955108 0.8850976 -0.44875354 0.50728154 -0.29724875 0.45915514 0.084428884 -0.731461 -0.8701166
http://www.semanticweb.org/city/in3067-inm713/2023/restaurants#Location 0.18077533 0.12407062 -0.54400057 0.03871187 -0.6920559 0.4894232 -0.3569913 0.56663305 -0.20328724 0.22590649 -0.7663952 -0.077692226 0.16171788 0.19348758 -0.4089176 -0.18521416 0.28746343 -0.7947924 -0.018708749 -0.6372407 -0.24085201 0.8913444 0.77163273 0.5862479 -0.30044326 0.3128843 -1.0523372 0.39907146 -0.97387797 -0.39981917 -0.8321745 0.03528873 0.71643394 -0.66427386 0.39102292 0.12306802 -0.20140378 -0.5935961 0.2653463 0.31486025 0.31939554 -0.8847985 0.99964845 0.12164134 0.09107816 0.21972632 0.20042177 0.2333611 0.11848633 -0.060184907 -0.4909207 -0.29506934 -0.4429965 -0.17816219 0.20175287 0.13769151 -0.45831594 0.15127224 -0.34290394 0.47114888 -0.8293036 0.091782734 -0.615998 -0.058928255 0.20168133 0.16089863 -0.7322427 -0.35069123 -0.047556352 -0.076064326 0.005071497 0.06740605 0.48110488 -0.5692277 0.21071342 -0.38644654 -0.112392955 -0.46286246 0.040879555 -0.16996306 0.38585308 0.26944035 0.018540384 1.0561035 -0.20707624 0.018730765 0.3634993 0.057454675 -0.45370436 -0.3177739 -0.42522418 0.18058021 0.2503793 -0.9993026 -0.5488907 -0.041458197 0.3512561 0.86753756 -0.110636584 0.038130336
address -0.19075641 0.07460546 -0.19318523 0.013302948 -0.46755126 0.41067582 -0.44893366 0.99664277 -0.45040357 -0.081078365 -0.8492819 -0.03571745 0.03557234 0.20096208 -0.31428656 -0.2995539 0.26446375 -0.9170725 0.16149485 -0.7885725 -0.7818422 1.050999 0.53296864 0.4326895 0.15727946 0.46998966 -1.2305987 0.2851351 -0.77303493 -0.39485684 -1.3469148 -0.25820386 -0.18610822 -0.685669 0.35326284 -0.23911215 0.10939641 0.32432866 0.40410757 0.28134972 0.15154542 -1.2044542 0.6518759 0.12054408 -0.0467497 0.011751394 -0.042677388 0.21245125 0.22562017 0.10613346 -0.33526552 -0.22322442 -0.6757682 -0.12060716 0.120238505 0.07387162 -0.19468409 -0.4229181 -0.093883105 0.43318397 -0.6057583 0.2671912 -0.17346328 -0.19970867 0.1510223 -0.09388228 -0.40922895 -0.25158453 -0.16304776 -0.055586252 0.4370486 -0.3011281 0.47830543 -0.63487345 -0.034756567 -0.20522654 -0.1340121 -0.53384733 0.37089652 -0.46785802 0.42301157 0.061447598 0.2848368 0.65606326 0.044595778 0.15427877 -0.10444981 -0.0851444 0.01602282 -0.57055354 0.12815666 0.037796814 0.35396585 -0.85823876 -0.43282992 -0.29579106 0.81896234 0.45698276 -0.37237537 -0.11800022
japanese -0.07260723 0.23451258 0.037684113 0.07838511 -0.5359136 0.6596367 -0.364306 0.7991853 -0.15949196 -0.16186592 -0.7666525 -0.012746786 0.35981923 0.32263598 -0.056235988 0.036767427 -0.0571209 -0.726009 0.060936294 -0.3622377 -0.50247824 0.87317145 0.34012607 -0.12140136 0.5743012 -0.03630739 -0.35361907 -0.07565886 -0.31851667 -0.45861736 -0.57176816 -0.14478342 -0.33278525 -0.24598691 -0.24110591 0.056849808 0.33465177 0.18252158 0.2799263 0.31022978 0.23308262 -0.3321559 0.53137094 0.16609792 0.08299013 -0.121940315 -0.18477726 0.4751699 0.26960135 1.024222e-05 -0.11762375 -0.4276954 -0.37786067 0.07167039 0.3868473 -0.32543692 0.047421075 -0.17403777 -0.18764582 0.2775948 0.045395512 0.45690694 -0.02943049 0.18258034 0.2634477 -0.27519327 -0.45457438 -0.67392164 0.058342945 -0.09087703 0.17257848 -0.21170524 0.04985706 -0.11011389 0.0643641 -0.17891088 0.17391041 -0.65343785 0.40871844 -0.4044484 0.4963382 -0.22818992 0.17434517 0.04984024 -0.061434634 -0.007042083 -0.6058372 -0.4558666 0.019219229 -0.3886658 -0.032831457 0.008523647 0.7198162 -0.10807904 0.012572385 -0.46848577 0.6655161 0.15793574 -0.4427738 -0.6114767
pubs 0.50653315 -0.84717166 -0.00644658 0.09867749 0.16663189 0.082207166 -0.45628396 0.3047018 -0.47214353 0.07446997 -1.0685738 -0.59098375 -0.08489741 0.66478324 -0.4465894 -0.22207698 0.23124132 -0.5378367 -0.14166425 -0.84099334 -0.72791785 0.59637785 -0.054759007 -0.115453444 0.42114666 0.6656488 -1.3192495 -0.20849556 -1.0550759 -0.26649264 -0.9412737 -0.37107995 -0.5468759 -0.59313476 0.12151372 -0.33815727 -0.41536757 0.18524852 0.59545237 0.36537898 0.032479815 -0.31601313 0.52644694 0.028636534 -0.23329644 -0.11796947 -0.4507871 0.15469025 0.57722163 0.116750896 -0.5940511 0.10787062 -0.8240532 0.124388225 0.40688843 0.27927822 0.11507046 -0.19025324 -0.13687284 0.3494669 -0.25375322 0.7625217 0.028029172 -0.100660786 0.49194115 0.37213197 -0.09700796 -0.38752237 -0.13331945 0.05309011 0.22411984 -0.52982724 0.42847684 -0.4475417 0.35320306 -0.25035596 0.06479266 -0.6870745 0.28812143 -0.8239152 0.44912702 -0.7694321 0.63166463 0.63877195 0.41915306 0.22238621 -0.32407063 0.23174724 0.3467014 -0.033606052 0.65447193 0.3177504 0.9643807 -0.6019554 -0.36494774 -0.47588012 0.9152538 0.22491261 0.031078653 -0.78595424
clubs 0.32579467 -0.82697135 -0.17765038 0.20706 0.22337323 0.03356548 -0.638379 0.46803454 -0.6214025 0.026811555 -0.74030256 -0.36434716 -0.24432608 0.48666695 -0.3179993 -0.2533314 0.25896302 -0.6170239 0.19056273 -0.9295388 -0.7022968 0.7677592 -0.1132895 -0.05772165 0.31082025 0.629598 -1.3024052 -0.19475065 -0.9034257 -0.30876544 -0.99643385 -0.41141665 -0.6305438 -0.34681818 0.042404138 -0.40584815 -0.32814625 0.3602295 0.34481117 0.36377633 -0.13417016 -0.60512966 0.61816704 -0.09832473 -0.2532534 -0.28713924 -0.37323278 0.25365713 0.4968608 0.008101733 -0.5399221 0.03117879 -0.74317676 0.07105446 0.5343872 -0.017433941 0.11841958 -0.3478627 -0.23919888 0.38777143 -0.12910052 0.81443834 -0.006857259 -0.16214423 0.39328083 0.16505037 -0.032943808 -0.42935324 -0.03513095 -0.08390989 0.10944526 -0.7223064 0.39470327 -0.4170517 0.39345044 -0.06917881 0.113577224 -0.5997388 0.3302571 -0.767874 0.61326855 -0.57077813 0.88083297 0.5549481 0.19656302 0.16020976 -0.40239745 0.06599235 0.27074033 -0.014308621 0.45195013 0.1981262 0.8421381 -0.44859466 -0.31596336 -0.69989914 1.0870177 0.20048483 -0.040445182 -0.6141039
sause 0.6100067 -0.5571909 -0.17249216 -0.33254454 -0.5634777 -0.19581532 -0.5154368 0.6962061 -0.7477013 -0.0010404199 -1.5237206 -0.24287514 0.7858261 0.17968309 0.026986923 0.006752249 -0.16235663 -0.258253 0.46628547 -0.40117174 -0.52101576 0.99506754 0.34104717 0.47335923 0.708025 0.42032158 -0.77596194 0.3803735 -0.5237069 -0.48374623 0.25255746 0.38070658 -0.57482165 -0.063611716 -0.42052323 -0.00039790996 0.17251116 0.079706594 -0.02405976 0.9709068 0.21181934 0.12894222 0.7758484 0.14219879 -0.1032517 -0.5506773 0.094579995 0.90180135 0.7489543 -0.6181248 -0.09875186 -1.2551917 -0.87963974 -0.018968591 0.8756508 -0.05693482 0.19516627 0.13967817 -0.26776636 0.19062665 0.52722955 0.5558763 -0.2225341 -0.19508234 -0.058333203 -0.16949539 -0.05622549 -1.1255044 -0.62640274 0.19736364 -0.008015796 -0.06278079 0.29709542 0.051260795 1.2411674 -0.69074386 0.47508797 -0.15243419 0.057819862 -0.6778785 -0.128826 -0.8264623 0.58526266 -0.031481218 -0.36864537 0.0028126403 -0.28049606 -0.3392288 -0.16072889 0.30516508 -0.15384725 0.30067345 0.52287567 -0.39785352 0.30685624 -0.14022368 0.5767229 0.34479287 -0.4248387 -0.7012634
