2446 100
pizza -0.31938058 0.4971559 -0.041741185 -0.38798517 0.043849528 0.12154839 -0.42423344 0.59129333 -0.8051309 -0.45753577 0.06736127 0.5926515 0.48886573 0.42924738 0.44389924 0.2692222 -0.0061532245 -0.33792207 0.27842504 0.23736672 0.0094820475 -0.16915561 -0.19447123 0.3605684 0.09199267 -0.09222379 -0.13762191 0.15418153 -0.19683945 -0.07243647 0.10291424 0.023659384 -0.4014032 0.21398056 0.34229222 -0.28679648 0.61630625 0.26928532 -0.57001096 -0.06005766 -0.3596247 -0.29597738 0.7283892 -0.4239578 -0.36699703 0.37736472 0.27470273 0.41176832 0.74416745 -0.14054674 0.22727604 -0.5888541 -0.15610567 -0.07577563 0.33304676 -0.3603225 0.5472102 -0.34457576 0.14134194 0.27058387 0.66725117 0.08279574 -0.38821563 0.15664417 0.011513674 0.043295063 0.45289242 0.18453631 -0.8629051 0.015242561 0.5459123 -0.5069759 -0.23978521 -0.16429612 0.17687865 0.28110147 -0.39253446 0.026467998 0.11644565 -0.11930551 -0.04373261 -0.1848472 -0.3284641 0.19922261 -0.3002748 0.32003573 -0.68724746 -0.8795001 0.44497776 0.09900848 -0.028833127 0.4555363 0.12608762 0.100451164 0.09314129 -0.021234073 0.23851097 0.15898599 -0.074203104 -0.08485125
subclassof -0.12627369 0.9002512 0.34457415 0.03415896 0.02458081 0.19188146 -0.17276308 0.621934 -0.64356476 0.10484502 0.13070235 0.5303797 0.7408449 -0.18038864 0.12864886 -0.081433326 -0.5115763 -0.45089766 -0.62832415 -0.41259232 -0.1601032 -0.20279397 -0.26680192 0.5162532 -0.114837766 -0.6039971 -0.24966502 -0.07101327 -0.2289743 0.19965695 -0.566082 0.075206846 -0.38926718 -0.5027648 0.07431962 -0.8236698 0.2679167 -1.0867506 -0.63839746 0.4325511 0.35909706 0.004791941 0.2984402 -0.32735884 0.31222764 -0.0715291 0.22293979 0.7518615 0.55991304 -0.52983564 0.3331735 0.06325604 -0.34788942 -0.32040823 0.45390007 0.058976796 0.57235456 0.021619935 -0.19538885 0.5714896 0.5896376 0.03149925 -0.41537124 0.12158285 0.27602786 0.0876657 -0.45270148 -0.2551759 -0.16476741 -0.88583326 0.3162756 -0.6377951 0.46957234 0.3825053 0.12552382 -0.006228789 0.33444512 -0.41896674 -0.12714958 -0.28650233 0.15298755 0.23913449 -0.1757369 0.35560933 -0.12157648 0.15083405 -0.019743672 -0.41976267 0.42106423 -0.10916947 0.7214782 0.1911378 0.84792775 0.31886667 -0.34740013 -0.45972365 0.25241095 0.5353937 -0.14185934 -0.14398578
of -0.32224295 1.0672643 0.22957432 0.26789898 0.008145373 0.051937778 -0.16042952 0.6476687 -0.73082435 0.10096154 -0.011494835 0.44966057 0.6036438 -0.17436767 0.15263334 -0.35303074 -0.7995585 -0.36645973 -0.56495506 -0.25302705 -0.22303529 -0.22747554 -0.27814323 0.49335438 0.03731209 -0.55531013 -0.047535416 -0.087939285 -0.2052517 0.22355412 -0.49114937 0.31108046 -0.5801759 -0.30073076 0.09085036 -0.6353861 0.3944287 -0.94931036 -0.71891993 0.40931576 0.32140458 -0.006722658 0.19647115 -0.32141626 0.33207935 -0.25494704 0.40559414 0.8241871 0.40739703 -0.6974478 0.30049407 -0.04060408 -0.51605743 -0.21747409 0.39852765 0.049180377 0.60723734 -0.19013098 -0.31178954 0.7680289 0.6883536 0.04678911 -0.4240001 0.20571995 0.48835486 -0.022341836 -0.552859 -0.21473919 -0.17226203 -0.8994962 0.27952906 -0.98983085 0.082426324 0.6771629 0.29317218 0.031157652 0.33318245 -0.25406486 -0.23022577 -0.54640186 0.09378387 0.379787 -0.19371748 0.4693693 -0.16474323 0.15043725 -0.13406557 -0.7076747 0.29441875 -0.09370772 0.64973724 -0.03065849 0.7701772 0.36767477 -0.20052601 -0.32441112 0.49091464 0.55953294 -0.087411374 -0.20263702
ingredient -0.37889087 1.068502 0.11414008 0.13411379 -0.06831594 -0.08774524 -0.5567796 0.69591564 -0.80548173 -0.029599335 -0.08728549 0.9141122 0.63028544 -0.037998237 0.2275445 0.098477125 -0.14446932 -0.62594324 0.012732171 0.1578457 -0.17601465 -0.3432244 -0.34728536 1.0047413 0.009667486 -0.4030122 -0.68850875 0.057861265 -0.62765545 -0.02212026 -0.1370747 0.15301335 -0.37875086 0.03509698 -0.03743154 -0.7020851 0.67326266 -0.9466625 -0.9760649 0.64153975 0.0232843 -0.2711086 0.83958155 -0.6822483 0.10653681 -0.47546655 0.2523717 0.9229664 0.5421671 -0.6380088 0.27237296 0.03107571 -0.44116804 -0.5274209 0.7800265 0.10686803 0.41008028 0.17778333 -0.16659687 0.5469216 0.5524061 -0.00030336497 -0.66183484 0.12025441 0.4622586 -0.042190287 -0.4528165 0.11101757 -0.5044708 -0.5079438 0.231672 -0.87918806 0.23765776 0.2401309 0.41656566 -0.5840485 0.2905786 -0.15687819 0.109224446 -0.49581793 -0.383457 0.11888963 -0.35750598 0.6323159 -0.58690995 0.1926615 -0.2610168 -0.8725686 0.58440477 0.110854566 0.48783344 0.022443868 0.45304644 0.5481054 0.011323328 -0.010045676 0.6236309 0.6141174 -0.013676334 -0.41589648
http://www.w3.org/2000/01/rdf-schema#subClassOf -0.22949548 0.7086219 0.41865987 0.5481199 -0.22361097 0.33322132 -0.021945963 0.043786004 -0.47150126 0.077098414 -0.20506634 0.6136237 0.49175864 0.11602782 -0.19423255 -0.30067226 -0.41021746 -0.666771 -0.916138 -0.35246772 0.21904176 0.17392951 -0.41751254 0.72308683 -0.2306644 -0.526992 -0.24549796 0.21471529 -0.3074503 0.341869 -0.64001465 0.65994024 -0.16984619 -0.46672398 -0.19907568 -0.738125 -0.059152 -0.935367 -0.4996823 0.10109617 0.53631043 -0.045129392 0.4469447 -0.26773855 0.31029472 -0.3250544 0.28305733 0.8612811 0.4122478 -0.56281847 0.17726861 0.042372953 -0.12126857 -0.42464942 0.48238832 0.1364759 0.0025887259 0.056421023 0.123858504 0.42614153 0.3689696 0.12657613 -0.17283438 0.117596954 0.44381505 0.105899915 -0.85537165 -0.16101249 -0.007094758 -0.7734679 0.3362811 -0.335882 0.34823737 0.25670817 0.009708216 -0.07990091 0.4450531 -0.11458251 -0.04962642 -0.35845482 -0.2787506 0.4722456 -0.2018693 0.5566264 -0.018504461 0.08964437 0.43162048 -0.47668615 0.10944426 0.270869 0.077156015 0.22996008 0.4878693 0.37454915 -0.078055166 -0.3086242 -0.08105779 0.6975932 0.23933509 -0.39559597
super -0.36678666 0.84433 0.45101672 0.13940269 0.114491224 0.23277014 -0.27526534 0.5580317 -0.62964445 0.1784147 0.10477398 0.46963182 0.82120705 -0.043467212 0.090915196 -0.20020582 -0.41070822 -0.47829822 -0.7758041 -0.3872723 -0.2388207 -0.14634661 -0.5093225 0.49123827 -0.19243254 -0.7085106 -0.11827703 -0.10302483 -0.25021172 0.17613237 -0.49966848 0.1391635 -0.23174629 -0.48376405 0.03419846 -0.6556405 0.1694544 -1.0963638 -0.53621083 0.38349375 0.5133942 0.1400194 0.6238111 -0.32048553 0.3024623 -0.35132787 0.42045677 0.8790276 0.59264284 -0.3017108 0.4273709 0.15536457 -0.3096386 -0.3905487 0.4782846 0.058069002 0.63028175 0.34012654 -0.21743321 0.8126978 0.5596652 -0.06944048 -0.4152082 0.060534075 0.36946347 -0.018654462 -0.6188534 -0.07880751 -0.08077195 -0.76412 0.36733046 -0.8041721 0.2085514 0.21660449 0.057744194 -0.03931476 0.42355916 -0.41842443 -0.040629886 -0.313127 -0.16200139 0.32203555 -0.28531045 0.5573803 -0.2300405 0.24112467 -0.06596632 -0.56393486 0.47123805 0.042163827 0.6713514 0.25649664 0.6355171 0.6609576 -0.5032198 -0.36759657 0.4415747 0.6703454 -0.14171213 -0.22572371
class -0.33790967 0.8715983 0.4711186 0.1476004 0.13557634 0.28437272 -0.29097924 0.5737301 -0.6238677 0.22323273 0.11924663 0.43972057 0.7743968 -0.035713144 0.11027744 -0.24214464 -0.48955005 -0.43821695 -0.7849266 -0.42382154 -0.27365035 -0.14248829 -0.4811399 0.4885654 -0.20544533 -0.74948645 -0.15293835 -0.12315709 -0.2113309 0.14809224 -0.54535 0.09992611 -0.2562339 -0.48179626 0.07222715 -0.6117223 0.17063972 -1.0641731 -0.5052513 0.40780652 0.5285384 0.17561615 0.6150438 -0.3464891 0.27971265 -0.26985297 0.45349613 0.86813253 0.5192498 -0.24791029 0.3921451 0.17081274 -0.37711847 -0.42353967 0.4699232 0.10431415 0.6048514 0.27093536 -0.22807387 0.8409054 0.5878506 -0.05426561 -0.40641516 0.057279203 0.36354208 -0.012102432 -0.5630351 -0.10438171 -0.11290061 -0.78433985 0.29902726 -0.79685646 0.1813377 0.26743296 0.15285778 -0.025522826 0.42535263 -0.41389957 -0.013193221 -0.2840835 -0.08768277 0.3420871 -0.2660769 0.5404491 -0.22758177 0.18003662 -0.025689574 -0.5536686 0.4327889 0.06165495 0.6900939 0.26053205 0.6799506 0.63542324 -0.5165926 -0.36800313 0.41461965 0.6506001 -0.2068845 -0.19373439
type -0.34382066 0.49418175 -0.035493832 -0.30475268 -0.49587366 0.61793023 0.075034015 0.51733685 -0.14862457 0.066940926 -0.29069513 0.1233275 0.32867956 0.11794466 0.4089329 -0.12458367 -0.039433032 -0.42021573 -0.14833093 0.054149125 -0.29571405 0.22459552 -0.28116524 0.19115742 0.09194115 -0.1417145 -0.20644017 0.28463346 0.036682803 0.2364364 0.20447958 -0.01911538 0.38864982 0.036328148 -0.010543586 -0.062362835 0.15719861 -0.30826122 -0.24510606 0.50721127 0.16495806 -0.09320317 0.11321792 0.0921259 0.06209673 0.0036159856 0.023786047 0.2695348 0.4314089 -0.15930276 0.16172686 -0.47807002 -0.10570899 -0.034054454 -0.1636788 0.03948917 0.29954803 -0.26311833 0.040551897 0.29467103 -0.09910412 0.05623074 -0.037968528 0.38091958 0.24239215 0.05175016 0.16556588 0.21240978 -0.6155365 -0.19320203 0.6433618 -0.34520364 -0.55630887 0.14772494 0.009656481 0.2946922 -0.26688316 -0.21648593 0.09736743 0.07752567 0.18009557 -0.004792754 -0.3382678 -0.1511252 -0.25968453 0.31705725 -0.42260844 -0.44551188 0.009073381 -0.3513933 -0.040940672 0.71443945 0.34344023 -0.06876387 0.09363116 -0.25627953 0.32523766 0.24663979 -0.3867505 0.46399906
Type -0.31202674 0.22931819 -0.14522615 0.12164004 -0.5184023 0.54462826 0.30245495 0.14395955 0.10103021 0.29398304 -0.59219146 0.17657991 0.32854554 0.0058826497 0.3173113 -0.20527482 -0.12995133 -0.6250054 -0.15166126 0.023503887 -0.24128069 0.5621072 -0.37479055 0.50894326 -0.12271607 -0.24107076 -0.41385782 0.41631538 0.25328037 0.10071964 0.12624599 0.119382136 0.48282412 -0.22082993 -0.08988331 0.22890748 0.11956079 -0.5535697 -0.39266053 0.53943187 0.20185733 -0.040673807 0.018569332 0.0186366 0.027421463 -0.37017798 -0.08901448 0.051003102 0.4887615 -0.1843946 0.19660853 -0.3150006 0.2518162 -0.09998344 -0.22168002 0.20776232 -0.106795326 -0.19916025 0.059975468 0.33039427 -0.25314867 0.21360686 -0.2680118 0.32967034 0.3637415 0.14013925 0.01694532 0.36643514 -0.48296505 -0.30553716 0.39910203 -0.14165865 -0.60823685 0.06376842 -0.044736773 0.025893766 -0.085566975 0.12721081 0.049304638 -0.029838283 -0.09596682 0.30337143 -0.28035268 -0.08965312 -0.24398167 0.30441055 0.0011081867 -0.31596097 -0.22658831 -0.22217514 -0.41143304 0.73524505 0.23205636 -0.041575547 0.29632413 -0.033213455 0.15968688 0.105069935 -0.38717902 0.46331292
http://www.semanticweb.org/owl2vec#superClassOf -0.3457011 0.6168575 0.38395986 0.6023637 -0.24812226 0.25704315 -0.04589812 -0.07147382 -0.51670086 0.07292361 -0.12886335 0.52222055 0.69045717 0.2870402 -0.053575296 -0.28885108 -0.3483022 -0.7199234 -0.71596944 -0.45656478 0.412788 0.2490428 -0.52265626 0.6694161 -0.24554266 -0.46663615 -0.20474061 0.20246056 -0.24538307 0.37501815 -0.6271264 0.7605761 -0.2885726 -0.4248014 -0.16895618 -0.7043766 -0.15379712 -0.88905984 -0.47653326 0.13278298 0.51785487 -0.053290594 0.48062032 -0.337465 0.2218948 -0.36307472 0.5667771 0.7870056 0.32844162 -0.47998568 0.12170867 0.042901702 -0.0782309 -0.3223249 0.47815314 0.07548737 0.01792731 -0.20415273 0.16025554 0.43436635 0.46193674 0.022982897 -0.1533453 0.26816204 0.61472 0.12687156 -0.8081484 -0.18183215 0.04722447 -0.74339586 0.4516065 -0.35321957 0.27601823 0.31917706 -0.033599604 -0.053823657 0.20573804 -0.07022946 0.065152004 -0.40714037 -0.41150984 0.5487835 -0.20830002 0.5244007 -0.059660345 0.16565743 0.49877453 -0.58238435 0.14042251 0.31768933 0.05063723 0.28898895 0.45490912 0.43844256 -0.038763072 -0.30494145 -0.027165353 0.6681554 0.40329304 -0.5335316
label -0.22050698 0.8700136 0.32107306 0.013136416 0.06076981 0.12065035 -0.04221084 0.57124585 -0.35399854 0.08049347 0.09384764 0.44457328 0.537724 -0.13718241 0.22789676 -0.10955034 -0.53059846 -0.3454691 -0.58537364 -0.35528475 -0.28104654 -0.13880965 -0.39502648 0.46546006 -0.081758656 -0.6713311 -0.14208548 -0.048941206 -0.23066442 0.3913061 -0.5540623 0.10838555 -0.29770297 -0.20738474 0.19705077 -0.5430379 0.322261 -0.96915114 -0.51840293 0.38651618 0.3248715 0.16529663 0.26362893 -0.31301644 0.18347387 -0.10240089 0.39126056 0.85513276 0.4645259 -0.5018259 0.26645172 -0.020606527 -0.42150784 -0.2725005 0.34364027 0.08052376 0.5646677 0.016732879 -0.117026046 0.65808785 0.60705394 0.060860272 -0.3804945 0.23432302 0.36140767 0.013957022 -0.39665806 -0.14626838 -0.13707866 -0.7592562 0.2700193 -0.70098907 0.15342739 0.38193935 0.23251799 0.009460064 0.31474164 -0.3306675 -0.14971623 -0.1989645 0.020153655 0.19733606 -0.17052199 0.32697362 -0.18134937 0.108321816 -0.063504495 -0.4399597 0.34189305 -0.06455271 0.45199153 0.13617977 0.6127982 0.3369689 -0.19680066 -0.39285517 0.36884713 0.5554766 -0.058179773 -0.103691824
restaurant 0.124298304 0.26297414 0.535748 -0.043226413 -0.10714712 0.24565351 -0.13679807 0.7959376 -0.1486053 -0.15354575 0.034768313 -0.08737792 -0.1133124 -0.053289864 0.16990203 -0.08163002 0.029844426 -0.14209805 0.058800563 -0.1804513 -0.53340894 -0.39245957 -0.2656661 0.28037924 0.25730833 -0.22338904 -0.22834137 0.24063373 -0.30011442 -0.3677255 -0.27065587 0.56130403 0.2158692 -0.111200616 0.44515508 -0.6434125 0.487876 -0.5028302 -0.01884905 0.29404628 0.44220877 0.20721656 0.82853824 -0.015782882 -0.41524896 0.46951815 0.27494958 0.6194842 0.57043505 0.28478748 -0.18484592 -0.56233597 -0.08844915 0.18604493 0.15344338 0.16290908 0.104771756 -0.21271509 -0.29809925 0.48933995 0.24151564 -0.41527215 0.16533099 0.33271182 0.47151145 -0.3849278 -0.58564496 0.06789442 -0.19979024 0.07009128 0.55995685 -0.38901645 -0.20561194 -0.14316136 -0.3540333 0.15153608 -0.34483325 -0.54173064 0.45795324 -0.4582759 0.33185193 0.5730473 -0.26409978 0.04409128 -0.45932043 -0.18625098 -0.27803814 -0.09806815 0.5575682 -0.16074888 0.032110337 0.28553322 0.330129 0.18050139 -0.16256309 0.1949586 0.6767945 0.7245133 0.052157506 0.0627858
http://www.w3.org/2000/01/rdf-schema#label -0.22222565 0.58527774 0.36953562 0.39725107 -0.23550142 0.22474238 -0.040031355 0.06466603 -0.33723786 0.14976399 -0.13165665 0.46515077 0.39261362 0.16005331 -0.0023102926 -0.21549287 -0.2692826 -0.67580134 -0.5875603 -0.2821997 0.16387926 0.13383596 -0.43522742 0.6769057 -0.083604656 -0.38436142 -0.2954019 0.16143675 -0.22290297 0.34075817 -0.51820564 0.56385785 -0.11995061 -0.18050589 -0.10993107 -0.5574523 0.03413831 -0.7395248 -0.4673278 0.11319292 0.36402112 -0.061871413 0.26117718 -0.22257584 0.19765638 -0.27993843 0.33098707 0.7756816 0.31694633 -0.49298397 0.08917432 0.01094729 -0.22866832 -0.26534766 0.42420402 0.047800798 -0.026241332 0.037125427 0.121033706 0.29694992 0.3487441 0.07766379 -0.16604239 0.18426839 0.4549422 0.11588403 -0.71701443 -0.15453042 0.093447976 -0.684489 0.33209905 -0.34087962 0.2488 0.17348091 0.035926286 -0.06851864 0.2963522 -0.037423074 -0.13062324 -0.22137704 -0.25270718 0.36147404 -0.26738414 0.42113906 -0.1461939 0.014732598 0.31340367 -0.45355588 0.073087625 0.23563106 -0.04372744 0.23573677 0.30158323 0.23518045 -0.02768795 -0.2744337 0.05036437 0.6440636 0.2646888 -0.30472705
http://www.semanticweb.org/city/in3067-inm713/2023/restaurants/Pizza -0.14327075 0.42821366 0.17853157 -0.0075763646 -0.22785987 0.1883628 -0.051040612 0.29886276 -0.2291625 0.031891443 -0.30103743 0.20951581 0.060634773 0.345324 0.3748879 -0.018888501 -0.009159498 -0.6426632 0.004888355 -0.0066309064 0.06464251 -0.05367959 -0.3514443 0.48745546 0.0650422 -0.1122969 -0.380495 0.10786301 -0.04452473 0.45740306 -0.09014307 0.13470128 0.006852886 0.0813051 0.21648192 0.0017858996 0.41912463 -0.20790263 -0.3759973 0.091460794 0.023174178 -0.095024705 0.14527425 -0.06322372 -0.1678194 0.34786567 0.31233817 0.3795417 0.49112496 -0.2227504 -0.15496652 -0.56700295 -0.07434481 0.03333557 -0.017696029 -0.13075687 0.113087855 -0.2603746 -0.029944493 0.009790247 0.055389736 -0.03421741 -0.2393152 0.08201409 0.24600653 0.12125174 0.032989822 0.046962082 -0.09215243 0.0880466 0.4002174 -0.25278163 -0.18114676 0.102753416 0.046452664 0.15594235 -0.19789673 0.08978305 0.11831743 -0.099707074 0.106385276 -0.08522314 -0.17390199 0.15442863 -0.29236206 0.25339165 -0.0785784 -0.36335292 0.082954496 0.08287066 -0.15952039 0.47019774 0.19022352 -0.29450956 0.18722548 -0.07167229 -0.03862972 0.30682668 -0.033126768 -0.10003357
has -0.030969288 1.0368253 0.0639686 -0.4626045 -0.3640892 -0.16742061 -0.50201666 0.8729263 -0.7569703 -0.087482125 -0.060960487 0.62293804 0.58511496 0.20581247 0.56234396 0.5823187 -0.5418888 -0.46750906 0.25249064 -0.06304716 0.06167879 4.4656364e-05 -0.25719157 0.52622616 -0.1164902 -0.24978359 -0.18920551 0.15199009 -0.56526214 0.18154159 -0.37308684 0.12386912 -0.18439469 0.010422287 -0.3815549 -0.78728485 0.5787392 -0.8534547 -0.78074217 0.7863578 0.2503718 -0.29705647 0.5294501 -0.6831945 -0.34561434 -0.4511448 0.28329 0.7402485 0.7014711 -0.9957959 0.22632572 -0.013625689 -0.5651595 -0.7404961 0.4087837 -0.2612204 0.36814743 -0.048954833 0.08581604 0.57175446 0.56369036 -0.28041756 -0.81981957 0.071833 0.6132697 -0.0858369 -0.40070334 0.25579336 -0.22287002 -0.67060935 0.4498578 -0.9316012 0.30001366 0.3840766 0.5341457 -0.47955734 0.27160943 -0.31156388 0.0052660317 -0.33949956 -0.25410187 -0.07537718 -0.668036 0.5122452 -0.46447524 0.41777623 -0.23324062 -0.95039916 0.35238016 0.1401536 0.24212408 -0.032978818 0.60596853 0.50694346 -0.022140343 -0.06376045 0.66379476 0.9950218 -0.05516931 -0.15010154
is -0.303961 1.182814 0.29475373 -0.17462628 -0.035128526 0.08898952 -0.2918861 0.6384443 -0.5895447 0.02306858 0.024643127 0.6963269 0.7966857 0.20333508 0.26132607 0.4307189 -0.45644844 -0.9833054 -0.25131357 -0.05087136 -0.08528927 -0.21596922 -0.7242606 0.64512503 -0.04045673 -0.7557473 -0.2880066 -0.27273226 -0.5306903 0.28810477 -0.45909038 -0.053894468 -0.20275363 -0.07138435 0.03539497 -0.8611734 0.39771622 -0.964153 -0.48303255 0.3244605 0.056125425 -0.16671263 0.53542674 -0.5988068 -0.3584168 -0.28814277 0.32744572 1.1396322 0.60500157 -0.6336281 0.42386618 0.17670009 -0.5142035 -0.56621903 0.59647536 -0.19317725 0.6453328 0.21757554 0.21712893 0.68268317 0.41448575 -0.19393824 -0.76172787 0.30228838 0.512494 0.065390006 -0.32877144 0.38631272 -0.015456003 -0.49699175 0.24360918 -0.94848824 0.27349728 0.19503139 0.2894315 -0.33939928 0.35319826 -0.14951271 -0.07867632 -0.21003228 -0.5340035 -0.027586807 -0.42288578 0.48270065 -0.418167 0.18049383 -0.24256028 -1.0965084 0.6046543 0.08387439 0.34476656 0.12587057 0.28039578 0.48776156 -0.12680027 -0.19998784 0.7557343 1.0081382 0.084887326 -0.37129623
s -0.38469377 0.7998866 0.38848603 -0.23425235 -0.66941977 1.024779 -0.40871486 0.63311887 -0.64994013 -0.32112277 -0.29651305 0.28645298 0.29259259 0.2199288 0.1641542 -0.17349645 0.19896027 -0.60740703 -0.4887585 0.56954 -0.25965095 -0.49880052 -0.0914689 -0.09656958 0.14764506 0.13520183 -0.103717014 0.48574212 -0.24302082 -0.08631477 0.34568092 0.46874675 -0.29789978 0.480716 0.031194398 0.0781174 -0.14233056 0.08871232 -0.65639013 0.09212252 0.12532158 -0.28050032 0.21495534 0.23982738 -0.2621837 0.0068828654 -0.038055375 0.3200154 0.8843304 0.0077878977 -0.35162437 -1.0664029 -0.30858856 -0.15451764 -0.5008231 -0.1356222 0.4513966 -0.17786527 0.3438721 -0.19849399 0.10470721 0.2694579 -0.46668038 0.24443178 0.18912318 -0.009618363 0.42057484 0.26931483 -0.5748707 -0.07285883 0.63111824 -0.21277413 -0.6075382 0.42856985 0.25368574 0.57861376 -0.34585735 0.011887595 0.44773605 0.08349179 0.4846615 -0.51270807 -0.49567455 0.5600709 -0.25738508 0.5214677 -0.27173278 -0.6006419 0.42093992 -0.06742422 0.020759469 1.0514591 0.48977402 -0.25015882 0.11763754 -0.13438563 -0.14310364 -0.13960268 -0.17839205 0.41693136
food -0.09678356 0.69007534 0.22243837 -0.56645817 -0.09587234 0.2519911 -0.2019073 0.86635894 -0.7696845 -0.21485028 0.17883898 0.57396984 0.30318707 0.4088287 0.52459925 0.5353077 -0.21037371 -0.2842704 0.3425424 -0.24903962 -0.25411803 -0.046337266 -0.071386576 0.6388816 0.09189898 -0.46894637 -0.23515713 0.18637209 -0.51124537 -0.2487577 -0.28108504 0.21271215 0.05944744 0.23227853 0.098984376 -0.34582335 0.66772527 -0.21428092 -0.45344886 0.12588088 -0.040912148 -0.05047159 0.6803002 -0.6727519 -0.40349156 0.14930458 0.32076442 0.38708463 0.33464426 -0.19101012 0.27362388 -0.08650108 -0.22684053 -0.4777859 0.3657349 -0.20232251 0.23910129 -0.19565268 0.2976482 0.42864287 0.28085825 -0.0828381 -0.46710888 0.2584518 0.08085157 -0.041816603 -0.03924123 0.2417635 -0.5851018 -0.22229156 0.22041097 -0.685534 0.18577269 0.23124038 0.44693244 -0.088919654 -0.037573457 -0.12297091 0.42074955 0.041255567 -0.3005802 0.19523504 -0.4700483 0.31358483 -0.7046714 -0.0499008 -0.36402842 -0.76936793 0.5147232 0.24630603 -0.17635487 0.29022074 0.17939267 0.21867111 0.2187244 0.11654571 0.59023327 0.58657634 -0.15310346 -0.16124487
http://www.semanticweb.org/city/in3067-inm713/2023/restaurants#hasIngredient -0.16237327 0.7765205 0.21349241 -0.0481317 -0.65831244 -0.18839526 -0.56080437 0.14546677 -0.59238213 -0.08502934 -0.37140414 0.78880334 0.3378198 0.38753936 0.25418937 0.24145676 -0.1150815 -0.6205153 -0.10427009 0.106999636 0.19923572 0.1999445 -0.3435754 0.81817436 -0.021942066 0.074294515 -0.43628943 0.4332118 -0.62916136 0.30290645 -0.39332083 0.7566281 -0.038536552 0.21383755 -0.5260659 -0.83683443 0.5352745 -0.6533007 -0.78966033 0.40042186 0.24203864 -0.51071906 0.7097759 -0.5788445 -0.11778925 -0.63073385 0.09734159 0.7366304 0.6470214 -1.0750055 -0.024006216 0.104200765 -0.36563894 -0.710295 0.61542606 -0.14765543 -0.33440834 0.15879712 0.44095716 0.25957137 0.5041103 -0.050969698 -0.39678976 -0.063657306 0.57770985 0.06312326 -0.8930429 0.004357158 -0.1807907 -0.75827247 0.29509175 -0.6621927 0.29355323 0.1631743 0.2766235 -0.52309436 0.3519025 0.06932571 -0.009584516 -0.28783178 -0.5180841 -0.1039961 -0.6633972 0.7866683 -0.30643266 0.17293341 0.0064879293 -0.9378858 -0.010148349 0.49661863 -0.5703209 0.057466403 0.32318625 0.46157792 0.082477614 -0.03141227 0.233632 0.8705107 0.22073244 -0.3151272
http://www.semanticweb.org/city/in3067-inm713/2023/restaurants#isIngredientOf -0.30984205 0.80157554 0.28363776 0.24045762 -0.45941988 0.012862596 -0.069733664 0.08987003 -0.5660544 0.03451627 -0.35462925 0.8912366 0.52159166 0.27896526 0.15738288 0.1518801 -0.27852032 -1.0696537 -0.24879631 -0.0046458542 0.2167678 0.07070492 -0.6295822 1.0553218 0.029464727 -0.4082744 -0.40454248 0.17055899 -0.5514838 0.46554288 -0.45493358 0.59839225 -0.24621497 0.17643426 -0.16579676 -0.8761022 0.45084137 -0.78298753 -0.68444085 0.18739867 -0.0025777721 -0.35814387 0.53283423 -0.6072865 -0.2615967 -0.50144374 0.22245224 1.0746294 0.3290555 -0.91660666 0.18014619 -0.03466601 -0.35821205 -0.5062647 0.67713946 -0.033705678 0.014680804 -0.10480054 0.3743336 0.19835299 0.3754063 0.3194969 -0.49545836 0.32580867 0.59189683 0.15285115 -0.590292 -0.0003393292 0.04065226 -0.5055906 0.33283776 -0.51531863 0.2803213 0.21393709 0.25727782 -0.3532997 0.34366828 0.2275497 -0.05372498 -0.254804 -0.6968291 0.16643648 -0.22578746 0.4541459 -0.37863412 -0.027527586 0.39173886 -0.88726157 0.30507886 0.35128388 -0.29791826 0.36261502 0.028405428 0.31721717 0.24990202 -0.21014945 0.35057265 0.9599224 0.3688791 -0.5683274
vegetable 0.003234995 0.66154474 0.4575703 0.19827734 0.14702746 -0.021912614 0.09424979 0.2807352 -0.2949648 -0.26476535 -0.21593705 0.5605655 0.79826754 0.41298905 0.014756374 -0.37440103 -0.4801065 -0.78151417 -0.6844843 -0.34513304 -0.23176973 -0.1498992 -0.33643883 1.1305996 -0.5803456 -0.33840877 -0.4910026 0.5101207 -0.2303772 0.21413957 -0.3316401 -0.14603128 -0.48147514 -0.45927516 0.63386226 -0.24896525 0.15035634 -1.1255815 -0.105746694 0.17410085 -0.06845066 0.32454827 0.50023425 -0.66543883 0.19133097 0.08410152 0.32050467 0.90718776 0.5963023 -0.13100521 0.21983159 -0.13672908 -0.55757123 0.09645004 0.7382114 0.090455286 0.6211668 0.20366576 -0.18686919 0.7469649 0.53668964 0.037647083 -0.7166487 0.3409022 0.45988646 -0.03529984 0.033364777 0.22756149 -0.41336733 -0.69951326 -0.1707957 -0.33389917 0.032259025 0.23836565 0.048139505 -0.6225883 0.027604776 -0.2595401 -0.34697285 -0.47269285 0.022678427 -0.35066655 -0.37836784 0.40442666 -0.40280384 0.35416606 0.045331452 -1.0665246 -0.02463972 -0.15103447 0.2867263 -0.07913523 0.27811643 0.011114537 -0.31311092 -0.061133087 0.3924094 0.66972446 0.058650073 -0.20519786
meat -0.095685974 0.75654644 0.1829382 0.1385321 0.29356155 -0.004592315 -0.0018594228 0.37563443 -0.72209144 0.05375841 -0.17026374 0.41580737 0.63592803 0.30992523 0.2037807 -0.43082199 -0.23789874 -0.69813746 -0.115173265 0.32440847 0.09268308 -0.052324314 -0.16771565 0.39636174 0.10398584 -0.2466042 -0.3594024 -0.053591378 -0.32323557 -0.24686584 0.36184338 0.16717826 -0.39994836 -0.21025684 0.0028547181 -0.18420345 0.2126153 -0.43953896 -0.34940144 0.06498781 -0.05056819 -0.14275932 0.85078746 -0.2254302 -0.22709505 -0.053722825 0.29598838 0.6862058 0.48595843 -0.07839056 0.14735556 -0.15472892 0.16709088 -0.16532408 0.37380368 -0.42836386 0.19644707 -0.15814917 0.0718835 0.25492772 0.43935043 -0.094930835 -0.3364497 0.13887765 0.48452753 0.1439058 -0.06445415 0.10753892 -0.18131682 -0.124419264 -0.022782112 -0.8210584 0.020177267 0.14826941 -0.12889391 0.22163333 -0.18477234 0.046835657 0.29487696 -0.51140046 0.038154863 0.05102576 -0.0688723 0.61139727 -0.28791863 0.25911227 -0.41340107 -1.0756431 0.08631714 -0.032282166 0.18815346 0.3888422 0.20708324 0.06509996 -0.13874823 -0.02610854 0.3247663 0.3789145 -0.1412502 -0.41251194
sauce -0.38571483 0.66416216 -0.6558042 -0.11975989 -0.31647754 0.39195892 -0.34987247 0.6080064 -0.89941 -0.38762882 -0.43979087 0.44690606 0.9560175 -0.055438474 -0.13918841 -0.09154877 -0.3106104 -0.45510346 -0.23010264 0.088339046 0.22738536 0.13092582 -0.6766955 0.8458938 -0.19156983 -0.10524049 -0.2736488 0.26292405 -0.45109245 0.07464863 -0.112372465 -0.1676485 0.047775775 -0.5435887 -0.08034964 -0.056267485 0.499777 -0.3663094 -0.6378051 0.5094764 -0.27096683 -0.32430935 0.9614038 -0.8510967 -0.5228328 -0.022956 0.16372229 0.63716805 0.42012507 -0.63519704 0.3756999 -0.38166136 -0.70025426 -0.34817418 0.29587668 0.02834829 0.8076366 0.1507049 -0.1957564 0.792513 -0.20682015 0.4758916 -0.8152804 0.0895764 0.044957373 -0.27835757 0.08635474 0.49144065 -0.49530953 0.15807267 0.1882325 -1.0311719 -0.23696159 0.38676795 0.15510829 -0.3539323 0.089041516 -0.00024490315 0.11627734 -0.5492034 -0.5646871 -0.66361713 -0.33045775 0.32706305 -0.6413512 0.5417504 0.1042073 -1.197514 0.36792615 0.32024574 -0.40914062 -0.043912213 0.32314062 0.28459743 0.14406537 0.2779085 0.40256423 0.51454866 -0.31449917 -0.06142578
http://www.semanticweb.org/city/in3067-inm713/2023/restaurants#Ingredient -0.30318677 0.73240846 0.17354861 0.43016756 -0.3273158 -0.13542533 -0.047953025 0.089166574 -0.60583013 0.065414414 -0.39222226 0.63904005 0.7202427 0.21075733 0.020783417 -0.18161735 -0.35261726 -1.0381151 -0.32933787 0.14670874 0.090478554 0.14466514 -0.49865255 0.92205817 -0.16870669 -0.36684343 -0.49099794 0.32262656 -0.4116569 -0.056771398 -0.26808944 0.6267167 -0.3128393 -0.03647904 -0.18131554 -0.5422744 0.30832887 -0.6879048 -0.5025736 0.10894741 0.09317132 -0.31458986 0.63566345 -0.40818214 -0.29762647 -0.612832 0.14617416 1.0418055 0.4337648 -0.6224479 0.11601771 -0.18211503 -0.1058986 -0.33010417 0.6677393 -0.037054054 0.026222212 -0.005851677 0.2994938 0.21033454 0.28866065 0.09964988 -0.3605413 -0.057647012 0.6664617 0.0066130646 -0.42193398 -0.0053492216 -0.0617299 -0.36618057 0.08796199 -0.43440816 0.09897741 0.14527535 0.18196829 -0.33241937 0.25151774 0.14954282 0.2173444 -0.44035217 -0.672881 -0.025900364 -0.046721786 0.48446864 -0.5655747 0.120153904 0.37547684 -0.99347013 0.25612876 0.38589838 -0.4254039 0.23177166 0.041906703 0.31223485 -0.010412017 -0.11357126 0.39049268 0.7932112 0.28328776 -0.4355642
and -0.2980977 0.47064477 0.30638102 -0.20640677 -0.025948806 0.40262753 -0.33106157 0.20194218 -0.68243796 -0.36553574 0.293972 -0.302047 0.5651915 -0.017456902 -0.06906514 0.15116225 -0.092395745 -0.126632 -0.013389819 -0.50009817 -0.34847 0.16173999 -0.2551601 0.72170955 -0.070192076 0.041458525 -0.44736582 -0.30941254 0.21206748 -0.22439826 -0.9608797 0.3885903 -0.37681007 -0.10120067 -0.17694713 -0.29775193 0.65768516 0.06641496 -0.07510618 -0.22532476 0.2626745 -0.7481963 -0.25935638 -0.36785328 -0.28425565 0.55565655 0.119397394 0.4100745 0.6432404 -0.7289891 0.35124445 0.22053634 -0.46833366 -0.33991304 0.9034672 -0.35135064 0.445677 0.37618145 0.15092124 -0.07929273 0.56449866 -0.29647022 -0.13044682 0.3938535 -0.120896354 0.027390206 -0.5920449 0.31334805 -0.8019975 -0.41999674 0.59340376 -0.8310256 -0.2000063 -0.20163375 -0.23335086 0.06328221 0.090158455 0.018724991 -0.42650464 -0.4530454 0.029734537 0.10969248 -0.8103119 -0.022217058 -0.34544203 -0.6959718 -0.31006968 -0.9595613 0.21696939 -0.35417235 -0.46916583 -0.2402432 0.7153115 0.1611224 -0.2798464 -0.11754507 0.4813911 0.7334646 -0.8325113 0.43256032
cheese -0.28072444 0.29146922 -0.15124644 0.05676858 -0.35106367 0.20650548 -0.20935954 0.4683088 -0.5445088 -0.039741345 -0.40039152 0.27753878 0.390886 0.25061172 0.1028707 0.0057652784 0.00044912915 -0.6001884 -0.049662285 0.52005476 0.052350383 -0.24344759 -0.46744984 0.5381781 0.13380888 -0.018055905 -0.45086613 0.044356555 -0.33533055 -0.043755613 0.35475647 0.034975845 0.040529188 -0.107634336 0.21907726 -0.077019565 0.42633113 0.20139706 -0.2546095 0.12584634 -0.34106234 -0.10905788 0.6302075 0.031023724 -0.46419692 0.14352553 0.013737843 0.646456 0.61519045 -0.2651548 -0.0038161646 -0.75122267 -0.43576086 -0.22712445 0.45645678 -0.122924596 0.6545949 0.2282574 -0.2825607 0.03288081 0.024469249 0.006443562 -0.21180181 0.0017435903 0.2681088 -0.12856792 0.24680167 0.39280054 -0.18605764 0.32361764 0.56497675 -0.6012051 -0.29548988 -0.014246834 -0.0034389356 0.06269645 -0.06932151 0.06252328 0.39653775 -0.59279907 -0.51694196 -0.26896882 0.034135196 0.15728742 -0.6143094 0.27765846 -0.37542254 -0.91438454 0.35219154 -0.02519611 -0.051394302 -0.022889458 0.18062988 -0.06891419 -0.065688804 -0.122152075 0.46417913 0.44050205 0.18839681 -0.15057102
SubClassOf -0.122523 0.27068323 0.2183972 0.523899 -0.4607259 0.10499134 -0.119492 -0.092439175 -0.25883147 -0.028629601 -0.13606864 0.4051466 0.37289652 0.044500854 -0.120288596 -0.011103023 -0.036493205 -0.717851 -0.36012194 -0.34983993 0.54387677 0.14438136 -0.5075578 0.8589585 -0.039929736 -0.073446415 -0.27108184 0.08783543 -0.20852748 0.43213776 -0.7467147 0.58075666 -0.14674538 -0.41137794 -0.28132167 -0.9008619 0.12567659 -0.8960227 -0.59501123 0.30530405 0.37457594 -0.1401229 -0.036394756 -0.27101153 0.44396845 -0.18335588 0.24893096 0.661613 0.604295 -0.912906 0.034671016 0.059186682 -0.15775762 -0.22657555 0.6247642 0.05621153 -0.0747933 -0.07354714 0.099847995 0.35835752 0.34464616 -0.028934183 -0.19101097 0.18773825 0.5924777 0.2627964 -0.8675172 -0.21176864 -0.15501487 -0.8057737 0.5468867 -0.40660876 0.51585066 0.20129149 -0.08302701 -0.2247087 0.116124175 -0.11903769 -0.40113372 -0.35833108 -0.13852942 0.21883596 -0.51830375 0.3808316 0.10623 0.03442063 0.3224812 -0.28150102 0.101068676 0.16589287 0.19081344 0.19603989 0.4833444 0.13249545 0.004239444 -0.3849011 0.021060929 0.5844345 0.18634257 -0.20994025
vegan -0.28299534 0.9223222 -0.059621293 0.19749008 -0.40404096 0.26431984 -0.19612806 0.55993605 -0.5753357 0.24008535 -0.46110055 0.31306192 0.98953575 -0.11592775 0.12635358 -0.18458857 -0.32970124 -0.36406916 -0.35735652 -0.3238535 0.034703333 0.1055472 -0.31880373 0.5071854 -0.036549065 -0.4257577 -0.46606752 -0.097792365 -0.25402117 -0.03779558 -0.27501035 0.020175453 -0.1275313 -0.6818988 -0.041422706 -0.49946362 0.13699456 -0.45711318 -0.31919295 0.52102405 0.163983 -0.20259406 0.62011266 -0.24013524 -0.17049393 0.002793411 0.23765136 0.64486945 0.42831594 -0.21339579 0.14825247 -0.42360756 -0.3510031 -0.38594463 0.3853686 0.18451352 0.8071919 0.01312008 -0.24859524 0.50003934 0.061271437 -0.042204365 -0.28635472 -0.04786999 0.26841 -0.13396142 -0.17080341 0.15636839 -0.09614899 -0.22032727 0.54971856 -0.71673685 -0.029913891 0.5248622 0.120404385 -0.005638806 0.15541892 -0.08155945 0.49502233 -0.8814166 -0.70788676 0.18175861 -0.032584764 0.24185649 -0.45911866 0.33064297 -0.11399142 -1.1348522 0.22116329 -0.010071822 0.4018446 -0.11446626 0.6943229 0.4873232 -0.19476308 -0.07110068 0.4488189 0.54544276 0.14270423 -0.22166213
http://www.semanticweb.org/city/in3067-inm713/2023/restaurants#Food -0.007362649 0.7392664 0.45503744 -0.2935822 -0.5602687 0.14992312 -0.13224871 0.2795853 -0.8059353 -0.12596968 -0.12459208 0.9367073 0.3323649 0.6324958 0.3836867 0.29430857 -0.098205894 -0.6223165 0.052517332 -0.027982399 0.169924 0.11194995 -0.2235512 0.9632475 0.067451015 -0.19256842 -0.37250137 0.47185302 -0.60033953 -0.13525599 -0.2601398 0.66085476 -0.04226407 0.24973288 -0.37146583 -0.68558955 0.5318407 -0.38612792 -0.4554544 0.1852361 0.013104085 -0.27263004 0.882643 -0.75853616 -0.47097304 -0.22242688 0.21132907 0.48729914 0.21716402 -0.5841084 -0.018441556 0.007146329 -0.20433478 -0.70175165 0.66863483 -0.27953637 -0.24868935 -0.13809143 0.61528796 0.12683167 0.1621883 0.25602427 -0.36303374 0.20508069 0.24516791 0.013566252 -0.49538976 0.010380061 -0.20423262 -0.49304247 0.23688036 -0.46688944 0.4738062 0.27213007 0.30094415 -0.13697185 0.09052223 0.20823964 0.5935727 -0.050556067 -0.66705793 0.25287035 -0.48122457 0.5770162 -0.64119196 -0.17788944 0.18009305 -1.1280122 0.2031117 0.40610123 -0.67698634 0.5476753 0.007915522 0.34180257 0.19475326 0.073568836 0.3602623 0.9505253 0.3188617 -0.51935667
category -0.10679166 0.30058604 0.5566665 -0.0063946215 -0.12647578 0.52147543 -0.1272913 0.45758232 -0.23225473 -0.14453223 -0.2395819 -0.17340541 -0.18846378 0.11928317 0.110204875 -0.08569248 0.0555853 -0.2773272 0.065576196 -0.52785045 -0.34864932 0.05933788 -0.2477843 0.41103798 -0.068148054 -0.123104475 -0.31206733 0.23405078 -0.08231089 -0.065255165 -0.5667312 0.6535527 0.058563102 -0.09766973 0.48371825 -0.2518275 0.5484814 0.0056357807 -0.25407088 -0.034006204 0.3552428 0.18450497 0.35022452 -0.051570125 -0.15922472 0.44820192 0.33243722 0.35742855 0.54608774 0.10459346 -0.37990633 -0.40695858 0.08798468 0.055927757 0.12839952 -0.014291889 -0.15147327 -0.22924265 0.0892618 0.28088915 0.32583818 -0.41312313 0.1992829 0.105379626 0.30647555 -0.061517626 -0.5017602 -0.19638708 -0.4498087 -0.051540766 0.37825415 -0.52879995 -0.04294794 0.046877727 -0.2545807 0.13071762 -0.2286787 -0.09727655 0.08477646 -0.0025029462 0.3773689 0.061051894 -0.5330117 0.320316 -0.1852259 0.006322837 -0.1168768 -0.10162354 0.13289443 0.100685105 -0.34345 0.2591603 0.3413034 -0.2607063 0.1350873 0.17614028 0.052891836 0.21998972 -0.42557755 0.1629082
http://www.semanticweb.org/city/in3067-inm713/2023/restaurants/Restaurant -0.08316215 0.21877192 0.13549864 0.17394762 -0.29018277 0.25060678 0.06696577 0.1897811 -0.1560939 0.048417028 -0.3357349 0.0135701485 -0.0318046 0.26206815 0.24044673 -0.17127061 0.03694983 -0.68759173 -0.011875552 -0.011095496 0.05511796 0.042510964 -0.37132245 0.4767021 0.019104943 -0.024971861 -0.39158815 0.23624101 0.05906316 0.24807316 -0.11399664 0.34395933 0.013449484 0.0072645396 0.23034605 -0.029128892 0.41440952 -0.20162228 -0.26462522 0.03716545 0.05695374 -0.055868145 0.15006417 -0.016218374 -0.22447842 0.4196965 0.32392666 0.36371452 0.4761317 -0.24783494 -0.2768843 -0.71789855 -0.056931645 0.13453789 0.12068963 -0.10473308 0.0003641158 -0.29173476 0.001158623 0.03496435 0.08301238 -0.08576391 -0.052879885 0.15545477 0.3441817 0.091778316 -0.10333373 0.016819725 -0.17481807 0.051488698 0.3810272 -0.16029936 -0.2260833 0.097474866 -0.10537623 0.16055372 -0.36200005 0.0703309 0.03433313 -0.10184002 0.18303308 -0.05514696 -0.21210581 0.00765748 -0.292451 0.07499975 0.06999796 -0.21925765 0.022385394 0.067012645 -0.37442473 0.4668853 0.17216241 -0.38548142 0.16553394 -0.051224884 0.011822306 0.27454063 -0.034527518 0.018707406
tomato -0.27296427 0.56551754 -0.6756003 -0.3003488 0.15235998 0.2904818 0.076011226 0.8494343 -0.574176 -0.30057487 -0.4236245 0.64425594 0.2852529 0.15647855 -0.20157903 -0.06446627 -0.0818847 -0.28125694 -0.5673825 0.30622742 -0.08844174 0.49916065 -0.025135895 0.96552575 0.040346526 0.30526087 -0.40762714 0.32474184 -0.6397696 0.23063184 -0.3085647 -0.18933918 0.10869598 -0.48349842 0.22798762 -0.7317256 0.7362688 -0.21250337 -0.56956685 0.26105118 -0.24606608 -0.42847288 0.9991199 -0.21394986 -0.097880654 0.15211809 -0.18646541 0.87545514 1.0778226 -0.5826119 0.21982533 -0.2535735 -0.33512992 -0.14469033 0.20602877 0.117453724 0.90390384 0.41554365 -0.16865821 0.5261479 -0.2948084 0.611514 -0.55100125 -0.11929864 0.28352773 -0.2071069 -0.097112596 0.13608031 0.07098385 -0.14540093 0.4594733 -0.5966369 -0.083925195 0.032044668 0.1291095 0.08414596 0.13784128 -0.31836447 -0.059532307 -0.7893476 -0.64783466 -0.6326059 -0.18098569 0.40248084 -0.5691104 0.96431637 -0.23893996 -1.0886343 0.16676731 0.250056 -0.3670713 0.13641876 0.44315106 -0.009541578 0.08120477 -0.43139058 0.6598711 0.530914 0.05112544 -0.2619419
by 0.077251814 0.9220838 0.8583585 -0.4982741 -0.16323003 0.22083554 -0.12269525 0.525781 -0.9321801 -0.44485214 0.10404056 0.60829794 0.88832146 0.74880826 0.48689225 0.05506666 -0.5406438 -0.4636175 0.023037206 -0.33784953 0.088467225 -0.3241994 -0.0014835175 0.70555097 0.0040102103 0.048691627 -0.11174232 0.32850775 -0.16542576 0.110037416 0.0753014 0.118055455 -0.28839743 -0.4099947 0.26994202 -0.63969046 0.04739646 0.16236636 0.055823404 -0.07799486 -0.24273714 -0.12723485 1.0068684 -0.8701971 -0.2462807 0.42074844 0.42523128 0.47868294 0.20053042 -0.000644936 0.31330326 -0.12127616 -0.33696562 -0.43958944 0.5228227 -0.34861156 0.3076995 -0.5326083 0.49914005 0.33507884 0.48958346 -0.20539723 -0.21102312 0.5696898 0.33990198 -0.084350616 0.18002558 0.09279886 -0.5686172 -0.43801865 0.17956734 -0.71905947 0.28725642 0.09252379 0.09814908 0.20578349 -0.20444171 -0.35630965 0.71739686 -0.20832048 -0.29242277 0.14632744 -0.41992933 0.57446307 -0.21779115 0.3177997 -0.61075395 -1.7162963 -0.17111038 -0.030600177 -0.09918921 0.32216582 0.2741699 0.12448469 -0.2953501 0.1126659 0.0110859405 0.8557421 0.1783764 -0.16783123
http://www.semanticweb.org/city/in3067-inm713/2023/restaurants#Pizza 0.07480135 0.5534138 0.5641747 -0.30052313 -0.52781105 0.08509813 -0.43396148 0.1360266 -0.8227372 -0.0646011 -0.17467673 0.6038859 0.50674415 0.50054955 0.23914874 0.23281974 0.0031344234 -0.27216092 -0.041343346 -0.2807919 0.058563605 0.19024839 0.046457496 0.93044007 -0.16007508 0.056914147 -0.46039912 0.52477956 -0.5659831 -0.14197299 -0.28815842 0.79785365 0.0034370439 0.13526206 -0.31794238 -0.6433113 0.34287596 -0.3883767 -0.45360783 0.4565201 0.23080015 -0.20941335 0.91878915 -0.70699817 -0.34335652 -0.03853151 0.29136902 0.4347864 0.24905622 -0.40002385 -0.06482672 0.15714781 -0.24780749 -0.67508876 0.76599663 -0.06957988 -0.3937071 -0.050489243 0.5184498 0.31591454 0.49267706 0.031468604 -0.29626757 0.26162717 0.09858765 0.026663518 -0.60687476 -0.16960616 -0.42780486 -0.67251223 0.25058448 -0.44173035 0.38399786 0.23389882 0.3421061 -0.28954986 0.19512135 0.00091074273 0.47942019 -0.062193885 -0.35685188 0.22086038 -0.63040155 0.7076996 -0.35574412 -0.16880384 0.12176859 -1.0443323 -0.04782604 0.47292933 -0.6451393 0.368708 0.32510877 0.30712444 0.0027897726 0.19290313 0.10213923 0.7161101 -0.027074413 -0.23338401
http://www.semanticweb.org/city/in3067-inm713/2023/restaurants#Vegetable 0.027259858 0.557915 0.44355989 0.49448282 -0.22405995 0.040687013 0.20580652 -0.007781603 -0.19443232 -0.11254574 -0.5097229 0.5959161 0.58842725 0.3392884 -0.040049817 -0.42260796 -0.35496628 -0.9667399 -0.88745034 -0.16795236 -0.007858655 0.028023522 -0.3369853 1.0496321 -0.41928524 -0.16154005 -0.5233006 0.71319616 -0.03637544 0.12097722 -0.33664572 0.4594878 -0.33052093 -0.33928978 0.28647363 -0.3466333 0.034313675 -0.7499083 -0.12679036 0.005396165 0.08731418 0.13126066 0.36520627 -0.6067213 0.119067304 -0.13256744 0.25075772 0.8672281 0.49044162 -0.30588746 -0.019934965 -0.30669966 -0.22559308 0.08864286 0.73361254 0.18736006 0.058351815 -0.06564934 0.20577785 0.4624826 0.17708275 0.07970809 -0.28652373 0.1212955 0.5747287 0.07987188 -0.22285277 -0.17169212 -0.17088848 -0.66963416 -0.22552152 0.09987242 0.14616986 0.29803902 -0.029924862 -0.5285385 0.059936173 -0.0067798584 -0.23849557 -0.24517888 -0.1684079 -0.32161865 -0.2030298 0.3772224 -0.28101763 0.1394524 0.28398916 -0.96393603 -0.17967407 0.2860691 -0.42357427 0.25843897 -0.027468981 -0.04211536 0.055076264 -0.10319905 0.058097176 0.50293887 0.34566435 -0.309735
http://www.semanticweb.org/city/in3067-inm713/2023/restaurants#Restaurant 0.25598922 0.34240526 0.3832169 0.2754063 -0.5953381 0.4526877 0.40437514 0.40929687 -0.54281396 -0.03649344 -0.10717438 0.04580849 -0.24096406 0.011296169 0.049758185 -0.3526752 -0.31106913 -0.3333191 -0.32661498 -0.18286334 -0.07271725 0.26978958 0.010343474 0.61835116 -0.14460342 -0.3704034 -0.52456367 0.5153994 -0.3902245 -0.7344296 -0.8746791 1.0091195 0.04986048 -0.24987629 -0.11216881 -0.6955943 0.1718296 -0.77335507 -0.025452191 0.27683905 0.6923926 0.11647198 0.5343102 0.013640826 -0.56800157 0.23631944 0.11532639 0.8129522 0.48774603 -0.08861367 -0.4271021 -0.45622087 0.12152733 -0.0054229596 0.5262411 0.08198982 -0.36409414 -0.4260068 -0.12521817 0.48763496 0.092724726 -0.26837286 0.246934 0.29793155 0.8534385 -0.02075601 -0.91197675 -0.4788521 -0.28197896 -0.5216662 0.47125998 0.092772014 0.30092695 -0.014901818 -0.2756542 0.28779724 -0.3297298 -0.17887484 0.42977896 -0.3388794 0.206591 0.48062122 -0.3354825 0.1089026 -0.48182088 -0.49219656 0.5743751 -0.10768632 0.50180477 0.19441696 -0.62379205 0.52807 0.40275145 -0.0012592315 -0.14784864 -0.056692567 0.31560853 0.66118467 0.12638223 -0.025627011
state 0.14456588 0.055232838 -0.19048151 0.3069639 -0.4154815 0.04145172 0.058674093 0.42134818 -0.1890637 0.11649529 -0.5378619 -0.17200947 0.12999997 -0.071905956 0.10077989 -0.38249317 0.052272305 -0.4611931 0.13677543 -0.21080802 0.24560784 0.11313613 -0.17678303 0.6634186 0.15969907 0.28201008 -0.580377 0.29588538 -0.16068223 0.18866107 -0.33065292 0.19237523 0.020356249 -0.49876323 0.32427877 -0.41030973 0.32949582 -0.31649396 -0.27508146 0.4178389 0.008349427 0.02967033 0.35016942 -0.23358794 -0.119568385 0.56202286 0.18027915 0.33934206 0.49802426 -0.043742772 -0.3617881 -0.71693456 -0.45689198 0.18959379 0.14850266 -0.030518323 0.3671062 -0.2563543 -0.27536085 0.29434133 -0.009953001 0.015739163 0.16351563 0.3306703 0.6341988 0.07147746 -0.1724256 -0.20987448 -0.25375962 -0.022659628 0.52294046 -0.36412117 -0.0037034913 0.0021780976 -0.2485795 0.18802229 -0.69510394 -0.34528896 0.098469175 -0.2469355 0.034600236 -0.23925385 -0.28221443 0.03598725 -0.23718765 0.15215011 0.21337359 -0.23522498 0.035507876 -0.169897 -0.012174259 0.44683805 0.25658786 -0.5345551 -0.23414947 -0.00049401296 0.2637062 0.20521519 -0.023610778 0.2603567
seafood -0.13034827 0.5999866 0.1760248 0.16338463 0.15695602 0.027432254 -0.030892083 0.3648748 -0.43329862 -0.065378465 -0.20728272 0.45353523 0.43789914 0.02433359 0.060568664 -0.0940418 -0.1686498 -0.25668877 -0.06802375 -0.1846605 0.041147806 -0.06649548 0.04875195 0.21376975 0.04523745 -0.22493055 -0.3198784 0.01724482 -0.47260654 -0.237297 -0.2230451 0.49034145 -0.16391386 -0.2410828 -0.09887504 -0.7946589 0.15770814 -0.5927222 -0.12816021 0.18757571 0.17546982 -0.12701167 0.650116 -0.45313075 -0.01755996 0.01278261 0.16848771 0.45391104 0.702045 -0.28346086 0.092948414 -0.19162239 0.20385529 -0.49837857 0.44050735 -0.39493355 0.31915855 -0.30732656 0.21061265 0.5172207 0.16683614 -0.1934528 -0.19104555 0.23368262 0.575767 -0.056607485 -0.3281459 0.04019594 -0.48794258 -0.5462012 0.1875796 -1.0794474 0.032278437 0.24987455 -0.21749213 0.301528 -0.15151376 -0.083066195 0.29485145 -0.41383386 -0.07358808 0.26747236 -0.35341358 0.6770788 -0.048324067 0.12843916 -0.4423775 -0.9626462 0.21491304 -0.11429336 0.24666224 0.062330104 0.43300992 0.2641254 -0.10703047 -0.12696248 0.6491067 0.17753077 -0.27421895 -0.05585362
chicken -0.16975343 0.852998 -0.1309662 -0.3757076 0.08697042 0.5115885 -0.47426006 0.7340602 -1.01382 -0.056141116 -0.1436304 0.11208649 0.34534907 0.032136105 0.13675971 -0.14910156 -0.047378264 -0.25167695 0.15802543 0.40314654 -0.12263215 -0.15288931 0.022857454 0.12458068 0.04457184 0.01230452 -0.3816893 0.05471162 -0.3373932 -0.5411588 0.22188888 -0.02241067 -0.13281713 0.22894154 -0.099747576 0.127178 0.54911554 0.37277856 -0.4912759 0.06447494 -0.1422207 -0.5890534 0.78427017 -0.1373463 -0.8702087 0.33339083 0.03929534 0.35109025 0.7774791 -0.101106666 -0.011602986 -0.6058474 -0.18404564 -0.22598282 0.20578355 -0.32809713 0.4896243 -0.21606182 0.040761344 -0.020351317 0.35458562 -0.14691944 -0.41943872 -0.11994071 0.0021583468 -0.15464872 0.24972694 0.40498284 -0.59321845 0.40460935 0.16840595 -0.8254563 -0.38637984 0.31213877 0.06318453 0.22709692 -0.02594127 0.123183355 0.41474417 -0.6632236 0.25504833 -0.49778455 -0.647708 0.40797666 -0.84270185 0.24816208 -0.6171726 -1.2275943 0.31389415 0.2409664 -0.2055493 0.23621136 0.47338238 -0.10767272 0.09900684 0.17036992 0.53244096 0.15742145 -0.39358488 0.05221217
& -0.105014324 0.8288904 0.4320789 -0.39427704 0.098250635 1.2260897 0.030745046 0.6419622 -0.7149956 0.07155755 -0.3892437 0.47092128 -0.2311407 0.39524916 0.41682133 -0.68763614 -0.48473698 -0.56437266 -0.7897052 -0.18417655 0.09439883 0.28980008 -0.21355966 0.413772 -0.34115532 0.013609783 -0.31858298 -0.18533766 0.2814001 0.33326465 0.017866502 0.11465467 0.39301017 0.022115372 -0.1415416 0.23428135 0.31930995 0.22107267 -0.20926729 -0.1798713 0.3648877 -0.4901643 0.72359836 0.45926693 -0.38434303 0.24895106 -0.39331746 0.39057243 0.95157725 -0.37967703 0.062399108 -0.50149834 0.025592003 -0.37211803 0.4146988 0.17105079 0.23656794 0.2820572 -0.3950009 -0.10517663 0.43901953 -0.07756699 -0.016576344 0.1578758 0.10697357 0.18093158 0.02345935 0.18904558 -0.27575117 0.00068678195 0.4295364 0.21640961 -0.47321153 -0.48452568 -0.5142804 0.30295038 0.3380634 0.06617949 0.088260226 -0.19134292 0.15084748 -0.09082796 -0.23842321 0.17838873 -0.102504775 0.05032182 -0.26366436 -0.8424451 0.12656707 -0.088621154 -0.010859032 0.54188776 0.135856 -0.2257111 -0.044196945 -0.25877017 -0.362028 0.7556349 -0.2472792 0.4410675
pepper 0.009565329 1.1229104 -0.22351393 0.30102286 -0.14068474 0.44950616 0.19743966 0.8661114 -0.582145 -0.096582174 -0.40389952 0.4875069 0.6859145 0.01979217 -0.0614732 -0.580325 -0.5992779 -1.258205 -0.67323625 0.49726042 -0.13613306 -0.38061774 -0.20844561 0.59715337 -0.21072267 -0.63197106 -0.48766875 0.2902333 -0.12948638 -0.37486613 -0.17761074 0.49829635 -0.30991387 -0.63868266 -0.04535606 -0.8252171 0.5637055 -0.69359887 -0.35698274 -0.08831814 -0.20035659 0.19866697 0.5728612 -0.6035006 -0.31854913 -0.3877829 0.026770817 0.6824349 0.808842 -0.4371104 -0.14323746 -0.67422664 0.24717136 0.34991068 0.30574298 -0.21364978 0.561178 -0.014610477 -0.18006174 0.72673994 -0.36761242 -0.6512901 -0.1683011 -0.088911854 1.2570053 0.028903432 -0.12743984 -0.022274368 0.029226903 -0.69140404 -0.08455712 -0.34912053 0.546283 0.78413314 -0.39129934 -0.38697404 0.016514894 -0.05548815 -0.13034683 -0.3343457 0.04610162 -0.441742 -0.35958505 0.483593 -0.5173807 0.47072735 -0.27348384 -0.8581314 0.42665336 0.39692596 0.1502412 -0.026712477 0.036099475 -0.06488187 0.24833682 0.087744005 0.8379056 0.2410939 0.66255504 -0.37550187
http://www.semanticweb.org/city/in3067-inm713/2023/restaurants/Category -0.056048155 0.24269852 0.27338678 0.07585622 -0.28448662 0.26322067 -0.018889962 0.16789913 -0.09222465 -0.026858615 -0.36083958 -0.14164239 -0.13977177 0.29075238 0.213795 -0.011029226 -0.0077055055 -0.49643254 0.0069942786 -0.2792932 -0.1571113 0.09561742 -0.27147722 0.44563785 -0.035069745 -0.22691159 -0.3236605 0.23015605 -0.0263228 0.12005237 -0.4335472 0.59844327 0.017797234 0.023069443 0.3884243 -0.0628263 0.5426481 -0.24612138 -0.28498322 0.020891434 0.2636762 0.15652059 0.11769271 -0.06027499 -0.21085425 0.4212428 0.38891175 0.416285 0.4917512 -0.1424528 -0.29343417 -0.5255355 0.0926512 0.114064485 0.086852096 -0.05012241 -0.1731552 -0.33924815 0.057374507 0.29402718 0.23751338 -0.29437235 0.026704147 0.12355903 0.26883534 0.16123286 -0.33723098 -0.18653722 -0.34358555 -0.04190256 0.316363 -0.3032332 -0.1109339 0.13296276 -0.046161894 0.06853489 -0.24832718 0.11972446 -0.030664483 0.056057997 0.21187183 -0.010679465 -0.34559855 0.12755233 -0.20095262 -0.064129524 0.015828155 -0.11626609 0.081238374 0.17106593 -0.43695524 0.35887513 0.20660302 -0.3352876 0.2046944 0.13236229 -0.0052814507 0.17115943 -0.18788482 -0.027019348
item 0.2379999 0.9336726 -0.32221326 -0.15198007 -0.3504702 0.33396703 0.24980628 1.1238171 -0.94047177 0.08902226 -0.24976927 0.32383743 0.083421245 0.080263056 0.50602967 0.1772398 -0.3069439 -0.29789492 0.28743315 -0.40733835 -0.18697977 0.20044519 0.137405 0.47778693 0.22926039 -0.7264005 -0.34587425 0.057050787 -0.7760395 -0.8604336 -1.1058357 0.6658519 0.09697144 -0.5288123 -0.6068796 -0.93463755 0.80742955 -0.9144202 -0.03662382 -0.013336833 0.32493424 -0.2886824 0.9303835 -0.5119886 -0.40456522 0.0030523716 -0.16291739 0.21226928 0.9384745 -0.39046606 -0.032501176 -0.341562 0.20617679 -0.48258033 0.36804724 -0.32862535 0.30128294 -0.40452594 -0.028637672 0.35900906 0.04808067 -0.26263618 -0.26435205 0.034716506 0.7607646 0.42828098 -0.78990537 0.35842335 -0.5886153 -0.338459 0.676307 -0.93261075 0.53991026 0.42807686 -0.34950408 0.5710355 -0.5398254 -0.33703467 0.6429819 -0.38070554 -0.38781336 0.5585287 -0.5192878 0.22038382 -1.1227707 0.125171 0.11782278 -0.39943203 0.8140388 -0.02928671 0.035001926 0.42440125 0.44903865 0.16225453 0.17986795 0.28599948 0.9011061 0.7114271 -0.24483767 -0.27898294
some -0.16612263 0.96586096 -0.23077743 -0.07320276 -0.57789767 -0.16897774 -0.061112903 0.42555884 -0.350374 0.099749096 -0.13163161 0.50014114 0.38712126 -0.28394097 0.27567422 0.17415242 -0.003676845 -0.6170515 0.3626247 -0.51464534 0.21670423 0.065364696 -0.37487233 0.6906414 0.251874 -0.3943768 -0.104313396 -0.17138326 -0.908577 0.5349862 -1.3197362 0.114283316 0.0039841137 0.0780027 -0.22184813 -1.0280033 0.78071314 -1.0785339 -0.63319856 0.43217197 -0.0007219693 -0.40027508 0.04469737 -0.6981411 -0.2080815 -0.08095163 -0.29878166 0.5876999 0.37487933 -0.73009384 0.258142 0.2998362 -0.6070587 -0.21793817 0.5590823 -0.07994742 0.4541331 -0.16257937 0.22573443 0.7478229 0.21942104 0.41400918 -0.28652772 0.28720626 0.49611068 0.61243856 -0.9770546 -0.4816346 0.06671627 -0.94510424 0.62218106 -1.1541119 0.5485766 0.5242683 -0.043963123 0.20472111 0.033127483 -0.5155974 -0.35950536 0.38545915 -0.23359175 -0.10815218 -0.5229624 0.38119045 -0.44686076 -0.08744146 0.06746199 -0.70972514 0.18842106 0.06747226 -0.12513332 0.2814245 0.20575994 -0.064436935 -0.32346454 -0.24109934 0.58213884 0.48880625 -0.14982933 0.31047848
pizzeria -0.6081021 0.7054756 0.3439079 0.11009561 -0.42800224 1.283464 -0.48994896 0.69121903 -0.87729 0.33345234 -0.45686615 0.50119054 0.014018013 0.26030684 0.42291164 -0.42073455 -0.27454594 -0.958191 0.011022975 -0.48518112 0.28320813 0.576525 -0.030237889 0.29472145 -0.29307988 0.054046392 -0.7161187 0.35124433 -0.009851012 0.36925676 -0.037543155 -0.21368049 0.48235658 -0.31355035 0.14027824 -0.053718824 0.44875467 0.4374589 -0.6463179 0.14043228 0.21229357 -0.3957764 0.4715211 0.45660418 -0.34147862 0.37646425 -0.25600573 0.25806713 0.61007965 0.16993843 0.12648393 -0.47078308 -0.1697392 -0.18248811 0.12315438 -0.2965003 0.43235505 -0.72575605 -0.30819923 -0.07415755 -0.15626746 -0.24083376 -0.013295675 0.070952766 0.3341737 -0.4303977 0.20859611 0.5638123 -0.13387074 0.045889657 0.7294157 -0.12921204 -0.116198026 -0.11415658 0.15783179 0.22438352 0.04118734 -0.1971962 0.7409797 -0.1690616 0.18999857 -0.061592754 -0.096800685 0.016775478 -0.5033095 0.23121257 -0.06721597 -0.57427317 0.56278396 -0.21282731 0.15147024 0.3104108 0.94829714 -0.43193337 -0.1042718 -0.39710772 0.10616964 0.3223603 -0.42558926 0.19627199
fruit 0.12972191 0.49927354 0.4255443 0.0112273395 -0.024987899 -0.11293941 -0.35375234 0.4613883 -0.79007673 -0.2536069 -0.1184968 0.37357312 0.6233582 0.438883 0.30909422 -0.15966992 -0.24634817 -0.37554777 -0.5235075 -0.2234492 0.12242823 -0.25175962 0.2277635 0.8100388 -0.048604835 -0.12594354 -0.27058062 0.12648651 -0.3592121 -0.3512617 -0.51143265 0.20216535 -0.18730882 -0.28704947 -0.20023578 -0.43417326 0.31610623 -0.5446063 -0.11107627 0.087472506 -0.026990276 -0.04525026 0.742119 -0.8958734 0.23217204 0.10070837 0.210805 0.3912151 0.65110284 -0.35135636 0.19821934 -0.13832828 -0.2397206 -0.067230485 0.7906975 -0.3526752 0.15262024 0.22288358 0.14115904 0.731256 0.45584765 0.048026666 -0.5868812 0.096032314 0.51516557 0.39499652 -0.3517653 -0.05332125 -0.4307502 -0.99448514 0.15202062 -0.92908937 0.16424352 0.42775488 -0.033093728 0.21031651 0.017713366 -0.2273992 -0.16287674 -0.57284915 -0.10671018 0.16478704 -0.8038317 0.6786566 -0.5540411 0.32059348 -0.62003434 -1.5773526 -0.12046051 0.270472 -0.038458545 0.085273296 0.19262856 0.22145505 -0.25667337 -0.028859025 0.38162065 0.15008311 -0.19287987 -0.039750382
barbecue -0.11234377 1.2748703 -0.2226472 0.25304925 -0.29226026 0.15381207 -0.40306762 0.5297633 -0.6183184 0.11614757 -0.7010062 0.03966031 1.338704 0.06939614 -0.00016542609 -0.17648932 -0.18649063 -0.41104972 -0.05453574 -0.03700808 -0.061024114 0.36380032 -0.18261208 0.5445215 -0.2282352 -0.4062476 -0.8398387 -0.08454218 -0.17473292 -0.28230852 -0.22066993 -0.017907517 -0.17705065 -0.68541 -0.22931495 -0.10808348 0.5383078 -0.55209273 -0.5709333 0.68973315 0.2628383 -0.59024405 1.1994048 -0.8930967 -0.5464222 0.018589854 0.61853594 0.43319055 0.43939167 -0.20671721 0.16884798 -0.010992416 -0.18641396 -0.4118437 0.08400123 -0.1476017 0.35205206 0.04965963 0.012710741 0.5845364 0.25430787 -0.014866939 -0.7238887 -0.11511376 -0.045253616 0.04467141 -0.27283973 0.050469264 -0.24928162 -0.18105213 0.021690374 -0.943546 -0.420425 0.79189986 0.3906535 -0.25758058 0.14538096 0.16159026 0.5772903 -1.0422205 -0.6008525 -0.23000686 -0.38513884 0.36617044 -0.6089284 0.47173157 -0.021776587 -1.6387041 -0.18156888 0.344416 -0.4880026 -0.011792532 0.9067252 0.5055534 -0.10824139 0.47336423 0.08469381 0.29615623 -0.40875924 -0.5234788
style 0.15954839 0.117536075 0.7695617 -0.006081274 0.17471352 0.13172679 -0.46825725 0.5998689 -0.5330957 -0.3512896 -0.3582362 0.89427406 0.55485207 0.5511868 0.14745617 -0.058187377 0.1076197 -0.04133095 -0.1880194 -0.4572272 -0.12658702 0.0535767 0.3491409 0.32255647 -0.036786485 -0.02976747 -0.89090455 0.78222716 -0.6350455 -0.20681885 0.30929554 0.47549033 0.1018107 -0.24977672 0.49490395 -0.58730096 0.13758737 -0.19344506 -0.2933172 0.19488122 0.027129857 0.12821174 1.1624571 -0.5975528 -0.13227293 0.2572423 0.25377387 0.1763233 0.6859033 0.394639 -0.13964537 -0.4691185 0.18462113 0.034176264 0.19461495 -0.30489066 0.17198692 -0.40493625 0.09095441 0.2650517 0.5398827 0.06564321 -0.35253045 0.12255941 0.19222414 -0.49815357 0.21986341 -0.19181307 -0.70096534 -0.6648892 0.047422945 -0.20073637 -0.14592427 0.087441 -0.19352992 -0.15632759 -0.2620371 -0.20283127 0.30829033 -0.4859946 0.40291232 0.24849738 -0.38287494 0.7614402 -0.07229925 0.32957092 -0.5674498 -1.1839619 0.042600308 -0.043236215 -0.119387016 0.5602159 0.43550348 0.035994403 0.0024197928 -0.18286923 0.14180344 -0.004640569 -0.18651491 -0.05616434
location 0.16578916 0.47458008 -0.44605187 0.510397 -0.59936535 0.38629678 0.31458637 0.7951288 -0.57825214 0.26441005 -0.898757 0.018674796 0.3992997 -0.21712206 0.05452906 -0.7814056 -0.18406767 -0.52329654 -0.13364835 -0.3771566 0.17757954 0.5078271 0.057845745 1.0786924 0.0070144986 -0.04347218 -0.9364331 0.5023506 -0.4392198 -0.07358807 -0.92027813 0.2847122 -0.0700106 -1.15839 0.2772018 -0.8887549 0.15172808 -0.7559331 -0.1971316 0.81000787 0.34806007 -0.0052701146 0.61344296 -0.3615215 -0.040020943 0.48360416 0.22568192 0.68662643 0.6209643 -0.031223081 -0.21699457 -0.62546486 -0.64516485 -0.20118803 0.437053 0.14088657 0.8450295 -0.46112272 -0.5153519 0.9652804 -0.06522508 0.041787617 0.3545368 0.47379774 1.0949836 0.0011812963 -0.39027753 -0.4283017 -0.4665371 -0.4723572 0.60421646 -0.42234427 0.18247491 0.26326105 -0.47338152 0.27063087 -0.7714242 -0.7318545 0.30787602 -0.37313065 -0.2793905 -0.038003564 -0.28335062 0.12438395 -0.42391002 0.17729239 0.5247797 -0.6645064 0.13441463 -0.39852896 0.34153506 0.42794266 0.4779005 -0.3964365 -0.49398515 -0.24040477 0.8310515 0.40371317 0.14365098 0.48676956
menu 0.100296915 0.94169134 -0.13033985 0.14999588 -0.27297807 0.19531156 -0.052873805 1.0808553 -0.66562676 0.07605447 0.2069534 0.22972547 -0.050391626 0.0143179 0.38249147 -0.4125381 -0.5098866 -0.35253096 0.26971948 -0.18207206 0.27255836 0.301107 -0.07520307 0.5356103 -0.14893575 -0.7177269 -0.33301017 0.07488549 -0.8558486 -0.6657663 -1.0148495 0.5953278 0.20160376 -0.1795127 -0.45118448 -0.6635226 0.7756338 -0.5564739 -0.30086255 0.1027571 0.5574447 -0.2254248 1.0357622 -0.078357264 -0.5977934 0.17436923 -0.09482589 0.50237936 0.6432627 -0.42550862 -0.14185484 -0.52268696 0.17955151 -0.5249867 0.39442226 -0.40620786 0.1710375 -0.13109607 0.09647118 0.7239259 0.10335018 -0.091384895 0.1533796 -0.23768853 0.8408761 -0.022074595 -0.8139156 0.016437393 -0.54641014 -0.1893661 0.6694071 -0.9572307 0.4084508 0.6599049 -0.055485472 0.56259686 -0.21376392 -0.48732692 0.7532959 -0.57358277 -0.14566265 0.51249206 -0.46064976 0.38807988 -1.0811939 -0.24715209 0.23651858 -0.49288884 0.88092643 0.27967045 0.18388541 0.2286963 0.67090845 0.42046714 -0.09055834 -0.1710356 1.0690062 0.67101836 0.14389127 -0.09851971
mushroom -0.13064815 0.271091 0.109921165 -0.09983465 0.18685213 0.08524352 -0.18678372 0.518694 -0.45323598 -0.058539454 -0.2658044 -0.2623871 0.81056386 0.38712764 0.35174218 0.0124978945 -0.06165793 -0.69090426 0.1590742 0.24768133 -0.07616969 -0.19271126 0.017804964 0.3686821 0.17418751 -0.22669685 -0.39767396 -0.2864044 -0.13922998 -0.44777521 0.15701719 -0.14212388 -0.39668563 -0.33287913 -0.05934529 0.040600136 0.692783 -0.43573865 -0.33188546 0.11536844 -0.1935959 -0.10324072 0.5951384 -0.40086275 -0.23959202 -0.052139036 0.24089828 0.2569664 0.38015392 0.15764505 0.3345904 -0.45255515 0.050056312 0.24157801 0.24268085 -0.17519362 0.4187713 0.095673114 0.09860758 0.50440305 0.31877443 -0.2229161 -0.27114326 0.108160436 0.42486608 0.32415232 -0.09769726 -0.28166944 -0.4251534 -0.11965728 0.30288586 -1.0086377 -0.33105397 0.5205765 -0.19306724 -0.1137727 -0.47932655 -0.031471755 0.025252182 -0.6299776 -0.11862925 -0.26658705 -1.1631529 0.47422078 -0.55761176 0.2759337 -0.43659917 -1.3823282 -0.41789597 0.25217688 -0.072045304 0.11963837 0.20422363 0.12291051 -0.055460103 -0.06268392 0.36137906 0.05065229 -0.15777335 -0.29947242
in 0.124114774 0.5755517 -0.3207293 0.2391677 -0.70074844 0.4328352 0.24112232 1.0656029 -0.48052198 0.10865702 -0.2523782 0.18670982 0.2646588 -0.41922948 0.116295196 -0.34527627 -0.3165986 -0.2903908 0.6318548 -0.5434153 0.23419525 0.3498555 0.0354647 0.80591065 -0.25608552 0.08805004 -0.5461508 0.21865548 -0.38276592 -0.10229197 -0.90202355 0.18288381 0.19386733 -0.6745226 0.1441563 -0.95967233 0.39985538 -0.51558244 -0.54617524 0.97147256 0.2759716 -0.39120862 0.552765 -0.23520868 0.0012006232 0.33725852 0.04305994 0.64071774 0.6427301 -0.20689833 -0.3926742 -0.25327837 -0.44459024 -0.2489864 0.47385117 0.33957005 0.62223655 -0.5708712 -0.38122192 0.8469354 -0.032879356 -0.36369145 0.079162024 0.52836347 0.75994027 -0.2123608 -0.50391126 -0.11870533 -0.5772646 -0.5435364 0.71589303 -0.5957116 0.3944807 0.12985294 -0.23896533 0.13567173 -0.5656976 -0.74380887 0.13009772 -0.21490262 0.33176368 0.46058834 -0.33261114 0.30611822 -0.2835985 0.01321951 0.6634997 -0.2962757 0.73703486 -0.28820553 0.38986248 0.74187535 0.6857898 -0.44779825 -0.32700107 -0.08730605 1.0224968 0.89299864 0.009193887 0.6145322
http://www.semanticweb.org/city/in3067-inm713/2023/restaurants#Meat -0.088175625 0.62716115 0.25325906 0.38839874 -0.20093915 0.028413882 0.22141512 0.06584385 -0.60663295 0.11266419 -0.48903716 0.3577066 0.42161733 0.31141022 0.05187961 -0.52879715 -0.26847938 -0.99230105 -0.40624413 0.32408533 0.073973715 0.25802895 -0.29933792 0.67098206 -0.020993555 -0.20676437 -0.39041406 0.3020738 -0.35916272 -0.2420403 0.049229022 0.44795528 -0.22297834 -0.19695695 -0.2438457 -0.16971017 0.153347 -0.43872067 -0.24416874 -0.008191265 0.0101978965 -0.16861612 0.64268637 0.0028875591 -0.44117802 -0.46661356 0.055792153 0.84805614 0.32826525 -0.31503302 -0.10882962 -0.18300341 0.09444207 -0.1759069 0.52628875 -0.2250267 -0.17471872 -0.095173955 0.2591774 0.11735845 0.1769742 -0.049334344 -0.15305632 -0.03208207 0.64554626 0.09947259 -0.30213183 0.011302481 0.10409806 -0.17727384 -0.13394165 -0.4465778 0.06538303 0.17249145 -0.09356249 -0.13975857 -0.009745993 0.29708335 0.18772769 -0.45706746 -0.3507435 -0.06974709 -0.030165099 0.5498042 -0.3769516 0.08491009 0.12709175 -0.9449472 0.014312694 0.11603367 -0.33447674 0.45730728 -0.13111664 0.05502541 0.040321957 -0.045106795 0.3145702 0.6457854 0.24057193 -0.3319203
bar -0.14387195 0.5768128 0.19995095 -0.029671963 0.13346358 1.1444792 -0.2429314 0.40450713 -0.93549937 -0.034918994 -0.1539922 -0.23298049 -0.105411045 0.17346887 -0.28384688 -0.69107187 -0.14208847 -0.54376566 -0.66346437 -0.2705458 -0.62682253 0.46291503 0.25876915 0.5688498 -0.096988276 0.056951676 -0.46875083 0.0019647812 -0.07617118 -0.67486143 -0.38386518 0.8104878 0.11219462 -0.19670682 0.29363382 -0.16184218 0.42753345 0.03425786 0.034370515 -0.08188544 0.34048936 -0.13932244 0.8781362 0.22176026 -0.6103197 0.45395902 -0.06141292 0.6924816 0.7200602 0.2900947 -0.15530705 -0.30746442 -0.35992813 -0.07712656 0.87846214 0.19010977 0.46961245 0.4813399 -0.3603894 0.4861613 0.42250594 -0.4034649 0.30381492 0.39474863 0.15182829 -0.24983166 -0.7184752 0.07069419 -0.28661352 -0.45378652 0.1833236 -0.20499533 -0.4042537 -0.3365407 -0.40987983 0.2252157 0.067850225 -0.32611415 -0.20620677 -0.25376457 0.20595756 -0.025589416 -0.7425683 0.23278819 -0.47854498 0.012504803 -0.40036902 -0.6009162 0.053713888 0.18384457 -0.5797163 -0.32946292 0.5046802 -0.09468283 -0.46610484 -0.117035486 0.5753126 0.23095831 -0.3937619 0.7386792
pepperoni -0.06424603 0.81428796 -0.11162786 -0.034679204 -0.18079215 0.08701665 0.24523509 0.72569865 -0.5810803 0.36725903 -0.60391766 -0.019774236 0.23003185 0.17872931 -0.015400913 -0.5486781 -0.11364654 -1.1914057 0.41894677 0.57875943 0.08364213 0.22305296 -0.53104764 0.28439727 0.071982145 -0.09970451 -0.20863797 -0.37080586 -0.4983875 -0.26794007 0.59180063 -0.31982246 -0.04898184 -0.22222544 -0.08254081 0.09179867 0.59606886 -0.37241197 -0.3713229 0.031630564 -0.25141817 -0.34176776 0.81188756 0.29276967 -0.9157956 -0.0777511 -0.12300207 0.39882708 0.53130376 -0.19871792 -0.09194646 -0.3225603 0.31635553 0.1817652 0.31692266 -0.6509239 0.15170643 -0.047798943 -0.029203603 0.39620078 0.079204544 -0.60187286 0.064290136 -0.24323268 0.29265758 0.089920685 -0.2041753 0.25106594 -0.0925065 0.35100532 0.117910974 -1.0154649 -0.09995507 0.16927528 -0.5873079 0.071105026 -0.5174652 0.31337056 0.11456255 -0.5698625 0.027679702 -0.6409226 -0.6224289 0.52959526 -0.63124895 0.2286792 -0.7283632 -0.96755284 0.03195112 -0.20131603 -0.0010034741 0.20874736 -0.24640405 -0.36909348 -0.056069188 -0.03371905 0.95556766 0.3787179 0.13844629 -0.11399149
vegetarian -0.16567422 0.75734526 0.22274609 0.042135883 -0.23226005 0.324253 -0.4113381 0.5474806 -0.6980134 0.052413918 -0.2923949 0.4641872 0.7906811 0.11685231 0.06876425 -0.03298288 -0.12470266 -0.10882944 -0.13252185 -0.42093953 -0.099838175 0.0053488966 0.010009665 0.32036906 0.07378728 -0.27151933 -0.34331486 0.026136354 -0.5213886 -0.33404732 -0.4094927 0.3702977 -0.18452662 -0.44357383 -0.07917305 -0.73780346 0.14252034 -0.12450744 -0.17830259 0.20622164 0.18411598 -0.40956876 0.86825156 -0.30958796 -0.17292 0.18628795 0.04637235 0.36263323 0.5404356 -0.020038882 0.052852057 -0.36989766 -0.02554296 -0.46861678 0.4296381 0.015022541 0.43362346 -0.110585526 0.07774816 0.28985897 0.3171649 -0.17031474 -0.0067976746 -0.17863554 0.13493776 -0.09288175 -0.33114547 -0.041245744 -0.31282058 -0.3372533 0.52990353 -0.7396086 0.05565082 0.27742827 -0.10431831 0.2783282 0.07059793 -0.23866971 0.6317974 -0.7014737 -0.40715432 0.4409712 -0.21970324 0.4826012 -0.39142612 0.28431675 -0.41564023 -1.1027467 0.13303342 0.06955792 0.18037328 -0.096926585 0.63233995 0.45567623 -0.19399914 -0.05066834 0.30861098 0.44750625 0.025594503 -0.045054104
altlabel -0.18258473 0.96153563 0.31598225 0.018904747 0.023315841 0.0794665 -0.06702695 0.50020987 -0.5336115 0.23088272 -0.041195348 -0.0037485925 0.9287292 0.05468621 0.27513245 -0.101718485 -0.49672028 -0.61569476 -0.1964839 -0.19489436 -0.37922767 -0.15355366 -0.59794474 0.5237914 -0.22914802 -0.7262029 -0.3096477 -0.26516902 0.10135202 0.0670887 -0.0006102828 -0.054380424 -0.4168521 -0.33160478 0.24960357 -0.020816632 0.46659377 -0.68226266 -0.7267096 0.40383682 0.32788238 0.095055304 0.47292304 -0.1919283 -0.11237394 0.037079487 0.61886966 0.79116327 0.2575191 -0.24626127 0.42594004 -0.092110716 -0.11266237 -0.27737835 0.1434122 0.07222834 0.3310052 -0.025995983 0.004089607 0.555077 0.6309983 -0.19997756 -0.34675726 0.0041303043 -0.0850859 0.16204882 -0.12131805 -0.16030952 -0.34262216 -0.14865516 0.14194757 -0.83181477 -0.013810816 0.52078366 0.33598363 -0.1809931 0.21664299 0.095992476 0.20012192 -0.44139943 -0.1394539 0.007356415 -0.18418781 0.17919487 -0.25040117 -0.035662275 -0.007445153 -0.7499935 0.18525495 -0.0098104905 0.18912612 0.31729168 0.5421205 0.22906135 -0.2280565 0.0026493545 0.018124763 0.5431108 -0.32405612 -0.44014603
margherita -0.24914072 0.4546945 -0.4927094 -0.11756993 0.017475748 0.26684484 -0.05300322 0.64891857 -0.61676973 -0.29377818 -0.21891584 0.5073305 0.25765523 0.06839018 0.036524236 -0.04219307 -0.046794094 -0.2922024 -0.015869537 0.25831378 0.25438714 0.080917135 -0.28499708 0.6993811 -0.057917453 0.14563774 -0.27899244 0.0048410473 -0.37518677 -0.04668711 -0.13265769 -0.08635431 0.18608882 -0.16175745 -0.16701245 -0.28380436 0.6897976 0.044821125 -0.32549018 -0.08135992 -0.22947319 -0.4910108 0.88162297 -0.4579627 -0.36443934 -0.032808274 -0.12655494 0.39170587 0.897713 -0.5720641 0.21385197 -0.41360962 -0.20472412 -0.2494521 0.25406218 -0.28459284 0.6303704 0.37889698 -0.119476795 0.054799154 -0.24740924 0.2759877 -0.516638 -0.1764853 0.35721737 -0.14940383 -0.048226405 0.49748448 -0.21396966 0.21720855 0.47050667 -0.787791 -0.23953737 -0.12501757 -0.18078963 0.25982302 -0.030837242 -0.14552996 0.21151574 -0.69004995 -0.38333008 -0.30796897 -0.20667261 0.36152038 -0.747539 0.5547645 -0.19779418 -0.95563287 0.26402277 0.24391882 -0.3271309 0.13357183 0.15958251 0.14931679 0.16223383 -0.061129585 0.6546189 0.60285825 -0.17728257 -0.0718294
pineapple -0.07590486 0.62473345 0.23588778 -0.030528896 -0.20011225 -0.15467158 -0.44568476 0.6110955 -0.919596 -0.33706728 -0.15291525 0.6957253 0.6808475 0.54514676 0.33691302 0.10695957 -0.17288455 -0.32834637 -0.14945714 0.028700545 0.1900721 -0.119148135 0.16982993 0.6771934 0.07166256 -0.074743465 -0.32623172 0.19417427 -0.63760453 -0.35159743 -0.37595072 0.279236 -0.22980091 -0.118004136 -0.37157992 -0.58598006 0.4696674 -0.50261563 -0.30942643 0.18857537 -0.027663188 -0.26445106 0.89900273 -1.0338143 0.054282755 -0.21318103 0.21209627 0.4146575 0.74023616 -0.50505316 0.15999939 -0.15229587 -0.293199 -0.29469684 0.71766585 -0.46618122 0.3018003 0.13560183 0.23468037 0.5272923 0.4086227 0.116880745 -0.6613299 0.03610773 0.5967563 0.14525749 -0.26191503 0.08842597 -0.42798436 -0.84162825 0.27875745 -1.0324777 0.102123685 0.35619554 0.13691224 0.04291906 0.03169293 -0.20798896 0.038403254 -0.65090185 -0.32327265 0.21246538 -0.7262525 0.7636323 -0.59219974 0.40636927 -0.5125726 -1.6587703 0.065285884 0.25639737 -0.09396579 0.18797897 0.26440606 0.35524854 -0.11358535 -0.038792107 0.43995315 0.41336048 -0.058628585 -0.13318926
http://www.semanticweb.org/city/in3067-inm713/2023/restaurants#Cheese -0.16162045 0.34590137 -0.06428205 0.2479586 -0.47613963 0.097373076 -0.006277454 0.15555991 -0.46654546 -0.012508494 -0.54333115 0.5217768 0.366161 0.12727498 0.018345028 -0.1863162 -0.1524573 -0.7043796 -0.30401275 0.2173429 0.051278006 0.21176738 -0.35708904 0.81425875 0.053058393 -0.10200402 -0.36539587 0.33959115 -0.3781461 0.022336317 -0.14195205 0.40355834 -0.02152646 -0.14829504 -0.13513185 -0.4691071 0.3147089 -0.2279038 -0.31319115 0.077116795 -0.06976782 -0.3669706 0.49457872 -0.20064381 -0.33302963 -0.34926197 -0.17274405 0.8012591 0.51656353 -0.6183 -0.013127454 -0.33929992 -0.27124304 -0.3236043 0.51395655 0.03133161 0.10481189 0.09196269 0.10718194 0.1541525 -0.039995104 0.25665945 -0.1775957 -0.04726639 0.4947805 -0.08901506 -0.2608708 0.03509547 -0.03003316 -0.21764532 0.25426623 -0.41313055 -0.026429664 -0.022959683 0.025828639 -0.081930384 0.24646127 0.090487875 0.12942296 -0.38573706 -0.583332 -0.14206491 0.040613025 0.3254705 -0.519317 0.089903116 0.23315041 -0.85647553 0.21997878 0.20271856 -0.57203686 0.19893996 0.05301421 0.14251894 0.023389485 -0.23224117 0.3775407 0.695504 0.2380234 -0.16443308
sausage -0.10878795 1.0101041 0.029512206 0.19582173 0.06263691 -0.11822396 -0.034331746 0.7523864 -0.9941246 0.06155373 -0.34101638 0.32509667 0.59051806 0.1396447 0.02107282 -0.3357195 -0.43744835 -1.4990124 0.3033238 0.5881461 -0.20492567 -0.1767592 -0.59624845 0.7464984 0.16557638 -0.25960103 -0.36134067 -0.06507874 -0.4246522 -0.65209323 0.36618507 0.051674046 -0.40414238 -0.103257 -0.10990349 -0.5227474 0.5320282 -0.83021593 -0.5468136 0.19007437 -0.11758209 -0.2032145 0.5319261 0.1090972 -0.6011349 -0.30494797 -0.024897117 0.88218397 0.46002632 -0.40892684 0.08639587 -0.3190472 -0.024005627 -0.11428814 0.73523474 -0.36244068 0.13329057 0.034362543 0.09202217 0.64091325 0.21919695 -0.32712546 -0.36029613 -0.2533244 0.5806231 -0.009439265 -0.18602352 0.025368825 -0.27150717 0.0767148 -0.18393107 -0.94807595 0.26347035 0.36839873 0.0020496305 -0.47991985 -0.2553655 -0.017305097 0.029011738 -0.5172089 -0.027687626 -0.38784668 -0.6408529 0.6191746 -0.5031665 0.19201718 -0.49605998 -1.2458417 0.16265836 -0.10207121 0.19774857 0.27947193 -0.29369038 0.019704184 -0.30442905 0.01808996 1.1360956 0.6558814 0.14638726 -0.30125383
grill -0.51288664 0.9512325 0.113306426 -0.2358409 -0.12883621 1.1826776 -0.58191293 0.7780309 -0.6589414 0.4509425 -0.36424792 0.021620387 -0.032017693 0.04752196 0.065559745 -0.41978502 0.02993494 -0.97924495 -0.12349544 -0.13305782 -0.3416588 0.2492102 -0.07277739 0.36857462 -0.2130704 0.030339288 -0.5501609 0.28267306 -0.13087486 0.027715977 -0.3971291 0.025517723 0.5706144 -0.06603609 0.16849552 -0.11075016 0.2529082 0.25448665 -0.6642873 0.31788465 0.24243663 -0.5527927 0.44300348 0.6691959 -0.49296838 0.50152755 -0.2589372 0.57576096 0.42584583 0.15370934 -0.14484459 -0.26458508 -0.30518198 -0.25604317 -0.05741312 0.075269036 0.2383676 -0.111022145 -0.04704825 0.039983712 0.009834792 -0.23425086 -0.059561595 -0.01915774 0.098870255 0.1583143 -0.2173247 0.2522378 -0.19503106 0.0784269 0.6874928 -0.5144884 -0.09757622 -0.16474667 -0.12336576 0.20818251 0.208587 -0.3001398 0.4063191 0.3425412 0.28294948 -0.13987172 -0.68214315 0.29551023 -0.6083367 0.43355137 -0.31112573 -0.4349945 -0.0045776055 -0.16004476 0.076373026 0.21100874 0.56916416 -0.49271297 -0.33042052 -0.16174334 0.3103905 0.24927795 -0.7947008 0.4614762
the -0.23432525 0.5576201 0.24948996 0.12326875 -0.5857105 0.6885999 0.06626633 0.52218807 -0.045967072 0.1145791 -0.6495525 0.078227386 0.62042147 -0.12734032 0.26816228 0.20527443 0.16885698 -0.7315609 -0.4497983 0.2103189 -0.22966799 -0.45430958 -0.41364005 -0.028471893 0.016402988 -0.18468826 -0.17160483 0.50747854 -0.34589356 0.14986761 0.13275187 0.19653471 0.07419747 -0.07821049 0.33241466 -0.064765796 0.5218729 -0.6920728 -0.024802571 -0.13402046 0.16891825 0.1971666 0.32162055 -0.41818884 0.30267456 0.088177465 0.52411544 -0.121405125 0.3265558 -0.36156172 0.06257788 -1.1006502 -0.08272367 0.28009546 -0.6334454 -0.30753553 0.3146003 -0.41156918 0.2571093 0.45821446 -0.29792678 -0.12847127 -0.3178635 0.2131668 0.25723127 -0.34378543 0.34577116 -0.11720574 -0.670539 0.03974273 0.39217204 -0.33956602 -0.40445194 0.8221975 0.2820314 -0.2749726 -0.48664227 -0.118877076 0.019757131 -0.20517324 0.18915729 -0.22607236 -0.38844496 -0.1862805 -0.25427014 0.35649115 -0.46129867 -0.5940651 -0.1515717 0.2561175 -0.12480753 0.8992668 0.46136746 -0.006107117 -0.09604907 0.1204621 -0.19049785 0.077022485 -0.4921119 -0.2550441
located 0.04846396 0.42428097 -0.24787912 0.16241224 -0.5775376 0.38953605 0.16470996 0.7176827 -0.5563153 0.08946343 -0.50585 -0.044455417 -0.027955934 -0.3274715 0.3232092 -0.5960838 -0.13351455 -0.16954911 -0.03650282 -0.41617993 0.039394855 0.46314797 -0.2189471 0.79521817 0.22875877 -0.2152442 -0.7156433 0.38504162 -0.6052041 0.011981234 -0.88258046 0.43634093 0.06825158 -0.75546324 -0.07981355 -0.88800246 0.41545832 -0.77108186 -0.17792504 0.6895389 0.35991994 0.19918226 0.64114845 -0.04121789 -0.17468533 0.41040704 0.08817259 0.71826756 0.76776916 -0.23059195 -0.2946192 -0.7055527 -0.5786591 -0.08425106 0.4839046 0.058970276 0.63238925 -0.5052382 -0.50409716 0.7162564 0.31141022 0.05402067 0.37317586 0.30990627 0.9169636 0.019559799 -0.4826631 -0.37232536 -0.69379073 -0.5616347 0.91118747 -0.7773413 0.2775319 0.3997669 -0.42748487 0.42595685 -0.6475144 -0.8464844 0.18170455 -0.33701384 -0.05132134 -0.10655772 -0.41774404 -0.024438528 -0.456698 0.16502145 0.16433246 -0.25566164 0.18147501 -0.33726442 0.39460316 0.30243954 0.7048677 -0.120100066 -0.32353216 -0.3559211 0.61663896 0.2578863 -0.0777569 0.5169784
supreme -0.05077915 0.8019231 -0.08234124 0.26957577 0.0062162066 0.0098429825 0.03997751 0.7168842 -0.5430126 0.0972612 -0.011263503 0.3369321 0.43371555 0.091408886 0.030834822 -0.15681185 -0.14215578 -1.1976686 0.45426488 0.40588894 0.04355176 -0.35641748 -0.4586932 0.5471505 -0.01348048 -0.17515118 -0.2342821 -0.07389438 -0.16475093 -0.5836563 0.12290403 0.030034473 -0.24220985 -0.15537703 -0.18287618 -0.4447155 0.7833071 -0.48458686 -0.3987415 -0.23914677 -0.25069234 -0.40430814 0.45847562 -0.36163622 -0.35318264 -0.113373615 -0.11722868 0.3112809 0.5938747 -0.38738546 0.15054859 -0.18616563 0.48642567 0.17257915 0.4111844 -0.63777345 0.12981246 0.14911127 0.102852836 0.11706235 -0.18162064 -0.41404352 -0.32394394 -0.48207417 0.5538184 0.13682173 -0.22928816 0.29569328 -0.2462555 -0.08256257 0.052198507 -0.8564901 0.2767216 0.23323242 -0.33059105 -0.06770025 -0.32411993 0.011570386 0.12925163 -0.42746374 0.13956237 -0.14018857 -0.449182 0.45473063 -0.6899701 0.34738913 -0.49983868 -0.8833312 0.16655481 0.062032927 0.027058834 0.2654326 -0.05123077 -0.101074494 -0.074705474 0.14781405 0.8693269 0.47027513 -0.011713093 -0.2911395
http://www.semanticweb.org/city/in3067-inm713/2023/restaurants#PizzaByStyle 0.1321889 0.49631163 0.85409755 0.028831638 -0.37031016 0.008286678 -0.01860776 0.0019458455 -0.5425499 -0.34883025 -0.3661044 0.8846504 0.5868915 0.715829 0.27678132 -0.13947833 -0.11897475 -0.5397142 -0.49913794 -0.35245088 0.17339063 0.017325228 -0.010115863 0.81881034 -0.18341193 0.006859264 -0.5395179 0.77551347 -0.23144694 -0.06340035 -0.10498492 0.70589685 -0.12022864 -0.17203255 0.031665854 -0.51191115 0.025266176 -0.23423053 -0.10724663 -0.0015297955 0.15034518 -0.03184467 0.842552 -0.79941374 -0.10208005 -0.012412446 0.36209938 0.41273332 0.35998127 -0.19697945 -0.09961953 -0.1743495 -0.07980763 -0.22938152 0.6413483 -0.2161225 -0.36612564 -0.30055788 0.57915205 0.14771283 0.39434376 0.1882504 -0.27252287 0.17220385 0.32092074 -0.038560618 -0.28455848 -0.27929917 -0.37839657 -0.8386877 0.08286728 -0.091391794 0.17124866 0.14449935 -0.092136234 -0.07176398 -0.17199917 -0.01609383 0.2858477 -0.22692825 -0.25881824 0.20095715 -0.34173238 0.72539085 -0.16284296 0.09257486 -0.03348982 -1.3846009 -0.2738389 0.2626285 -0.740604 0.6510914 0.0065649585 0.21490186 0.020710548 -0.018046157 -0.11110962 0.5342821 0.21532205 -0.3001014
bbq -0.43031648 1.0939896 -0.40785044 -0.188202 0.17032902 0.27243027 -0.20316248 0.8129298 -0.77803373 0.18211277 -0.28461286 -0.053347155 1.0059403 -0.06512649 -0.025393238 -0.12650953 -0.15423729 -0.20366195 -0.007857994 0.15073496 -0.20637128 0.2429281 -0.11530541 0.5351729 -0.095142685 -0.08613632 -0.4388057 -0.05439837 -0.09209557 -0.10348167 0.14803489 -0.2685664 -0.22536288 -0.24839383 0.23353612 -0.12764175 0.67753536 0.064708844 -0.58433765 0.2885332 -0.18049635 -0.5365354 1.0098902 -0.46145543 -0.5729569 0.5039062 0.38114914 0.6236099 0.6678007 -0.24463965 0.28275144 -0.35760906 -0.15533164 -0.21234538 0.04358759 -0.023545532 0.91068906 0.0024970956 -0.05545712 0.23551326 0.2354863 0.04808198 -0.5118712 -0.1211734 -0.12531061 -0.13801163 0.11688283 0.31302762 -0.2776987 0.24496181 0.35136133 -1.0645803 -0.47867152 0.5200678 0.4363115 0.15665321 0.16816668 0.087598346 0.49487925 -0.9836403 -0.29100642 -0.48593774 -0.2813819 0.28814822 -0.7276754 0.5136539 -0.44086888 -1.4246241 0.032344572 0.29057527 -0.2470045 0.162345 0.83509916 0.10729314 -0.1544291 0.11807779 0.49160922 0.40970927 -0.46182543 -0.38254178
comment 0.011853336 0.6056188 0.6907027 -0.03405787 0.11494875 0.11233951 -0.24138908 0.44822484 -0.6747467 -0.2694148 -0.09810965 0.6707889 0.954619 0.42237294 0.4218252 -0.20073573 -0.39866748 -0.56783074 -0.8345453 -0.39194262 0.20728628 -0.3654046 -0.12464957 0.6834335 -0.21199137 -0.23849344 -0.25242957 0.35626718 -0.09154844 0.18680659 -0.10325861 0.094848864 -0.2805539 -0.48270914 0.34115133 -0.5288853 -0.009897085 -0.5647057 -0.2615772 0.13767947 -0.11694098 0.17210221 0.6470447 -0.7958649 0.4328742 0.16781849 0.5325611 0.50218654 0.5103018 -0.22171208 0.298392 -0.25926253 -0.20496635 -0.13868482 0.5712865 -0.049094375 0.35367146 -0.19652316 0.14478593 0.71861327 0.48559046 -0.02699675 -0.5611686 0.37225854 0.4554044 0.11515628 0.002625843 -0.17002681 -0.3249417 -0.9115064 0.04433205 -0.38834208 0.23761417 0.40353554 0.10246408 -0.0063790157 -0.030832846 -0.2440118 0.028431075 -0.44361666 0.055249948 0.15784581 -0.468029 0.58626807 -0.14017959 0.5422005 -0.41324914 -1.395406 -0.08378747 0.26046616 0.26432613 0.30513173 0.42015797 0.1971312 -0.060304005 -0.2562082 -0.10195721 0.31502086 0.13954075 -0.3235602
http://www.semanticweb.org/city/in3067-inm713/2023/restaurants#VeganIngredient -0.17730406 0.61371726 -0.055691954 0.41040766 -0.38062876 0.0505712 -0.020459676 0.11787662 -0.5605488 0.110242255 -0.57021916 0.41505226 0.9230204 0.047119595 -0.045334343 -0.33419546 -0.16686516 -0.6960252 -0.4774256 -0.06719914 0.108968616 0.26021108 -0.33250853 0.84020346 -0.18222602 -0.29516983 -0.5316218 0.2708694 -0.10787007 -0.029382177 -0.17060179 0.30074188 -0.21708906 -0.41826013 -0.06655586 -0.27774447 0.27965018 -0.52686673 -0.5488475 0.37957653 0.016436374 -0.21343236 0.6874082 -0.48598704 -0.2757586 -0.2176598 0.24522768 0.83179283 0.26602617 -0.47132516 0.10510521 -0.3071175 -0.2592982 -0.27430272 0.5715505 0.23715359 0.24442707 0.056577403 0.017214356 0.45549956 0.15811345 0.20085664 -0.39161882 -0.024161452 0.3622176 0.093355685 -0.287612 -0.15702036 -0.015793398 -0.29852414 0.13598761 -0.39325935 0.01208781 0.30276516 0.13574158 -0.31080276 0.20136447 0.17904 0.24593541 -0.6273403 -0.78884226 -0.2020349 -0.037486874 0.27078378 -0.55901474 0.17173663 0.31851915 -1.1353363 0.0482295 0.35835522 -0.47214273 0.13471362 0.1709125 0.31054214 0.007621442 0.07535628 0.1383947 0.46020475 0.21553117 -0.34423557
http://www.semanticweb.org/city/in3067-inm713/2023/restaurants/State -0.063540705 0.17525004 0.12978792 0.2254752 -0.36450008 0.18186942 0.11959647 0.088006884 -0.084782794 0.061650615 -0.4133489 -0.010819642 -0.022324253 0.26561588 0.17675267 -0.093122154 0.021049554 -0.72745717 -0.010661919 -0.07647172 0.07846615 0.08083075 -0.37781787 0.5696202 -0.007933793 -0.085747465 -0.40454963 0.2865166 0.046224486 0.2598274 -0.2397062 0.42660752 -0.012152229 -0.020523967 0.2860593 -0.073119864 0.42113182 -0.23855029 -0.28246814 0.058347855 0.08412985 0.010357624 0.08462091 -0.052993752 -0.1906174 0.35301718 0.31932777 0.40496522 0.43749183 -0.24942175 -0.3030723 -0.66737413 -0.03251991 0.18831949 0.08899347 -0.022766598 -0.10297102 -0.34168229 0.016286926 0.11777507 0.0690649 -0.12632814 -0.007241872 0.163427 0.34996355 0.14647327 -0.14817092 -0.11455097 -0.17814095 0.051610067 0.31335202 -0.09892159 -0.12731755 0.08781726 -0.0989074 0.045428023 -0.34377208 0.10585527 -0.0067008403 -0.043411512 0.102587715 -0.11352936 -0.19004098 0.0128359 -0.21925177 0.017459946 0.18868835 -0.17079107 0.033227015 0.11005816 -0.43849367 0.49068218 0.07545129 -0.42478544 0.17119329 0.0268645 -0.011246202 0.28002906 0.027276903 -0.015027723
american -0.094194196 0.4819217 0.45095327 -0.31773844 -0.12090277 0.57416147 -0.28997836 0.72591174 -0.51789206 -0.25722596 -0.33019015 0.39830673 0.28899994 0.25962296 0.11887292 -0.01797662 0.007433626 0.007430423 -0.2310338 -0.46326897 -0.39147374 0.2080958 0.24212217 0.27332667 -0.03364852 0.045512017 -0.29998198 0.39623216 -0.4855176 -0.17913944 -0.33630183 0.42193443 0.15583041 -0.29936188 0.2724944 -0.63421845 0.19060683 -0.094902255 -0.03939702 0.21395607 0.24799356 0.012146241 0.82471174 -0.17427284 0.002034782 0.29526767 0.005077373 0.29263267 0.73113364 0.22411422 -0.027478626 -0.25953004 -0.027198968 -0.44022182 0.4683403 -0.08812013 0.4125248 -0.051530182 0.11896153 0.5303554 0.28008363 -0.2519224 0.20402789 0.18385078 0.095723316 -0.22684951 -0.3115103 -0.17084749 -0.5983523 -0.4572582 0.2773904 -0.43429703 0.013160354 -0.09560986 -0.22730927 0.1748388 -0.07087403 -0.550974 0.21684386 -0.117508374 0.1078709 0.27478734 -0.50412875 0.4648081 -0.056170106 0.3325784 -0.577396 -0.7180069 0.023480592 -0.14167543 0.04967814 0.12776451 0.46215248 0.06426444 -0.073066786 -0.023627864 0.15839577 0.10035914 -0.27459684 0.45220184
hawaiian -0.4109475 0.540765 -0.0022438546 0.072340235 -0.01785099 0.043596767 -0.18366149 0.52687585 -0.6423535 -0.4173017 -0.10028655 0.5720123 0.77549076 0.07863366 -0.044553537 0.06424256 0.007889473 -0.33755076 -0.056485735 0.050838403 0.115399204 -0.15215911 -0.24899328 0.6685991 0.07486923 0.11617891 -0.13257925 -0.002197924 -0.3810916 -0.1016201 -0.25863704 0.08395557 -0.20434102 -0.30554834 -0.14793722 -0.5479178 0.5506343 -0.3510414 -0.22461185 -0.030541768 -0.21406144 -0.3416665 0.7852605 -0.7891785 0.078836724 -0.13450259 0.06284699 0.395392 0.62712705 -0.3655462 0.3613423 -0.18071313 -0.2168274 0.0014014567 0.43484017 -0.29668063 0.70247966 0.2848926 -0.062505655 0.19573186 0.00055871025 0.2968148 -0.43887347 0.08237466 0.47240168 -0.11139167 -0.24233302 0.28667173 -0.36143923 -0.23095326 0.5299734 -0.96029043 -0.006558016 -0.041188452 -0.26546487 0.11547381 -0.052354205 -0.27880955 -0.016223373 -0.6671814 -0.28073478 0.08827542 -0.43366623 0.5531306 -0.42305094 0.4696482 -0.39887282 -1.1411415 0.09212642 0.011523204 0.0034603837 0.32168996 0.3209036 0.3364382 -0.16192764 -0.034453966 0.4347438 0.5810712 -0.20657328 -0.14246297
place 0.39458215 0.37629318 0.07640337 -0.15595965 -0.17200623 0.52893084 0.20322216 0.5582993 -0.38766578 0.15389028 -0.09466061 -0.8601955 -0.016927725 0.11207634 0.16048038 -0.37631053 -0.2539297 -0.030205749 -0.03853329 -0.24457856 -0.52606905 0.23507088 0.052141942 0.4782059 -0.20866452 -0.31829888 -0.40299654 0.008699645 -0.06581688 -0.5640381 -0.4794886 0.54947823 0.5094345 -0.29712662 -0.045480106 -0.001301102 0.7403964 -0.43955785 -0.018279426 0.29489523 0.58328843 0.29024604 0.6907995 -0.15939905 -0.46474338 0.5312598 0.12042573 0.33672523 0.51280457 0.07741042 -0.09595986 -0.1444606 0.072491154 -0.10497207 0.1702801 0.09809755 0.04783298 0.16261114 -0.24940096 0.68725014 0.14286754 -0.5425899 0.15093787 0.41784006 0.15351425 0.25381103 -0.48397574 0.021392588 -0.7709059 -0.04387706 0.3156347 -0.74151456 -0.26641876 0.31037864 -0.25180447 0.22517864 -0.22824533 -0.1883549 0.16640364 -0.05911656 0.2235418 0.06517491 -0.61639565 -0.06334088 -0.51843697 -0.4182636 -0.00010351519 -0.40241563 0.3597308 -0.10926343 -0.34518108 0.45918685 0.34924284 -0.1437941 -0.2599017 0.41292512 0.48045644 0.3943122 -0.73107815 0.22951233
beans 0.08693345 0.71256614 0.25937665 -0.14866799 0.120218486 0.043289054 -0.41819024 0.59348476 -0.79771024 -0.2212148 -0.0687866 0.45791218 0.68502504 0.2515603 0.3197879 0.112085 -0.22072938 -0.2349874 -0.047974262 -0.24809329 -0.09579354 -0.12835771 0.19906512 0.64636546 -0.039526735 -0.1485087 -0.33370382 0.129464 -0.5451604 -0.35757923 -0.44149864 0.32466167 -0.229995 -0.19430591 -0.22558032 -0.7316801 0.6087174 -0.51583123 -0.4294077 0.14988473 0.102786824 -0.36813778 0.9053663 -0.8162934 -0.09848325 -0.033920478 0.098450586 0.34897816 0.68845147 -0.30215603 0.33325472 -0.0023758938 -0.10700667 -0.4750415 0.6789409 -0.38643676 0.2893467 0.051348653 0.19795984 0.49757588 0.3411313 -0.035339985 -0.6731097 0.005287756 0.44882554 0.0631708 -0.3327779 0.021533052 -0.50750846 -0.80697936 0.23572384 -1.0304202 0.10239603 0.31451145 0.04314529 0.095125295 0.13245958 -0.18152194 0.05593993 -0.5188109 -0.11886105 0.119622156 -0.69880134 0.66564614 -0.54296607 0.23195189 -0.4816223 -1.3779894 0.06393947 0.29075587 -0.06073821 0.052502267 0.4386761 0.35577512 -0.114631906 -0.06935731 0.507121 0.34651375 -0.34059256 -0.117885984
marinara -0.22782682 0.65636593 -0.4877027 -0.17368051 0.0516226 0.24067557 -0.13617784 0.67459095 -0.6561673 -0.3461344 -0.19603138 0.4026371 0.53520405 -0.027043963 -0.112176694 -0.03218617 -0.13343824 -0.26074466 -0.16026819 0.034636434 0.093422495 0.194378 -0.2557064 0.8143559 -0.09849235 0.113358505 -0.23964329 -0.006588245 -0.4565776 -0.040482 -0.43220344 -0.0634762 0.08270747 -0.36523286 -0.22278453 -0.4411486 0.6718523 -0.43922287 -0.40291974 0.1619099 -0.07496936 -0.4669098 0.8222585 -0.58876693 -0.13239428 0.0008601209 -0.15510453 0.4782625 0.8430208 -0.6240915 0.4035355 -0.023876239 -0.29620883 -0.26519972 0.391059 -0.17218928 0.72218156 0.5196242 -0.19297747 0.433364 -0.11135664 0.38717395 -0.6701454 -0.017324202 0.31430295 -0.04220852 -0.34425282 0.41298464 -0.26301867 -0.25230652 0.48208988 -0.94879544 -0.087027125 0.05213476 -0.11469779 0.09718593 0.14325896 -0.29668784 -0.06823397 -0.6179602 -0.31890732 -0.2630863 -0.44348803 0.4351461 -0.6233246 0.5619532 -0.1776362 -1.0413803 0.17989735 0.13895692 -0.19233353 0.06903185 0.40835655 0.2644828 -0.042070646 -0.07400993 0.65614855 0.5949613 -0.3881097 -0.026653742
bars 0.03642592 0.49964893 0.37032056 0.02951281 0.022436138 0.80875117 -0.33735058 0.47055256 -0.69257057 -0.0794696 -0.40724647 -0.5151232 0.3664222 -0.040133663 -0.39262185 -0.47609603 -0.41350326 -0.20958187 -0.89898115 -0.35562617 -0.91842836 0.33499312 -0.0023363072 0.76613593 -0.28937513 -0.47750273 -0.4067251 0.10437141 -0.15644969 -0.6813497 -0.80535 0.85964084 0.11885696 -0.272758 0.17052115 -0.2983475 0.3607704 -0.4133657 -0.32127267 0.14362614 0.5298816 0.1939925 0.65393263 0.0028990377 -0.41730878 0.41909537 0.28224808 0.92704934 0.7462085 -0.1818592 0.14763485 -0.14664444 -0.4835532 -0.14293839 0.71323824 -0.04749323 0.42301127 0.4716593 -0.33100227 1.2117096 0.6139668 -0.58656776 -0.14900127 0.57244337 0.10831183 0.09565095 -0.8602737 -0.2301883 -0.6691759 -0.6268313 0.36044478 -0.7872458 -0.3715356 0.2962246 -0.1361229 -0.30306152 0.47802374 -0.31151238 -0.29508802 -0.1434435 0.049974836 -0.3912506 -0.8948192 0.2416025 -0.49215016 -0.21771444 -0.21855846 -1.1368912 -0.016364379 0.17526326 -0.68271416 0.14330736 0.6473111 0.17098899 -0.5131826 0.23777764 0.68516517 0.44466412 -0.8514377 0.2835443
feta -0.15573202 0.6123552 0.08592957 -0.06868782 -0.15108967 0.06658785 -0.5281066 0.40263313 -0.90594727 -0.20149212 -0.11076225 0.30357543 0.58096194 0.1362802 0.15172109 0.11931487 -0.010229339 -0.23474154 -0.086325094 -0.025306314 -0.04716576 -0.10038193 0.11379334 0.5869102 0.07157096 -0.07686214 -0.39425573 -0.047995627 -0.4923016 -0.4012683 -0.4668321 0.40489146 -0.16950062 -0.13216177 -0.35001093 -0.59259695 0.5417709 -0.35789108 -0.45789665 0.28350216 0.1170231 -0.41551727 0.6560815 -0.54647154 -0.18112381 -0.05238525 0.034545608 0.43942523 0.7535674 -0.41378117 0.24785894 -0.025541957 -0.27294058 -0.3799076 0.7101589 -0.33538127 0.41468304 0.29776105 -0.005307486 0.4027343 0.39367098 -0.066562034 -0.44031286 0.08706387 0.33050737 0.10502276 -0.5522671 -0.004963023 -0.4024648 -0.6707327 0.4421888 -1.0012692 0.06320294 0.24225987 0.014860171 -0.020817038 0.24516751 -0.104599215 -0.018725095 -0.54928833 -0.23697731 0.08500745 -0.59906566 0.5816619 -0.56165594 0.16197713 -0.52978945 -1.2270154 0.14457105 0.2102181 -0.082359776 -0.060220502 0.5751548 0.34651697 -0.25418326 -0.004823806 0.51074505 0.39267087 -0.3741319 -0.0673175
http://www.semanticweb.org/city/in3067-inm713/2023/restaurants#SeaFood -0.09407912 0.43774715 0.15089858 0.23879209 -0.13565944 -0.012788331 0.046272095 0.0767829 -0.46331236 -0.013922286 -0.39191318 0.38686794 0.3883792 0.21783635 -0.02427483 -0.16734974 -0.1590195 -0.64225 -0.287874 -0.016074732 0.008523321 0.15384199 -0.1560619 0.6144433 0.012869384 -0.1775493 -0.4540951 0.24431911 -0.40568984 -0.11232892 -0.2725272 0.6038577 -0.17135258 -0.130356 -0.24090853 -0.57790166 0.21920227 -0.5298056 -0.27023262 0.08993179 0.07365605 -0.2271971 0.60072094 -0.37915778 -0.3181888 -0.31230816 0.10870631 0.6890678 0.47302738 -0.39529073 0.024265535 -0.17991652 -0.03436018 -0.3794864 0.5286894 -0.13010815 -0.037044514 -0.11306607 0.25403237 0.36235207 0.15791643 0.022435792 -0.211512 0.15133914 0.5716076 0.0872385 -0.40406942 -0.071132846 -0.15182237 -0.38679057 0.077017464 -0.60504717 0.094908714 0.16350381 -0.14260589 -0.05578426 0.0729775 0.20553961 0.08822742 -0.35975915 -0.414624 -0.019818146 -0.21545433 0.4868312 -0.31056723 -0.0021541386 0.10687065 -0.88496816 0.18886037 0.21446489 -0.3038009 0.18970606 0.055775348 0.20025095 -0.08250522 -0.08514949 0.48957005 0.43800303 0.088169575 -0.2459261
http://www.semanticweb.org/city/in3067-inm713/2023/restaurants#TomatoSauce -0.2813444 0.45386344 -0.38718092 0.17864475 -0.45932478 0.086321004 -0.13093103 0.1384868 -0.7004702 -0.078433804 -0.5975692 0.56516165 0.5596613 0.1978314 -0.11754126 -0.016558608 -0.088913664 -0.71693105 -0.30512056 0.21758722 0.12722638 0.38052082 -0.43924728 1.1201606 0.040754497 -0.0070188367 -0.4558682 0.34976828 -0.5690266 0.08775903 -0.39932528 0.3476692 -0.14543074 -0.256514 -0.22259095 -0.5885514 0.5128517 -0.3939629 -0.6205948 0.3136641 -0.09097725 -0.532382 0.7717018 -0.47993255 -0.43134248 -0.33730227 -0.073585935 0.9299098 0.5275708 -0.81065065 0.1012383 -0.24403302 -0.38412443 -0.37745383 0.5628389 0.07831583 0.23735215 0.12124383 0.13644688 0.41776365 -0.06598639 0.405156 -0.40053535 -0.06795364 0.3635341 0.0317894 -0.36253002 -0.04070141 0.02921849 -0.20308633 0.27743962 -0.66466975 -0.022742258 0.15567248 0.10210411 -0.2147702 0.2528422 0.21900322 0.09821113 -0.56772566 -0.94504124 -0.44132498 -0.16640449 0.39201778 -0.61117196 0.2872703 0.23824747 -1.156244 0.17348741 0.38691255 -0.7081734 0.14380871 0.07842496 0.20755906 0.033977475 -0.15146112 0.48845917 0.73886764 0.19771051 -0.31915754
japanese -0.1640929 0.67739415 0.26226577 0.043575525 0.091322415 0.22470535 -0.023166763 0.667183 -0.53917855 -0.32229322 -0.21250582 0.52586466 0.4391447 0.059928183 0.05188552 -0.15295683 -0.116221495 -0.097478524 -0.18131116 -0.42938057 -0.1454563 -0.05145845 0.0811358 0.16997334 0.0015958985 -0.32764983 -0.15237866 0.085670315 -0.40374282 -0.36858565 -0.4966948 0.432169 -0.20929211 -0.44893888 -0.029514302 -0.8549653 0.26954263 -0.5193561 -0.1719151 -0.04565808 0.3343314 -0.100769125 0.80503064 -0.45144793 0.2365606 0.07775448 0.09254225 0.24176247 0.764734 -0.19900654 0.068449564 -0.26552618 0.45285097 -0.439384 0.4329365 -0.26126838 0.37474683 -0.26286572 0.19978957 0.6342783 0.20781076 -0.20737022 -0.01642889 0.013862233 0.3720048 -0.046294898 -0.48908305 -0.13684936 -0.72417796 -0.51287764 0.22954725 -0.89747477 0.11341567 0.26258826 -0.40240744 0.3309459 -0.26620454 -0.17615725 0.3948805 -0.5050919 0.0090143 0.52430165 -0.38680607 0.59337825 -0.13352263 0.1595502 -0.46837145 -0.9086974 0.120411746 -0.13489269 0.28898197 -0.0057084817 0.49439162 0.34967947 0.006506919 -0.0830659 0.5102498 0.17090738 -0.2489215 -0.041375373
, 0.0017457162 0.61004764 0.21016228 0.09743289 -0.0014578128 0.77107775 -0.22118573 0.15814565 -0.662318 -0.124109015 -0.28610554 -0.51610273 0.20827553 0.06446541 -0.111524366 -0.39569044 -0.3086271 -0.38325912 -0.78007746 -0.15496953 -0.72386503 -0.024205578 0.15570877 0.6246152 -0.37946808 -0.14473768 -0.14018293 -0.06864007 -0.102072194 -0.510839 -0.742791 0.712912 0.030394422 -0.32153192 0.33451578 -0.2504033 0.7604262 -0.66846865 -0.20924424 0.1993385 0.4662591 0.023248708 0.7955879 -0.56321204 -0.3416705 0.22432676 0.2631087 0.84153223 0.8176426 -0.18823488 0.12740661 0.048346184 -0.40623346 -0.039437126 0.63879687 0.19633916 0.3259176 0.15513796 -0.10462369 1.204156 0.42814577 -0.369548 -0.36269343 0.31581205 0.33055523 0.057312865 -0.6938613 -0.0896941 -0.5504324 -0.85155237 -0.030881014 -0.92167675 -0.2885851 0.21912837 0.18199341 0.06645078 0.3238338 -0.20002022 -0.51064676 -0.10033957 0.32759798 -0.23498464 -0.8473605 0.33097875 -0.24754582 -0.34025237 -0.11340459 -0.9084878 0.2134629 0.25751242 -0.6179267 0.10484031 0.68501353 -0.016372126 -0.5396762 0.06628037 0.3816085 0.33573523 -0.81493586 0.38541704
http://www.semanticweb.org/city/in3067-inm713/2023/restaurants#Location 0.25414863 0.2521441 -0.24868017 0.6906903 -0.734459 0.32701603 0.48836297 0.23074666 -0.36470976 0.2285008 -0.94634676 0.13066903 0.2548353 0.001760355 -0.105549075 -0.76628816 -0.08204163 -0.75691116 -0.3004478 -0.31807593 0.28799734 0.64992005 -0.008758879 1.1748536 -0.04458954 0.029455412 -0.93201286 0.70435053 -0.23287922 -0.12988462 -0.87415594 0.70432466 -0.006173645 -0.98462415 0.15191866 -0.72918195 0.10460738 -0.54374236 -0.123340935 0.52112 0.43031654 -0.013780161 0.4787912 -0.2363799 -0.12867483 0.29587463 0.21263422 0.7305659 0.43860686 -0.205655 -0.3583065 -0.6014124 -0.39023444 -0.020843158 0.5195552 0.21293549 0.19634162 -0.5131233 -0.25591385 0.6591331 -0.12950166 0.120772175 0.38370198 0.3699944 1.0229771 0.12712808 -0.5733891 -0.600718 -0.22438866 -0.45577002 0.4945999 0.050373714 0.23626007 0.1349795 -0.62609106 0.19139583 -0.7019187 -0.48677292 0.28818095 -0.25283965 -0.37208444 -0.12207454 -0.09968681 0.14836043 -0.38230383 -0.016379185 0.85564584 -0.5960641 -0.009386503 -0.21144585 -0.34777808 0.5592885 0.16258237 -0.41040787 -0.36315408 -0.21856183 0.41882646 0.5085874 0.3426509 0.36093643
pubs 0.016440406 0.33067143 0.33945274 0.18191007 -0.02826663 0.71114016 -0.21573395 0.31370568 -0.79580814 0.08430754 -0.26830733 -0.5745703 0.47898802 0.10592083 -0.46783662 -0.33559892 -0.29011762 -0.19423777 -0.70810264 -0.33176434 -0.75444645 0.25838083 0.1379865 0.9172822 -0.11784967 -0.16371144 -0.40404788 0.25496095 -0.36582702 -0.5228742 -0.8999729 0.75754213 0.3026192 -0.5191217 0.14486542 -0.3184422 0.8304216 -0.6345455 -0.33663708 0.18874139 0.61085427 0.32948512 0.75476915 -0.17830725 -0.29773867 0.43749624 0.16375521 0.81489754 0.6859111 0.05469474 0.17231518 -0.123532094 -0.4365724 -0.11653618 0.8417541 -0.040705904 0.29297617 0.30179206 -0.12511653 1.3122841 0.34464297 -0.3657933 0.008873362 0.3059838 0.07368266 0.014849683 -0.9373902 -0.14120604 -0.7489004 -0.7709706 0.14036085 -0.9944656 -0.31313136 0.28555506 -0.23490204 -0.024841776 0.31607082 -0.21944281 -0.40840754 -0.089268304 0.1464171 -0.2749352 -0.9560109 0.32639763 -0.31181633 -0.37756523 -0.2968403 -0.95879704 0.15244798 0.11388357 -0.7119098 -0.10659011 0.41999206 -0.12346179 -0.6236726 0.15473592 0.81530917 0.2833161 -1.0154558 0.25961193
address 0.27772245 0.3619691 -0.19165167 0.16976038 -0.50742805 0.33796334 0.06642225 0.73675233 -0.55579 0.051439416 -0.44398287 -0.21675201 0.0027206345 -0.20492418 0.054872517 -0.48916382 -0.10179871 -0.24104486 0.034781214 -0.51854604 0.0003599092 0.40129918 0.032542266 0.76955813 0.10300632 0.027410455 -0.69668484 0.27999187 -0.5676628 -0.2239034 -1.1212368 0.5315064 0.091943 -0.7742145 0.068566866 -0.9301295 0.507875 -0.67029387 -0.25135377 0.55665034 0.47248068 -0.0063513946 0.6128995 -0.121605046 -0.28066537 0.63359374 -0.051639874 0.6664628 0.85929555 -0.16116369 -0.33336177 -0.49960977 -0.5052609 -0.14550018 0.6038308 0.038376477 0.5995986 -0.25648695 -0.41082865 0.7586627 0.23623683 -0.18775211 0.33839378 0.3653921 0.84413886 0.09778099 -0.7825836 -0.32699874 -0.5667781 -0.40854988 0.8289593 -0.6320508 0.3136315 0.07056564 -0.44214106 0.26894143 -0.61601806 -0.76191103 0.15414126 -0.3711815 -0.049050204 -0.08625214 -0.5679266 0.08725696 -0.44566175 -0.026859699 0.24686164 -0.2907419 0.38164127 -0.30979162 0.205814 0.21732087 0.7001574 -0.25468674 -0.45969754 -0.09533779 0.7522214 0.40806273 -0.13205573 0.43208337
value -0.046250086 0.9149373 -0.18435153 -0.10774903 -0.19881333 0.0030197846 -0.27550793 0.9967974 -0.7887799 -0.113904625 0.3060727 0.62539357 0.15199316 0.17076978 0.6209193 0.13810344 -0.21656263 -0.31442615 0.6177353 -0.12868342 0.25451794 0.050804064 -0.11496085 0.7546523 -0.07903344 -0.39427 -0.37129208 0.04557246 -0.6591202 -0.353796 -0.68556666 0.3198227 0.0823399 0.18010011 -0.39254147 -0.57054824 0.87774163 -0.54208285 -0.6230381 0.25031027 0.2307018 -0.41121677 0.90627044 -0.7314493 -0.19812769 -0.022386448 0.17979705 0.30378205 0.61194634 -0.60982335 0.14241748 -0.10568794 -0.047553632 -0.5837892 0.43858913 -0.36139366 0.18027885 -0.10316808 0.13703422 0.40859276 0.26343435 0.112179495 -0.4456919 -0.041072614 0.552883 0.10359304 -0.5900508 0.23679283 -0.61708856 -0.3322965 0.58455604 -1.0307827 0.2789172 0.43598667 0.34457353 0.21082199 -0.17919706 -0.33124208 0.59858966 -0.37735882 -0.18718266 0.53548044 -0.51597726 0.49292523 -1.0627313 0.018077929 0.005770689 -0.6521022 0.69476366 0.4093619 0.030187735 0.40560582 0.5455919 0.44894415 0.14952336 0.007435288 0.7903476 0.6808369 -0.07792676 -0.28172633
sause -0.42750737 0.91473883 -0.34505618 -0.07261392 -0.309435 -0.077850334 -0.2133272 0.48501313 -1.0750043 0.3237171 -0.40808535 -0.002084655 1.4389724 -0.07746152 -0.0034362504 -0.12815863 -0.3311601 -0.49316803 -0.01672416 -0.20711401 -0.06018199 0.37619045 -0.35011882 1.2296162 -0.20299299 -0.40855265 -0.55869097 0.18188201 -0.19519214 -0.05022608 -0.036294337 0.102721184 -0.3898984 -0.5956345 0.029719641 -0.1987361 0.441041 -0.35724133 -0.8576191 0.63396657 -0.088088796 -0.12835507 0.8930976 -0.68831444 -0.60406196 0.13063323 0.5160255 1.0519826 0.31575808 -0.44914162 0.48335877 -0.3772995 -0.30158663 -0.36366594 0.5518711 0.250001 0.7639725 -0.09675671 0.05877826 0.731107 0.37843302 -0.14183515 -0.33821085 0.0077971267 -0.014347676 0.024439475 0.017421925 -0.03042155 -0.48169175 0.051191196 0.3454661 -1.1669208 0.042651292 0.6763846 0.6056636 -0.3998421 0.25079858 0.38168943 0.55224204 -0.74398184 -0.86627823 -0.5275287 -0.4009729 0.34957626 -0.7220091 0.17106667 0.011705361 -1.4715335 0.097372994 0.3944011 -0.24725088 0.04135264 0.4345048 0.25461918 -0.30424935 0.28747725 0.5850303 0.6372708 -0.17454731 -0.37141
